325 64
0 1.141025 -2.530311 -1.283661 -0.060002513 -0.6804922 0.20011021 2.6941454 0.9477483 0.50816905 -1.4376205 -0.5005099 -0.39112708 -1.3109603 -0.99853665 0.6189083 -1.0711625 -0.39051804 -0.055409368 0.3364566 2.1427164 0.8440104 -0.61339015 0.7913675 -0.55878186 0.05652204 1.7672703 -0.29972926 -0.92336935 -1.0416101 0.029516555 -3.105362 -0.6353146 0.6331936 -1.0710315 4.5377884 -2.1430297 0.60708064 -2.861614 0.29112563 -0.79352015 -1.899344 2.402085 -0.33851582 0.7135646 0.45428124 -0.9206387 -3.6532118 -0.03251669 -0.1657987 2.1888556 0.04983256 1.0453995 1.0372702 1.0909361 2.3181791 1.6763998 -0.65037024 -0.6340526 -4.4730854 2.3833153 -1.8244245 -2.4325879 2.391236 0.9931784
1 -1.2601895 -2.2003214 -1.1921113 -0.25457147 0.4714631 0.23063414 1.9804285 2.659225 0.3378228 1.7558948 -4.4170237 1.3750515 0.09677941 -1.8267268 -1.1171039 -1.3944606 -2.5341973 -1.4667482 0.79525876 -0.6965185 -0.14058766 1.0780557 3.253376 -0.4735548 -0.81166124 0.9133998 0.5381597 0.8072772 -0.9042283 -0.7824636 -2.3765814 -0.56202745 -2.1019769 0.8062738 2.3277981 -1.4211365 -1.043717 0.6247515 0.4432654 -1.2110353 0.32638317 0.6622931 -0.22146648 -1.4100195 1.4095546 0.60736763 -1.0249943 0.39205334 -0.31260565 -0.5215411 1.3825897 -0.41862094 0.88066757 0.24829774 1.9271328 -0.12234241 -3.1106503 -0.62116826 0.28895497 -2.1212678 1.5319592 -0.6636374 0.703895 0.090616435
2 1.4170634 -2.3845584 -0.7497188 0.56130886 0.32010406 2.1302683 2.887581 0.38460496 1.3553661 1.5489223 -1.5953268 -0.9069733 -1.1518089 -0.3024947 0.33948454 0.5122608 0.30574828 1.7242596 -0.2609058 0.6798183 -0.5810382 1.3410901 1.1572089 0.22464919 0.24919559 -0.06336311 -0.57345057 0.1841856 -0.5280589 0.0835676 -3.3697731 -0.08397963 -1.4330242 -2.0263581 2.4987185 -1.6030526 0.41263714 -0.3788752 1.0866106 -1.1203725 -0.3428176 0.7503327 -0.91245914 -0.54673654 0.47924668 -0.79488945 -0.9971477 -1.7022754 -0.4436079 2.2858713 0.19931477 -2.7872572 2.1787267 2.027116 1.110803 1.5367593 -0.16566087 0.64726454 -3.6107953 2.1238744 -2.0173116 -1.0223371 0.5392828 0.28030837
3 -0.27108482 0.5887616 0.39883885 -0.78891474 0.17385162 0.97225094 3.058054 -0.5910376 0.64527625 1.1744181 -1.1514521 0.15670417 -1.3691477 -2.1406841 -1.4112871 -0.6232634 -0.2799158 2.5990157 -0.36354297 -0.8797025 1.0234749 1.2077999 1.8448516 -0.19518901 2.3587549 0.29050195 -1.7246693 -1.2904445 -1.1845832 0.6391187 -1.9191664 -0.025340362 -0.9799026 -0.96707624 2.3340316 -1.7182648 1.3352996 -1.6190572 -0.4640652 -1.5130836 0.2531036 -0.35819656 -0.50769114 -2.0885165 0.77870363 -0.055789985 -1.0248294 -1.3196564 0.44454125 -0.4551287 1.1175413 0.70078194 0.0420335 -0.6846022 -0.64778113 -1.7427802 -0.5699182 -1.5295228 -2.4460676 -1.0964326 -1.050754 -0.009278109 -1.7455636 1.826698
4 0.98781 -3.3170497 -0.8848577 -0.05538885 -2.1955574 -0.19366193 4.8047504 -0.24742329 -0.15943077 -1.1006233 -1.3269482 -1.501341 -2.2000554 -1.7057017 -0.6476109 -0.99925613 -0.8533172 -0.34530422 0.13524748 0.46298027 2.6126697 -0.15448132 -0.4023483 -2.248982 0.3138047 2.1990628 0.8717524 -0.82132924 1.1727486 0.23365764 -3.8130405 2.1658795 0.527471 0.67387444 4.193595 -1.1289027 0.047450956 -0.9820609 -1.4131864 -2.0895808 -2.6557226 3.1046915 -1.6184773 0.20907284 0.2186735 -0.36169663 -3.149317 0.36815307 -1.5196761 1.8217672 0.7572151 0.4068249 1.7579737 1.9148669 0.65354306 -1.2618765 -0.6871228 -0.45595598 -2.336098 2.076943 -0.22469206 -2.0868998 0.82558334 2.8038077
5 -1.6971205 -1.6475722 1.4098109 -2.2043078 0.21097402 1.1339455 0.8737373 2.2245288 -1.7582473 0.81481385 -1.3134695 0.17889187 0.42669594 -1.7322795 -1.8276058 -0.0018188949 -0.5526584 -0.6845307 1.1011778 -0.87760997 0.94109726 0.10511364 1.3844997 0.1027854 -1.9085748 0.072341114 0.54366696 -0.97512573 0.16950908 -1.6130629 0.033589717 0.603661 -0.099739686 0.8055459 0.40106392 -0.81018955 0.32069638 -0.91001886 -0.19315393 -2.076894 -0.643757 0.60990375 -0.46823698 -0.38139012 -0.058677245 0.6520561 -0.80351084 -1.0191125 0.3087556 0.21943064 2.192007 -0.78087586 -1.9876446 -0.1637949 0.51125365 -1.8167909 -1.0592728 0.25226003 0.8187705 -0.6318534 0.43965513 0.6087784 0.7753613 1.6582466
6 -2.4469824 -1.4800522 -0.4371074 -0.6152252 0.72613317 0.35939747 2.1781147 -1.1260326 0.67921793 0.052056633 -1.6369241 -0.6796511 0.38176873 -0.18443653 -0.5732814 -0.12559825 0.06703763 3.475238 0.63716775 -0.06505441 0.19460422 1.3675554 -0.1523414 0.95277303 0.7176762 -0.14743352 1.1628824 -0.08190446 -1.6750723 2.0758338 -1.61867 -0.46941382 0.35327494 0.579408 0.85121024 -2.1619422 2.4755378 -2.5477502 0.50555897 -0.33599883 -0.80652094 -0.3328634 1.5495613 -1.4572049 -1.3295887 -0.59846014 -0.56582355 1.2849379 0.75143635 0.981825 2.4958112 -2.410307 -0.34665087 2.0141852 -0.2527274 -0.9453885 -0.78654975 -1.8897681 -0.6336854 0.23991774 1.4693165 0.982198 -0.105733976 0.760729
7 -0.7945753 -1.2100893 -1.1206846 0.07794451 0.18860154 0.5093688 0.8707717 2.3383033 0.5993389 2.155284 -1.9873751 0.71964324 -0.10099685 -0.32178792 -0.8267846 0.17359497 -0.811871 -0.77144176 1.5078603 -0.6429489 -0.29354364 0.24715227 1.0534027 0.15653895 0.24074976 0.5531307 1.2753906 0.1626408 -0.47181526 -1.6262178 -0.7483387 -0.5718458 -0.85440665 0.4355896 1.1080637 -0.9218566 0.7986824 0.058428526 0.7451967 -0.7575625 0.2074577 0.55455667 -0.34286228 -0.7866859 1.6714528 0.35241073 0.08421192 0.9028509 -0.4427853 1.095136 0.015174987 -0.120547846 0.064792074 -0.15873304 1.6296709 -0.25083768 -1.7686365 -0.6918648 -0.12199336 -0.8186165 0.30927992 -1.1115788 -0.516621 0.16265848
8 0.1352467 1.502051 -0.22729142 -0.8511669 -0.333727 0.82298076 2.1569002 0.42854473 0.8774725 2.6374862 -2.3901122 0.14906168 -1.8476646 -0.3671038 -2.4590833 -0.3211164 0.117184356 3.9401557 -0.2128138 -2.138274 0.75326246 0.09721723 0.65043503 0.16325293 1.7510706 -0.1326564 -1.3809422 -0.3090553 -0.5495269 -0.16510643 -0.70639414 -0.4454761 -0.1340203 -0.45125514 2.9321358 -1.2272495 1.7965022 -1.8011894 0.5411681 0.13964751 0.3601801 -0.23934306 -0.22152661 -4.3728952 1.6473337 -1.3719665 0.5906449 -1.3137306 -0.09444878 0.8153333 2.5484405 0.42102787 0.63915586 -0.38492277 -0.85612714 -0.84920615 0.6486386 -2.5573635 -3.0326214 -1.157518 -0.37647894 0.98547596 -2.2705233 1.5815406
9 2.8645372 -1.515774 0.14432903 0.66453356 0.34665284 0.53071356 1.5235088 -1.4358095 1.3421715 2.1960926 -3.1308982 -1.4009107 0.9215478 0.53136057 -1.1158849 -1.3899281 -1.731731 -0.2608061 1.4854044 -0.032310605 0.56422764 1.1975023 -0.82134026 -1.0332152 0.323959 1.5028824 0.023194129 0.50811684 0.5858603 -0.04240409 1.3240613 -0.9618538 0.9545012 -3.6617026 0.38992807 -3.331269 1.3747092 -2.5430124 1.8154136 -0.5039236 -0.6448536 0.20674664 1.690326 0.8935499 0.3458648 0.063054755 -1.1334999 0.05986327 0.5937129 -0.59190977 0.33478084 -1.0058218 0.31224856 3.8460546 2.4959207 1.9122951 0.78778785 -3.4778395 -3.9593759 2.4533372 1.1233306 -0.59879965 0.86127365 2.1250641
10 1.1599039 -0.6043685 0.6047862 -0.7649655 -0.32732522 0.80967945 -0.41359448 1.7699695 -1.7270747 1.5693036 -1.5768938 1.1696707 -0.17300819 -1.5096238 -1.239939 -1.5957127 -0.76840746 0.88991517 1.214012 -2.3646357 0.49314517 0.97646034 -0.3600012 0.086625405 0.1344839 -0.75323457 0.4298538 0.75271875 -1.0051322 -1.8994511 -0.12668654 -0.37416303 0.24815689 1.8292395 1.8257052 -0.324725 0.15001936 -0.62649316 -0.723479 -1.1599672 -0.06693344 0.6597656 1.07123 -0.4753567 1.3076786 0.9634094 -0.40147233 -1.2019342 -0.06547165 -1.0018996 1.9330363 -0.5162832 -1.8124834 -0.8573934 1.8524598 -0.42136344 -0.80723894 -1.2407982 -0.5277565 -1.631128 1.1042577 0.34290126 0.9348951 -0.35210776
11 1.0340704 -2.305732 1.3046626 0.61302793 0.6116655 2.5617607 -1.2673805 0.545645 -1.1392881 2.4432323 -0.9065553 -0.86926365 1.3113573 -1.8994296 -1.0806025 -0.3716977 -1.5935084 3.0435112 2.4486485 -0.8638868 -1.7941083 -1.0630902 -1.8613995 0.98573256 -2.300735 -0.028836327 -0.1902626 -0.5344346 -1.1930937 -0.5760036 0.6597214 0.41159445 -0.11667786 -1.0628049 -1.379289 -0.75728256 0.1570955 -1.0545459 0.94465506 -2.1229804 -0.19139026 -0.06341888 1.0275489 0.55738395 0.6826208 0.199332 0.37665316 -1.3375039 0.4455946 0.48523706 -0.6779017 -4.0086374 1.5039934 1.2494891 2.2724874 1.1690432 0.72573 -2.2864296 -2.016749 -0.2937449 -0.40784204 1.0685976 0.945333 1.2070397
12 -1.1447471 -1.7652904 -0.8457606 -0.28332952 0.3381778 1.5909756 0.35795096 3.180529 1.3142736 2.763682 -1.8267099 0.49555293 -0.46582225 -0.67160386 -1.0956568 0.34450838 0.22745591 -0.4337031 2.9385114 -1.123599 -0.39261463 0.32261312 0.74549603 0.7695076 0.52525806 0.253032 1.9005364 -0.2955758 -1.132334 -2.2427108 -0.96594125 -0.74117595 -1.0095581 0.7612516 1.070203 -1.7643714 1.944184 -0.90643126 0.43570307 -1.7847666 -0.18467745 1.0387048 -0.5191075 -0.61060256 1.797643 0.57837844 0.5392729 1.5902853 -0.44343612 1.2998662 -0.047174998 -0.40709576 -0.58463734 -0.41323355 2.4494522 -1.0317177 -2.0712583 -1.3136275 -0.504155 -0.7888426 -0.20577686 -1.1659062 -1.6337453 1.3056008
13 -1.905048 -1.9967633 0.78701246 -1.0935796 -0.6156426 -0.5585555 1.0290254 2.3076155 0.6080843 0.79828465 -1.536586 0.111800194 0.7457037 0.012738584 -1.7391316 -1.6674569 3.2340465 -0.8633315 0.52281934 -1.1702133 -1.3772197 -0.2868638 -0.8491028 1.2783663 -1.3900324 -0.560451 0.86860394 2.1389246 -0.9671802 -3.1611233 -0.076815784 -1.7496314 1.6530745 -1.1517854 5.2678647 -2.0244749 -0.89551353 -1.7710481 0.4281207 0.713402 -2.1122422 0.8883053 -0.36885452 -0.28692704 -1.2235993 -1.1799387 0.25346935 0.40772876 -0.25234652 -0.37959507 -0.13873051 0.507295 -1.5740724 1.2557671 2.1811073 0.4045627 -2.5855162 -1.8245366 -0.92636716 2.6742985 -0.037483085 1.3660922 2.2375412 1.8886868
14 0.46977094 -1.7251363 -1.0591049 0.7061427 0.067873694 2.3147795 2.513657 0.5025855 -0.21888322 1.9511913 -1.123293 -0.3757694 -2.1968424 -1.3326795 -0.5890519 -1.3637401 -2.229023 0.5213853 0.14354356 -0.14997452 0.97434235 0.5653809 0.5256734 0.34048134 0.8543191 1.4732676 1.1002791 -0.47690994 -1.0914334 1.089523 -1.4175248 -0.50488657 0.17242168 -0.50739527 0.5051955 -1.5744541 0.66728854 -0.030909048 0.80186313 -1.2487439 -0.90316033 1.4102862 1.2544931 0.22379228 2.0881064 -1.6050706 -1.8212299 -2.2506576 -0.53603923 -2.4569054 2.2655678 -1.9924257 1.0188344 -0.1912353 2.0562122 -0.006410986 -0.024886401 -0.6815866 -3.1254685 -0.51178753 -0.3752956 0.14762802 0.3770697 -0.9999517
15 0.6094348 -1.065607 -0.68458074 1.2770597 1.2246383 -0.21869683 1.524493 0.3402998 1.2111726 0.6453482 -1.092263 1.2227079 -0.6673098 -1.0959617 -1.4374048 -2.154529 -1.9753796 2.4327426 -1.2066817 0.26710555 -0.7718157 0.49498367 1.1800705 1.4045359 -0.08181738 0.15367652 1.2116044 1.101728 -1.9253099 -1.6646662 -2.0603442 -1.9578344 -0.096964866 0.313969 1.0798265 -2.8282626 -1.0843422 -0.43611094 -1.7817038 -0.11581945 0.8925772 -0.042990472 -0.0255401 -2.0382934 1.148604 -0.79322636 -0.29447946 -0.8962086 0.51456803 -3.0354497 1.1586149 -1.8109818 0.22463101 -0.313104 0.93509156 0.7201257 -2.80892 -1.0542674 -0.7070278 0.0054901796 0.43513602 1.416522 0.5031583 0.2968336
16 0.3565271 -0.22974105 1.2258 -1.6067834 0.7048364 2.5409184 -0.48786035 0.24825288 -1.4707623 0.9006366 -0.3926834 0.15310566 -0.10327651 -1.4681988 -0.63303876 -0.1498001 -0.06745599 0.779794 2.504354 -0.9879495 1.2642854 -0.53955436 -1.1143521 0.65680027 0.81455576 -1.0896242 -0.055261012 0.049731564 -1.6442018 0.59182835 -0.5472266 -0.9258936 0.88042796 0.29768524 1.8733349 -1.4371883 0.09391602 -0.54297966 1.4554012 -0.78150886 -0.3149198 -1.0663552 1.1893235 0.5122061 1.4154156 1.2268345 -1.483066 -0.60469913 0.545107 -0.4070143 1.695537 -1.4733877 -0.97672045 0.4196317 0.7444738 -0.18323702 -1.3750914 -1.5356716 -0.24314812 -1.2523881 1.5838569 -0.4055827 1.1838385 0.13847329
17 -1.4911765 -0.9481608 1.9442208 1.19319 1.3206534 1.9899069 3.5260563 0.04703516 -0.6733015 0.99876386 -0.8732794 0.63999975 -0.6404209 -1.9790251 -1.5351043 -1.9956625 -3.4786415 1.4658699 0.18576437 0.3383833 1.808103 -0.14782818 0.19082184 0.8334453 -0.0737033 2.5188382 0.7860667 2.0692117 -1.2028098 -0.38563988 -1.1970474 -0.6749198 0.068462595 -2.2664223 0.08929147 -1.9864283 0.24933489 -0.67291886 -2.3548634 -0.40976983 0.18786593 1.895152 1.3331664 -0.18237339 0.005045222 -1.5027418 1.0194429 -1.2149707 0.45339102 -2.4575555 0.9556598 0.16905186 1.1252221 0.19010353 0.25016496 -0.50907636 -1.1034582 -1.115481 -3.8934164 0.16004656 -0.6290461 1.6642592 1.1575365 0.43714204
18 1.3574526 -2.0818827 -0.53451705 -0.7988184 -0.9951118 2.1492178 1.6741655 0.608295 0.20456247 0.14508584 -2.1795027 -0.53776956 -2.3535318 1.0491757 -1.8211962 -0.8558997 0.6124199 1.5436683 -0.49335307 0.050660506 1.598197 -0.546945 0.4767982 0.03076526 0.12501572 1.8729546 1.7961626 -1.5968981 0.027009591 0.2863767 -2.236647 1.2835804 0.0012074491 0.24397516 2.644689 -1.7341473 1.3606505 -0.60179687 -1.0306238 -2.9444513 -1.4509369 1.9330684 -0.63199365 0.15036467 0.5544818 -1.3932679 -1.7748762 -0.33006084 -1.7331132 1.4681243 0.39312613 -0.2798233 2.297716 2.060252 1.9097413 0.28810948 -0.940416 -0.8969498 -1.1374143 1.6197735 -0.24561568 -0.0047166357 0.11509784 0.9962762
19 1.66714 -3.6245706 -0.43686995 0.31422415 -2.2504895 -1.268903 4.8922877 1.032068 -0.3096744 -1.0042785 -1.5712944 -1.624715 -2.258764 -2.0586855 -0.92542917 -0.7733794 -0.7217652 -1.5939612 0.5293402 -0.019332053 2.583218 -1.3481516 -0.57159966 -2.666005 -0.07394329 2.292575 0.45583788 -0.610719 1.7394012 -1.3387918 -3.1054337 1.1944306 0.5671923 0.70315224 5.263995 -0.5668271 -0.826225 -1.2872221 -1.769534 -2.0129466 -2.6613295 3.522257 -2.223632 0.6038343 0.6339456 -0.43697736 -3.2501543 -0.012113874 -1.6866578 1.0485845 -0.055258416 1.437801 2.2892678 1.3646746 1.0056727 -1.4688352 -0.76777077 -1.2097261 -2.3101842 2.1487315 -0.49898577 -2.1426432 1.37163 3.5893078
20 -2.4597957 -2.2531147 -0.3079397 -1.2416086 -0.28066972 0.21238352 3.3928957 -1.9129615 1.3695817 -0.16000302 -2.3665361 -1.3706285 -0.62317455 -1.0650978 -0.3252571 -0.72392416 1.033226 4.037132 1.640273 -0.6071677 1.1849331 2.5304725 0.30551687 0.14265129 0.40309867 -0.46559474 0.8409039 0.61546546 -1.1796988 3.3592942 -3.4522073 -0.2710253 -0.23928735 1.2040796 0.9791905 -3.3303099 3.1524365 -2.708326 1.305119 -0.2783433 -1.5995897 -0.25366378 1.6120583 -2.2356832 -2.0082693 -0.8944974 -0.7802537 2.0805526 0.36244562 2.114833 3.2754557 -2.2361002 0.16899104 2.7514808 -0.6668818 -1.7490083 -0.75675696 -1.9160466 -1.6328222 1.3612171 1.5653386 1.1256227 -0.19034216 0.79086167
21 -0.64382136 -1.1123939 0.8652392 -1.6801944 0.040993012 0.24921633 0.39215776 1.692464 -1.3431705 0.6018363 -1.5581641 0.67262506 0.3477206 -1.2394556 -1.548018 -0.45537776 -1.1155938 0.37553108 0.31618574 -0.8470942 1.238717 0.12991625 0.46179104 -0.03579508 -1.4357373 0.64229023 1.4663382 -0.4000046 -0.03868481 -1.9221799 0.5700924 0.48676142 -0.078438915 1.0169635 0.41825926 -0.3128871 0.20471041 -0.41381124 -0.5139841 -1.4508445 -0.42128932 0.58533543 0.24062055 -1.1072657 -0.31199506 -0.32256153 -0.31183174 -1.0965806 0.40277115 -0.2624596 2.2647517 -0.7651016 -1.90231 -0.21569994 0.3914077 -1.231825 -0.63821554 0.06357048 0.24823624 -0.84255725 0.78219986 1.1338241 0.68040556 0.6273231
22 1.8427562 -1.8946449 -0.7998141 1.5905107 -0.24437492 0.004687669 1.9072069 -0.7860176 0.8956478 0.36821762 -2.6106188 -1.6739721 -0.2945155 -1.4087646 -0.26792675 -1.3295772 -2.0774026 1.9797559 0.33528408 1.4718317 1.4473014 -0.18605356 -1.6333157 -0.3335912 -0.6743841 1.3172579 -0.18503906 0.9369454 0.93159735 0.067817114 -2.8054326 -0.84634125 -1.5333903 0.13593785 1.1199644 -2.5378013 3.172061 -0.91967875 -0.45190924 -1.323624 0.9856567 1.0690624 0.5102291 0.8194959 0.6787028 -0.73902947 -0.27719074 -0.3871029 2.0742466 -0.6685237 0.41547984 -1.4405813 1.2812405 0.52329767 1.8629619 -1.9440075 -0.0377708 -3.3099353 -0.92688245 -0.03481069 -1.3445921 -0.64186174 0.0150737 2.4017346
23 0.27305737 -1.0403379 0.13331383 0.97788763 -1.1109314 3.0292332 2.661653 0.6519189 0.7055324 1.6423125 -1.2691298 -0.867629 -0.6856262 0.49785876 -1.2313977 -2.2663867 0.1537602 -0.50072634 -0.13872969 0.9608675 1.5919715 0.6063131 -0.20377186 1.0131323 0.48885304 1.7408826 -0.9196917 0.61751205 -0.88983047 -1.8870028 0.18507704 -0.04271471 0.5189489 -2.313737 1.2391875 -2.3568769 0.43696615 -0.19152226 0.08408751 0.06177564 -1.4342119 1.9298418 0.34804097 -0.62883115 0.8429705 -1.8042396 -0.6030475 -1.807726 -0.40648758 -1.8361269 0.9577367 -0.6652828 1.0084484 0.25071624 1.6004173 0.023515712 -1.4819528 -2.093557 -3.1737428 0.29118645 -1.0055472 0.73307896 0.89562434 -0.38965383
24 1.0604204 -0.8372923 -0.71192473 -1.400229 0.5025324 1.7197556 0.51647496 0.7770494 -0.4750249 0.1513128 -1.6802018 -0.22523014 -1.4254833 0.9171495 -0.9906486 -0.9792816 0.67183185 1.1805507 -1.5439212 0.8699787 0.31494036 -0.1328936 0.016834646 -0.7298053 -0.25420138 1.7579873 0.9691241 -0.29138225 -0.81915003 -0.43483013 -1.487805 0.0603682 0.9436179 -0.110533476 2.229281 -2.6274858 1.4412302 -1.9306808 -0.2714701 -1.573446 -1.4327252 1.5944417 1.0644096 0.50912404 0.3918752 -1.2249718 -1.352118 -1.5628955 0.37008584 0.73408335 0.33525416 -0.5814085 1.1240916 0.82018846 2.4110358 0.2399853 -0.7575095 -1.4201013 0.32028496 1.3964814 0.03162987 0.541124 -0.21324399 0.3574042
25 3.4035966 -1.1307235 1.1390065 -2.1137166 0.16434005 -0.43948337 0.81739855 3.3739526 -1.122491 2.8120313 0.55454975 0.88080317 -0.11945972 -1.7506554 -1.4774934 -0.28616378 0.91829556 0.59712225 1.664032 -0.6992796 0.20938474 0.898387 1.2180743 2.0250018 -0.8613948 0.6823743 0.572537 0.83278495 -0.43156683 -1.6668626 1.120759 0.94351643 -0.95260465 -0.47913823 -0.83555794 -0.36032555 1.0859433 -1.1740491 -0.25239602 -1.0926061 0.048023745 -1.455972 -0.21612836 1.9988999 -0.08016564 0.93842053 3.4343162 -3.5815165 1.3208829 0.83951 -0.6070056 -0.0028952842 -0.2514681 1.6078346 2.3413417 -0.8963262 2.5653877 0.83592063 -3.4792814 -2.68097 -2.75799 0.26767942 3.688007 -2.1494415
26 0.6129465 -2.5498924 -0.15677659 1.9350535 -1.1350808 -1.9682996 2.6699164 0.7778089 -1.2879709 -0.5524799 -0.15334827 -1.9173303 -1.191131 -0.2223959 0.42457515 0.6041857 -4.0357203 1.8169947 0.4577789 -0.7071132 -1.2414165 0.28115368 -0.2301772 -1.909283 0.93871653 4.6030912 -1.7359486 0.1850956 -0.41584465 -0.66733634 0.96515095 -2.3861635 -0.9077293 -1.3531048 0.7079219 1.129529 0.19423869 -0.5119346 -2.0256991 -1.8817388 -2.3321478 0.3089445 0.86508423 -1.2379664 0.5862871 -1.1152261 -1.663412 -1.6749963 -0.05504296 -3.4506178 -2.3416615 -1.9645145 -0.9587215 3.1211052 1.1203678 -2.328308 -0.76634413 -3.2359843 -3.1618912 -1.7362632 0.103503436 1.1579425 0.51345706 0.0686394
27 0.5411678 -1.3041209 -2.0402372 -0.72398704 -0.51477975 -0.16210288 2.6668034 0.104259 0.35516605 2.0056689 -0.15636958 -0.24434377 1.1493684 -0.84144723 -0.54062694 -0.67642003 0.9282825 -0.8264023 0.43264166 -2.12077 -0.727603 -0.1802201 -1.079695 0.4539877 -0.6751979 -0.3715159 0.14592345 0.6630035 2.0788605 -2.6145701 -0.82240105 -1.2079375 -1.1912758 1.8191468 1.6584047 -2.159059 2.5616117 -2.7678506 1.3415612 -0.9399202 1.60097 0.1913506 -1.1925423 1.3516369 0.6890953 -0.13032745 -2.3245316 0.80319625 1.1198505 1.5180948 1.1534855 1.2685276 0.71129954 -0.3031594 0.13468787 -2.7055438 -1.3959694 -1.6458436 2.099087 0.48746622 -1.8119814 -0.60594386 1.2874967 2.27634
28 -0.37675574 -0.25869772 -0.3304594 -1.229855 1.4203691 1.5662607 2.3315053 0.43956906 1.0179557 1.2039543 -0.086077146 -0.17770216 0.5825075 -1.392734 -0.96940035 0.44202128 -0.85325295 1.5496304 0.7338416 -1.0919855 -1.2303209 -0.2273348 3.012693 2.0926797 0.29028994 0.5127598 -0.8375371 -0.772051 -1.3757892 0.9995943 -1.7676452 -0.43376756 -0.3569897 -0.14277169 -0.5259704 -1.900248 2.3877585 -2.0994883 0.7671848 -0.344108 0.30056903 -0.7386343 0.22349358 0.061188515 0.7251282 1.4890078 -1.4303857 -0.13939603 1.0184084 0.601926 0.9233237 -0.5574474 1.5399708 1.0085824 -0.15699083 -2.8109493 -0.07110637 -1.3034496 -0.8105848 -1.3970568 -0.39105228 0.34033623 -0.07284258 0.29221383
29 0.45370185 -1.0135632 1.5837691 1.4017191 2.500071 1.5687532 0.9475656 0.77849376 0.7696136 0.386582 -1.2838061 -1.0325955 -0.38320196 -1.1504526 -0.76363176 0.32680425 -2.3781617 2.0675611 -0.18946764 1.3154593 -0.01975205 0.14471185 2.6665618 2.3514402 0.6108226 1.4504764 -1.0170361 -0.64506096 -0.9933795 0.68518955 -1.2010065 -0.8667047 -0.41364467 -1.2917448 -0.8264928 -1.9830372 0.23762259 -1.2142233 -1.3095993 0.43552822 0.19185917 0.18180494 1.6683474 -1.2645217 1.4007171 -0.058650732 0.94379246 -1.5048964 0.61378264 -1.2297791 -1.1521064 -1.3045382 2.6441278 -0.37096423 0.844272 -1.0090725 -0.7438953 -2.5152807 -1.4803637 -0.56196 0.3872537 0.6489425 -0.5025193 -0.41927525
30 0.55084616 -1.2648469 -0.7304466 0.6692324 -0.5722183 2.6788414 2.3992302 0.6167308 0.32687643 1.7457665 -1.1044483 -0.5673016 -1.6467909 -0.5864122 -0.86504924 -1.6953019 -1.1657696 -0.093271025 -0.16637725 0.25710902 1.4689444 0.5677513 0.24195054 0.3555791 0.8282225 1.7684256 0.32859826 -0.18931966 -0.69241625 -0.13949537 -0.7654105 -0.05157555 0.12436529 -1.2776103 0.4639954 -1.6061734 0.7538185 0.10766245 0.526135 -0.7932241 -0.99382687 1.5556884 0.63550407 0.12162749 1.4166336 -1.5512662 -1.4510872 -2.054193 -0.47410032 -1.7867764 1.7372413 -1.3554416 0.93976355 -0.21960706 1.5173519 -0.08726311 -0.61324686 -0.92825717 -2.8464699 -0.23184349 -0.688926 0.12633052 0.4406905 -0.85021645
31 2.15054 -1.7839936 0.38491467 0.9883355 -0.9135736 -0.17385323 2.1318936 -0.2948024 0.12025265 0.9869358 -1.4661194 -1.7102084 0.37291706 -0.4307641 -0.791262 -0.38939404 -2.7750366 -0.4024202 0.9981177 -0.19095716 -0.43331608 0.23635289 -0.8869461 -1.3251241 0.55452955 3.1739585 -0.83741546 0.5136885 0.23001957 -0.5585999 1.0964127 -1.893765 0.04373247 -3.1276445 0.33653298 -0.9894949 0.5917766 -1.4388021 0.10312999 -0.8041088 -1.7749631 0.35562396 1.6843634 -0.20014015 0.38057786 0.054592904 -1.5375504 -0.20322427 0.48884502 -2.1654894 -0.8815981 -0.8118309 -1.0631429 3.52574 0.95288414 -0.19925906 -0.0055422164 -3.742107 -3.2043421 0.64784503 0.4590804 0.48439267 0.8036508 0.7185581
32 1.0008725 -0.7322572 -0.12669581 1.9025265 2.4823916 0.75371677 1.6560142 0.796531 1.4265748 2.2541049 -2.4968321 0.78933764 -0.4595775 -0.8261139 -1.8612365 -0.8175478 -1.5550814 3.122499 -0.19071154 1.1477917 -1.5465894 0.21993163 0.7785161 1.9532073 0.023733065 0.5301071 -1.1893266 0.41611734 -1.8985944 -0.15485188 -1.4976827 -2.2992814 -0.985174 -1.5135255 0.648633 -3.5614133 -0.15682179 -0.88992393 -1.6832714 1.0666864 1.1739266 -0.5762259 -0.09118955 -0.9358041 1.1996224 -1.2722473 -0.022248592 0.0009849179 0.23216105 -2.003293 -1.1077863 -3.3042417 3.655364 0.06250461 1.026399 0.7933044 -2.2948108 -1.7508304 -2.7094734 0.5915716 -0.29441985 -0.22977753 -0.2029702 1.2417191
33 0.059121076 -1.7354552 -0.4970899 -0.08568858 0.46057793 -0.15843196 1.124881 0.92586154 0.9305257 0.12084055 -3.6161656 1.8037401 -0.8835134 -2.1967175 -0.70871305 -2.822853 -1.3889958 1.4972819 -0.14184283 -0.24132882 0.6988439 1.5170199 1.985858 -0.38464963 -0.64909303 -0.093462124 0.49563447 0.60283816 -2.4676735 -1.2539576 -2.7906458 -1.120117 -0.8994116 0.8943952 2.396774 -1.6889753 -1.8078103 -0.66582406 -2.0641716 -1.5412678 0.66037184 0.87599075 -0.33652306 -2.6114647 0.15427342 -1.0020052 -0.48168197 -1.1305138 0.22982568 -3.5357027 2.6602676 -1.4783068 -1.2758435 -0.9570399 0.9370781 -0.35172328 -3.3739667 -1.1255816 0.30892423 -1.4406098 1.2949091 1.492031 0.48154345 0.9130809
34 -0.3296389 -0.7127173 -0.07149255 -0.25948578 0.49463367 1.5230482 0.45971325 0.2788215 -0.9940873 1.6270988 0.13790171 0.88085794 0.95284617 -0.6631274 -1.1568826 -0.8577275 0.2646612 1.5642475 1.1587667 -2.6094427 -0.29605713 0.120993674 -1.0430526 0.25144538 0.36952454 -0.59329456 0.95052266 -0.00059225364 -1.3179481 0.1934749 0.35446766 -0.7742772 1.0833157 1.61315 1.3173562 -0.9013346 1.5905586 -1.4782766 1.5626537 -0.86012155 0.7176288 -0.28632262 1.7397461 0.9670608 0.90169245 0.71749383 -1.7521405 0.5762213 0.60088253 0.5943619 2.1896207 -1.4669305 -1.5092123 0.27030882 1.417977 -0.54355067 -0.03862217 -1.4733775 -0.21027015 -0.35281482 0.45891201 -0.35301065 0.7028157 -0.29981312
35 0.9627109 -1.0691755 1.6016259 1.0594217 1.5683254 0.1965369 0.096452154 1.3252553 0.4175943 0.2963825 -1.5260416 0.035482317 -0.7832902 -0.93648666 -1.0101742 -0.40942562 -1.917419 2.334887 -0.015674112 0.8890307 0.65782166 0.082931906 1.9467703 1.3289617 0.2184233 1.0728513 0.093893774 -0.6904928 -1.1202458 -1.3728622 -0.571834 -0.89049447 0.22812854 -1.4474244 0.43514723 -1.0437286 -0.3605691 -1.168009 -2.381112 0.11180415 -0.15412813 0.5204876 0.5421043 -2.1246493 0.905025 -1.0967945 1.2283111 -2.1606135 0.0073120133 -1.9772631 -0.8316149 -0.84434205 1.464844 -0.891366 1.1461542 -0.4380642 -1.059498 -1.7946529 -0.93731546 -0.82729447 0.7519698 1.3358237 -0.033447493 0.19055682
36 4.1200447 -1.2118546 0.011451629 2.8935745 1.4888984 1.4425018 2.869448 1.2496078 0.6668644 1.7180412 -0.26128483 -1.356169 -1.0120547 -1.1589947 0.01945386 0.5330114 -4.013535 0.82159543 -1.8717589 1.4708722 0.36581916 0.1921666 1.4922259 1.5218374 2.23773 4.091183 -0.89384305 -1.4907014 0.7465069 -0.25274584 -0.2798192 0.044280946 1.5631516 -1.448334 -2.248921 -1.2562773 1.2043105 -3.341809 -1.3430557 1.1900766 -0.53338706 0.578932 3.0628197 -1.791511 2.8603992 2.7186568 -3.8657923 -2.1753864 0.6655687 1.4613005 -1.5143694 -3.0772195 2.484548 0.9481171 1.6776412 -2.8740532 0.4651178 -2.5406706 -1.5410488 -0.11098363 -1.887301 -0.59546554 -0.21316025 -1.2918196
37 0.64785486 0.85227555 -0.3787265 -0.5601907 -0.33790946 0.627925 0.7097151 0.61886775 0.90677977 2.106126 -2.3944688 0.042666182 -1.2236601 0.08367292 -1.9061891 -0.17564012 0.21434529 2.6205997 -0.050744176 -1.3368849 0.69497263 0.5341708 0.12408796 0.04700779 0.70986015 -0.067913294 -0.62278646 -0.01657631 -0.1649514 -0.51949435 -0.021748548 -0.04043113 -0.21983914 -0.72765046 2.4257662 -0.82345325 1.2477965 -1.1670241 0.84964085 0.6341162 0.09457949 -0.07301486 0.04524149 -2.696682 1.310285 -1.3737088 0.5288799 -0.78243077 -0.27443838 0.6366777 2.1948469 -0.2237435 0.5682401 0.12074408 -0.16794026 0.29762858 0.3189925 -1.5862966 -2.5601947 -0.8998081 -0.026314685 0.9415983 -1.4135976 0.84743136
38 -0.92014796 -0.4353112 0.13912775 1.1770605 0.084081106 0.5316536 0.82760614 0.6899365 0.12260792 0.8578822 -1.5661386 -0.75186497 0.6731018 0.009731115 -0.042917892 -0.97399324 1.3634456 0.55619544 0.4711713 0.8874591 -0.7002691 0.4989903 -0.7304027 1.1854239 -0.09203929 0.35790285 -0.5990343 1.0559405 -0.9072191 -1.0703862 -0.3117902 -0.9525824 1.2008182 -1.2859755 1.7166942 -1.7244726 -0.33023867 -1.0988548 -0.89099175 0.8266931 -0.99436015 0.6504134 0.19886635 0.40313694 -0.08616179 -0.4609427 0.32082936 -0.2258119 -0.002180249 -0.9373241 0.12144304 -0.8592959 0.4013495 0.5837929 1.0759647 0.24340671 -1.1100922 -2.3117723 -2.2097301 0.6256426 -0.37037158 0.6169856 0.9301673 1.1804239
39 0.7372476 -1.0443684 -0.70939034 -0.45465657 -0.769331 0.9217458 0.6244507 1.6047964 -0.7640879 2.3641706 -0.80876154 0.70436853 0.3126079 -0.855583 -1.6057612 -2.0941896 0.14858934 -0.104152165 1.3831928 -3.3868785 -1.1400508 0.92615795 -0.5098912 -0.07054007 -0.6888608 -1.0446695 0.41128856 1.0063924 -0.5612491 -1.2223141 -0.19362983 -0.8330003 -0.4232799 2.15299 1.3727216 -0.7959847 0.7226607 -0.99795437 1.8393797 -0.38344577 0.7130738 0.05125363 1.3572999 1.0617827 1.209237 1.6093408 -1.4099336 0.32187715 0.092862934 0.01607156 2.121718 0.14546467 -1.2038023 -0.27092576 2.131922 -0.5393605 -0.08540557 -1.2644106 -1.2319225 -0.6683681 -0.15365626 -0.60301036 1.1465739 -1.3414211
40 5.3419952 -1.8547497 0.95015794 -1.2152288 0.26139447 -0.6159901 3.3698437 2.1818674 -0.57727444 2.0861752 1.1963011 -0.048018303 -0.199486 -2.3024347 -1.5974168 -0.26851174 0.22706778 0.9163239 0.5515906 1.2003047 1.6816517 2.1769493 1.4371709 0.71969897 0.6083533 2.894778 0.7194779 0.05395413 0.1345113 -1.0803993 -0.21428387 1.520628 -0.96455926 -0.71448255 -1.3183416 -0.8714324 1.4477814 -1.8639692 -0.9286707 -0.8287914 -0.46173164 -1.1407044 0.8123729 2.0419269 0.20380044 1.5060741 0.7593052 -4.07054 1.3994321 2.0240586 -0.99632835 -0.53948265 0.90995985 1.5886523 1.4986341 -1.9632255 2.9769666 1.0102775 -3.9262745 -2.173268 -2.97572 -0.4707186 3.2213726 -2.5319648
41 0.8609131 -2.7729702 1.2299057 0.33347276 1.5045164 1.2486339 2.2405226 -0.7789829 1.1938807 0.7296799 -2.5465338 -1.3235023 0.48482782 -1.0806105 -0.07069502 0.90238404 0.2078427 1.414671 0.70074654 0.42506522 0.8121261 0.44098887 1.3315743 0.65804935 -0.086757 0.40435088 0.60150534 -0.4908961 -1.0321405 -0.39813438 -2.9055343 -1.6517195 0.6931614 -2.1210995 0.06876471 -1.3749458 1.7162917 -2.7672224 0.071442865 0.051205076 0.14699604 -1.4892783 1.9984859 -0.35062858 -0.017186373 -0.20864098 -0.30110687 -0.16815014 -0.798858 0.56622446 0.27889943 -4.198468 1.3167813 0.35831726 0.25163394 -0.16441752 -0.004033241 -0.69314563 -1.0637728 1.2574894 2.2964456 3.0589926 0.22595122 1.840612
42 -0.45156756 0.018512663 0.78226554 -0.7590327 0.4182113 1.2779615 3.016783 -0.3328505 0.46017897 1.1236444 -0.8696367 0.2785322 -1.1370934 -2.647851 -1.4085417 -0.825274 -0.6937171 2.3921242 0.05166907 -0.62044686 0.96663785 1.4660271 2.2170892 0.037176684 2.0678391 0.35463542 -1.2915108 -1.4094237 -1.2546809 0.5108591 -2.1397665 -0.011817886 -1.2029932 -0.83737946 1.8614385 -1.8734535 1.2776763 -1.7137429 -0.6579792 -1.9461648 0.27040285 -0.4502433 -0.5246627 -1.5676492 0.67634046 0.3466052 -1.1698425 -1.1131184 0.46524587 -0.6605605 0.95795006 0.3562705 -0.17694265 -0.7545525 -0.18508087 -1.7812629 -0.9179699 -1.3309087 -2.5089214 -1.1336677 -1.1704922 -0.05699317 -1.347464 1.7536002
43 0.29686934 -0.42122763 -0.005275388 0.39343035 -0.28882885 0.7370819 1.0424336 -0.1441462 1.2946565 2.149849 -0.45788142 1.6903436 -0.7014134 -0.8405809 -0.4024078 -0.7121843 -0.8261737 5.990743 1.9406579 -3.1309202 0.23657863 0.7922235 -1.5891362 1.535219 1.3121029 -1.2179021 3.2318783 1.9751749 -1.3668213 2.0962718 -3.907801 1.6391898 -2.477709 0.2754183 3.8660038 -0.8339747 2.0856783 -0.40816867 0.76226556 -0.5680183 0.044932652 -0.15536645 1.6023598 -1.4696343 -0.2533372 -0.39133605 -0.37353277 0.34537894 -0.9975575 1.5019594 0.8854792 -2.0904226 -0.35509074 1.8623511 1.2318311 1.695351 0.6655552 -1.1899275 -4.2857246 1.5134828 -0.6080942 1.3266022 0.35839108 -1.288336
44 -1.4026997 -1.595714 1.664818 -1.4245175 0.4289798 1.1274468 0.79291624 1.9934541 -1.5361468 0.96972597 -0.24395007 -0.012343275 0.22290407 -1.5642078 -1.9263515 -0.07767307 -0.5556992 -1.2328562 0.19863541 -0.21572742 0.042765316 -0.5827854 0.86219674 1.1965938 -1.8696965 0.13828525 0.06287813 -0.50770944 0.85679084 -1.2584809 0.25994492 -0.3075791 0.09151758 0.71868515 -0.01323169 -1.0921737 -0.14779054 -1.2893682 -0.6033571 -1.5640496 -0.16545969 0.3455804 -0.4915399 0.040472124 0.40096456 1.1899796 -0.87390643 -0.5292857 0.30007452 0.4496221 0.8237038 0.076395534 -0.8692505 -0.33874542 0.8079395 -1.2883049 -0.6655358 -0.089887165 0.16146106 0.11161124 -0.43655184 0.23371434 0.8708646 1.5070714
45 0.74018836 -1.7950091 -1.1382049 0.5023834 0.83689445 1.9991554 1.7255721 -0.060705293 -0.4836371 1.7550464 -1.4514035 -0.4323074 -2.1980317 -1.126619 -0.24382728 -0.48605287 -2.4450173 0.6376181 0.78045046 -0.4950612 0.34111506 0.028829625 1.027175 0.8104921 0.3445918 0.62751746 0.91772026 -0.7347333 -1.4080544 1.8091782 -1.3441094 -0.8412903 0.40228438 -0.17072378 0.7894396 -1.1583596 0.6073335 -0.6779412 1.0254864 -0.85748607 -0.89754766 0.9984141 1.6325316 0.24338956 2.8735626 -1.2172928 -1.5428749 -1.8843852 -0.27519515 -2.3956692 2.056013 -1.8060238 1.2338015 -0.1073327 2.4437728 -0.41009614 0.34019685 -1.1965493 -3.0589955 -0.58276653 -0.34408087 0.5072144 0.08846513 -1.0330442
46 0.6554174 -0.2241769 0.922939 -0.67676646 0.21379106 1.0172737 -0.54380506 0.9141812 -1.4048859 0.6909677 -0.8026274 0.7563551 -0.19804634 -1.1811461 -0.6652335 -0.8293405 -0.43431017 0.93326557 1.3183203 -1.196305 0.80199355 0.20935291 -0.31998602 0.19784069 0.65312517 -0.8671811 0.063730225 0.30246985 -1.0175288 -0.763776 -0.3994462 -0.66691184 0.33472216 0.9668024 1.4756317 -0.49607265 -0.15019184 -0.31572622 -0.12493566 -0.99540365 0.087249056 -0.13087359 0.7932133 -0.39384824 1.0993298 0.7857569 -0.5335339 -1.025096 0.055312872 -0.85872173 1.2834023 -0.5903221 -1.1817594 -0.68684435 1.0630655 -0.18341263 -1.044561 -0.9907421 -0.0850741 -1.3214066 1.1340332 0.011405114 0.6156373 -0.118905894
47 -1.4273096 -0.28274807 -0.09304237 -1.0029372 0.8201425 0.92657596 0.42830256 0.8136072 0.24385133 0.67267346 0.031118535 -0.27043736 0.4656282 -0.482249 -0.704841 0.40074214 0.35731128 -0.9169941 0.5925171 -0.018307326 -0.8847695 -0.16688254 1.2403007 0.96698225 -0.05560117 0.17670795 -0.1480415 -0.85232925 -0.38752437 -0.108316384 -0.42184857 -0.29352483 -0.2366393 0.06098682 -0.4746627 -1.0878389 1.0353715 -0.63324463 0.066422306 -1.3429422 -0.0021395737 -0.04364945 -0.89814425 0.5406832 0.6234744 1.2030056 -0.3102446 0.3326393 0.5328444 0.37558895 0.034718707 0.38303825 0.060135044 -0.10425281 0.3043557 -1.5184878 -0.67480135 -0.16640745 0.6648763 -0.7920274 -0.27618152 -0.30759263 -0.5939878 1.2610077
48 -1.3805954 -2.3524592 0.719784 -0.6623147 -0.15065452 1.5837083 -0.32700163 -0.050074864 -1.2694813 2.0025082 -0.24363734 -0.43347535 1.0106578 -2.22637 -0.8226264 -0.27046993 -1.477631 2.262429 1.1701629 -0.34202048 0.20251276 -0.73306614 -2.0049603 0.1395805 -1.184247 -0.2853541 0.43617746 -0.9231981 -1.2003368 0.30805346 -0.20613204 0.8387578 0.91050124 0.22124895 0.3453474 -0.5627406 0.14584474 -1.421908 0.8548562 -3.1422615 -0.9067083 1.2419425 0.43440294 0.44470087 -0.09765393 0.41793087 -0.94441235 -0.1281696 0.57309294 0.5188869 1.7385141 -3.3680599 -0.95912683 1.4408208 1.386255 0.51991457 -0.42934102 -2.0694535 -0.9527409 -0.56677705 0.9558867 0.77956635 1.1989858 2.221858
49 -1.9440796 -0.59840053 1.8887193 1.2440652 1.0873324 2.0186055 3.2180517 -0.24399963 -1.0625234 0.8825398 -0.93641454 0.5169623 -0.149344 -0.9638153 -1.3143895 -2.555555 -2.1774776 1.4555063 -0.3983018 1.0119321 1.4143487 0.16095711 -0.454354 1.2242714 -0.10144359 2.606188 0.47341782 2.3612232 -1.3131895 -0.8075626 -0.6559184 -0.38703382 0.28339306 -2.7795 0.62074834 -2.7679143 0.3722284 -1.1939635 -2.5657432 -0.74873126 -0.34251687 1.7231809 1.3229649 -0.12422207 -0.46481255 -1.3480805 1.6180084 -1.2304916 0.7554209 -2.1160674 0.591821 0.20335798 0.4589533 0.66818833 0.7251513 -0.13040408 -1.4038957 -1.4604268 -3.7093782 0.33017305 -0.55416983 1.7871907 0.9993499 0.5974893
50 0.72946876 -0.32423598 1.3922477 -1.7215121 0.45614406 2.3739552 -0.4260152 0.7415984 -2.0652282 1.2079865 -0.43287328 0.38277867 0.015820632 -1.6954751 -0.93203497 -0.42508328 0.00044116477 0.6804807 2.6272044 -1.6562839 1.3289139 -0.44650397 -1.161321 0.5345284 0.80596507 -1.2669677 -0.276475 0.42489088 -1.5309654 -0.111301996 -0.48268062 -1.1086215 0.70712686 0.961031 1.9803224 -1.1832829 0.08165011 -0.4870454 1.37065 -0.9289885 -0.1801038 -0.8091147 1.122063 0.61576277 1.8140705 1.6868529 -1.4744856 -0.7339102 0.4701289 -0.26391828 1.9480503 -1.0860758 -1.293687 0.22798558 1.2211394 -0.23690249 -1.2552916 -1.5478139 -0.18879093 -1.2755159 1.5279163 -0.57592267 1.2378685 -0.2249618
51 2.2492526 -0.26002848 -1.5065219 -1.5833688 0.27126622 -0.21345595 1.6006103 2.0874271 1.5035536 3.1306503 0.883939 0.5809878 0.21663101 -3.0150936 -1.3963019 0.49289188 2.700341 0.76612705 1.6863933 -1.4109297 -1.9643137 0.43495816 -0.000554582 -1.5571493 1.2560211 2.2785463 0.3116714 -0.122990526 -3.096918 -1.3236006 -1.1251061 0.003956531 0.6215535 -2.1584017 0.900389 0.20439342 1.5288287 -1.3477515 1.4836075 0.42687944 -0.44435245 -2.182863 0.40158316 -0.16489306 0.43685976 -0.81880164 -0.86464596 -2.443769 1.3665152 -0.0013563272 1.0583526 -3.4342952 1.429277 -0.38242963 -0.16010813 -1.3819262 -1.4293873 -2.2861025 -3.7298584 -3.141628 -0.50144076 2.6843061 3.072222 -0.71734315
52 -0.5971188 -2.1306438 0.6424631 -1.8345956 0.06662092 -0.5813807 0.38024014 3.211589 -1.8759274 1.1654178 -2.6950433 1.2657676 0.18634726 -1.6208879 -2.3209186 -1.081479 -2.664528 1.3958576 0.45226723 -1.1814792 1.8008683 0.26564935 0.6085618 -0.045343198 -2.1767938 1.4257869 3.156567 -0.422529 -0.81137854 -3.7272737 0.8492995 0.3897868 0.31760323 1.7007327 0.4567517 -0.35743928 0.40805343 -0.33477056 -1.2495024 -1.9568062 -0.23221846 0.7097162 0.4190247 -2.1496556 -0.1273106 -0.8779713 0.12160665 -1.7436665 0.28757688 -0.9957652 3.8647025 -1.1127621 -2.9589727 -0.37808794 1.0905252 -1.259152 -1.293135 0.4120487 -0.15635154 -1.8387831 1.5730501 1.8684838 1.0422415 0.105950296
53 -0.9152587 -2.9712365 -0.37011507 -1.3081328 -1.5086007 0.82286936 4.5192738 -2.2811685 0.7913273 -0.7510083 -2.4314084 -1.6716219 -2.0825455 -1.3564874 -0.26798937 -0.9571313 0.79096615 2.5374143 1.2789234 0.3534282 2.0293117 2.3617425 0.3235525 -0.70756525 0.34193853 0.7001173 0.5535202 0.2704614 -0.18484125 3.8920953 -4.8779387 1.1595479 -0.09729845 1.0936441 1.8374501 -3.165397 2.1542118 -1.3891627 0.29024348 -1.0400414 -2.367653 1.3239084 0.36749366 -1.4256524 -1.6218042 -0.6862378 -1.8936657 1.658264 -0.8611935 2.600154 2.6195593 -1.3248334 1.5322644 2.5362873 0.048164833 -1.9600234 -1.3105806 -0.8932944 -2.2582235 2.5196655 0.95095605 -0.35411173 0.08789765 1.3565339
54 4.4588337 -1.0916828 0.4243038 0.9719937 1.0859969 0.6347291 3.0500364 1.0364003 0.3368279 1.7223992 0.624369 -0.7257198 -0.177257 -1.084431 -0.91865236 0.2230984 -2.1344922 0.9377421 -1.4960666 1.6041467 0.9215124 1.3520687 1.2776916 1.1650608 1.7781477 3.656586 -0.069262296 -0.91856176 0.7693964 -0.6441107 -0.3977903 1.0428648 0.027442604 -1.0433416 -2.1148455 -0.9495402 1.2041861 -2.3553214 -1.1611563 0.5797556 -0.6329323 -0.27659032 2.2197716 -0.19985873 1.6937296 2.2876527 -1.9470987 -2.758967 1.0276613 2.0374389 -1.4124918 -1.599883 1.7607844 1.0991513 1.1549537 -2.5822294 1.7540764 -0.35691434 -1.9661242 -0.85584974 -2.1919718 -0.27326316 0.83060956 -2.1721876
55 4.0085673 -1.9654969 0.8210769 1.0185493 -0.16669355 0.51803803 2.113198 -1.5456425 1.3312799 1.5371224 -2.936077 -2.1015122 1.0935956 -0.026358424 -1.5301632 -1.3119591 -2.204627 -1.0631982 1.422193 1.0924734 0.63915646 1.2455027 -0.71658677 -1.6408364 0.7762035 2.916088 -0.27078176 0.0594474 0.60846674 0.1282737 1.4104629 -1.1796589 0.07579045 -4.9069514 -0.0021239198 -2.8456018 0.751418 -2.2709293 1.6062903 -0.69085836 -1.6895617 0.24752727 2.3503118 0.97761613 0.42057392 0.61701167 -1.5677161 0.021026956 0.76715034 -1.295704 -0.5899598 -0.5657179 -0.6451995 4.5188723 1.7648393 1.789552 1.0047253 -3.8643343 -4.6529684 2.375121 1.1115285 -0.5886543 0.84320855 1.6467497
56 1.1100013 -3.2366192 -0.5147907 0.98371196 -2.158636 0.38578886 2.365336 1.0890514 -0.1234217 -0.09088379 -0.68028814 -1.5536882 -2.7012882 1.696466 -1.0878716 0.51399934 -0.7783293 1.8820406 1.191639 -1.7561272 0.32543796 -1.1431113 0.11416274 -0.04696494 0.1188766 2.4833703 0.72401834 -1.1225562 1.0109466 0.5977418 -1.2863213 0.3425973 -1.4020817 0.89545435 2.0565014 0.46744582 0.8756788 0.8155627 -1.3402202 -3.0003111 -1.921096 1.1872278 -1.0152453 0.31714424 1.0634893 -1.4207883 -2.154461 -0.0847121 -2.1641603 0.21888389 -1.7950444 -1.7199878 2.3995075 4.277837 1.9425398 -1.3094461 -1.1081231 -0.75190884 -2.5464814 0.13545491 -0.38904122 0.21537703 0.85994697 -0.1179974
57 -0.22908896 -0.58766437 -0.42519483 -1.4302789 2.2643468 1.2000663 -0.021693125 1.215073 -0.6672324 -0.11088451 -1.0353142 0.804034 -0.31052786 -0.81210726 -0.20460148 -1.4328246 -1.5016415 1.6659939 -1.8059245 1.7146076 -0.42311525 0.66267836 2.4266706 0.8632505 -0.21553035 1.076623 0.919815 -0.27473414 -1.5367529 -0.6778499 -1.2421952 -2.600329 0.9074107 -0.8284989 1.7838734 -2.1616411 1.4037174 -3.0051713 -0.15087402 -1.4757322 -1.0291467 0.3350148 0.6216196 -0.16302045 0.7348296 0.27915877 -1.1667767 -1.827388 1.0809864 -0.13438697 0.17183998 -0.045213282 -0.84067863 -0.39994255 2.780636 0.730181 -0.93722725 -1.603703 -0.44300324 -0.16430095 -0.17799103 0.6535466 0.32285094 -0.9179509
58 0.37723342 -1.4332016 1.7628084 -1.6512046 3.5739775 2.320128 0.049476672 0.35049352 0.7814203 1.4256015 -2.756359 -0.020731153 -0.25648677 -0.44915476 -1.2204962 0.634527 -1.2204834 1.8676547 1.8752186 -1.1041255 -0.5437598 -0.082439974 0.7157388 1.3121953 -1.900715 1.1036752 1.2364631 -0.26412868 -2.003914 1.4292474 -0.8376098 0.4885219 0.76481944 -2.003882 1.0762287 -2.370006 0.10073766 -0.048572276 0.47387058 0.0591393 -1.3142962 0.25704423 1.345378 -1.9682415 -0.40043774 -0.69139737 0.35571426 -1.367177 1.0074162 -2.2990243 -0.91773856 -2.3856604 1.2933061 1.7543944 0.8752712 -1.019185 -0.4934319 -1.752083 -1.7800943 0.15007088 1.679104 2.1387928 1.3360695 1.1164331
59 0.53627855 -0.01194329 -0.5902575 -0.41377813 1.1292186 2.1568856 2.8195863 -0.5285811 2.4328384 1.3354028 -0.21812199 0.5821279 0.37911186 -1.6419038 -0.47674832 0.4665908 -1.4044992 3.9705873 1.2148765 -2.0349567 -0.7098492 0.35076374 2.7696154 2.2825325 1.1811097 -0.015491606 0.06451226 -0.42973098 -1.8427014 2.30865 -3.2823696 0.8009024 -1.7125367 -0.55209273 0.28926542 -1.1065588 2.8936512 -1.2979419 1.8246335 0.5583508 0.74023145 -1.0444412 0.8262354 0.08867241 0.38202596 1.2305617 -1.7315911 0.28326008 0.43985903 1.207407 0.86335194 -2.064503 2.0948231 1.7838097 -0.32805195 -1.4935244 0.73452616 -1.172075 -3.2822988 -0.8221276 -0.6830888 0.9639278 0.3042913 -0.7328068
60 0.14274625 -2.105991 1.1512297 -0.23700453 0.25159666 1.7156432 -0.5982542 0.007355739 -1.1725065 2.2213218 -0.28361416 -0.923285 1.0696323 -2.173059 -0.869298 -0.11810299 -1.516999 1.7836641 1.2471397 -0.28411752 -0.52126396 -1.4094579 -1.8042657 0.39381987 -1.2383703 0.22840355 0.46168324 -0.6385122 -0.9528162 -0.5708721 0.27948752 0.69089764 0.37051323 -0.6323526 -0.71119577 -0.37997156 -0.0031142265 -1.1160307 0.7650782 -2.4704697 -0.5272478 0.6475172 0.45324978 0.8052611 0.19642156 0.51377803 -0.34390655 -0.79677516 0.5301696 0.63521576 0.35024405 -3.096733 0.14591366 1.3283808 1.3182787 1.0286399 0.3784094 -1.9267575 -1.4896213 -0.46265116 0.20201416 0.938424 1.2769059 1.8313015
61 2.001696 -2.5115378 -2.3136675 -0.07044489 0.7272742 0.34429967 1.8296578 0.18651526 2.4611402 1.5007215 -0.24612728 0.39213568 -0.16716535 -2.7361126 -1.042614 -0.49159443 -0.3347015 0.1575374 2.0618203 -0.10197891 -1.0787593 -0.691966 -1.1145194 0.49026176 -0.4727136 0.8325756 2.6651428 -1.2365063 -0.2642307 -2.5318348 -2.2650154 -1.5468321 -1.2437259 -1.5899974 0.91375846 -2.8882186 1.0261894 -0.39736852 1.3038087 -0.9476909 0.10875136 0.007656306 -0.4688466 1.4421955 0.7915413 -3.022077 -0.8592062 -1.0754762 0.9795869 -2.1079948 0.9974466 -0.7393182 1.5468451 0.50518835 -0.833864 -1.3574293 -1.1567546 -1.7884812 -0.391853 -0.85199994 -1.635299 2.674602 2.4725788 0.9526952
62 0.21379134 -0.5681366 -0.24813904 -0.38732898 -0.18607724 1.2412949 0.16384497 0.6904438 -0.9013147 1.9573226 0.15194602 0.8904729 0.53393096 -0.63652897 -1.1349885 -1.2670664 0.37580228 0.61464226 1.3594078 -3.1089096 -0.7565569 0.3383973 -0.90925425 -0.10273018 -0.058368646 -1.1878884 0.5127702 0.5703685 -0.870118 -0.34969842 0.0922822 -1.0299315 0.49161282 1.7689606 1.3035424 -0.8114342 1.0235 -0.92402005 2.0464494 -0.7436585 0.9040791 -0.3590807 1.477521 1.024604 1.0396135 1.2598262 -1.5787036 0.37143034 0.33658537 0.3179261 1.9639369 -0.5430982 -1.4123656 -0.23980692 1.6937977 -0.5506287 -0.025836876 -1.0982486 -0.50828916 -0.46083564 -0.0066900337 -0.6766346 0.87662995 -0.79635996
63 1.1501569 -1.5020546 -0.4291493 -2.0684066 0.2848633 2.702018 0.95781875 0.5652666 0.12892982 -0.21778311 -2.2975974 -0.22172482 -2.3623643 0.89229125 -1.5533798 -1.1555507 1.120077 1.5162725 -1.0452043 1.3400676 1.9647639 -0.2285594 0.65298915 -0.71120507 -0.4592186 1.8749255 1.1945009 -1.3317204 -0.59025353 -0.40873432 -2.0336683 0.5620852 0.6536216 -0.07593562 2.9026282 -3.1587582 1.3287572 -1.5300279 -0.6743698 -2.7520773 -2.0866306 2.2286072 -0.11799633 0.1970583 0.391113 -1.7638985 -1.8536731 -0.95313036 -0.686552 1.6899085 0.726912 -0.3322515 2.5681958 1.4447844 2.505248 0.45333987 -1.0004637 -1.0960863 -0.02629466 2.0266016 0.2439044 0.8306719 0.039673783 1.0333136
64 0.27858692 -0.9973347 -0.3190637 1.1622852 -0.91683996 3.206372 2.7744684 0.551649 0.5362286 1.7780054 -1.0668924 -0.60469735 -1.3254597 -0.13853279 -1.1088672 -2.2803938 -0.7615277 -0.3287288 -0.34326097 0.6538101 1.804858 0.6991235 -0.106631994 0.58544934 0.9736087 2.05455 -0.18799515 0.19033235 -0.8259079 -0.84662676 -0.29308763 0.15846473 0.16934305 -2.1527686 0.5802582 -1.9407963 0.64642483 0.4369297 0.24668384 -0.47721085 -1.2358085 1.9297473 0.5647351 0.03214634 1.2247834 -1.9502732 -1.0221819 -2.2301545 -0.47042578 -2.107192 1.5004742 -1.0965475 1.0384476 -0.065566696 1.4923236 0.041499242 -1.0766208 -1.2803774 -3.3543463 -0.013316523 -1.0220636 0.3627486 0.79402286 -0.7197526
65 -1.2881469 -1.2011417 1.2938628 -0.3368654 0.6896183 1.494981 1.2264383 0.5163077 -0.08762408 0.44543344 -0.22413944 0.22414419 -0.22903314 -2.769167 -1.2161382 -0.5205616 -0.5447923 0.70032346 0.9917365 -0.06747572 0.907597 1.1316644 2.225657 -0.004510555 0.78671163 0.30590475 -0.100730844 -1.6415868 -0.77686965 -0.029812057 -1.7078108 0.43145832 -1.0434891 0.0407112 0.42521694 -1.0085908 0.9878718 -1.1182553 -0.79593456 -2.2722526 0.08918381 0.026810573 -0.9700157 -0.2929806 0.34718496 0.70849323 -0.8806141 0.04129781 0.06960863 -0.16874279 0.4708436 -0.76921475 -0.5625455 -1.0805135 0.2620163 -1.5569651 -1.3715404 -0.5524824 -1.3062918 -0.9409917 -0.5148788 -0.46295974 -0.9522145 1.7322515
66 -1.3349596 -1.6782111 1.2465988 -2.1969943 -0.023664033 0.69724643 0.9135876 2.3453126 -1.7279648 0.89127713 -1.4841957 0.41059944 0.38790604 -1.5256398 -1.8114005 -0.2128535 -0.66063297 -0.18557969 0.9538992 -1.0632701 1.1068543 -0.024177723 1.0631742 0.008091299 -2.0943053 0.18894018 0.87289476 -0.69772875 0.016200136 -1.9473497 0.14141943 0.45191967 0.063348174 0.84428006 0.6454978 -0.751551 0.31863138 -0.96552825 -0.16556144 -1.7022605 -0.6791181 0.61875457 -0.16638453 -0.70932525 -0.2359946 0.22476713 -0.7573963 -1.1736108 0.3185831 0.18464927 2.5087316 -0.90798926 -2.1090822 0.058598153 0.58020836 -1.6248325 -0.8947574 0.18681139 0.6370832 -0.5732608 0.5955791 0.9681975 1.1510313 1.2693142
67 0.908906 -2.1430316 1.7077848 0.016456125 1.2388663 -0.9410394 -0.3740312 2.6039147 -0.55102754 -0.062407576 -3.3269863 0.6674434 -1.4169585 -2.326385 -2.2806315 -1.7928497 -3.3275244 2.8998466 -0.43151805 1.1182415 1.673164 0.89497954 1.8807777 0.8251089 -0.037045516 0.94224095 2.2217076 -0.9947498 -0.71444166 -2.560179 -0.10641126 -0.9543027 0.12735309 -0.15989825 0.7677277 -0.680871 -1.271783 -1.8352402 -4.455255 -1.1867307 -0.22116783 0.5097973 0.50136214 -3.014667 0.045159645 -1.6152235 1.0802692 -2.355846 -0.49454412 -3.2968545 1.462851 0.042950977 -0.8602602 -1.739086 1.3587989 -0.7827718 -1.177926 -0.5602402 -1.0931702 -2.0629942 1.0654716 1.3543742 -0.6901998 0.7521402
68 1.4746723 -2.225678 -1.8304946 0.38976297 0.37060827 2.1477761 3.3272655 0.7614006 1.1333972 1.1728051 -0.628964 -1.0266031 -1.3875426 -0.87672704 0.916537 0.34591138 -0.08578883 1.3070532 0.41773513 0.9461703 -0.4540228 1.0756091 0.91008174 -0.5541183 0.17881434 -0.25045845 -1.2491907 -0.0085395025 -0.87673146 0.48778245 -3.9345305 -0.15423746 -1.501404 -1.73599 3.6324768 -2.0132906 0.84508157 -0.920308 1.2810966 -1.3689536 0.26496187 1.4121177 -1.8041577 0.41516355 1.2392632 -1.3263506 -2.2309341 -2.1067033 -0.16957471 2.366679 0.6994068 -1.8618605 2.4434645 1.7306472 1.0210236 1.9211699 0.0016607718 -0.020799885 -4.175697 1.6960008 -3.7623374 -2.6024814 1.2813945 0.2941614
69 0.43019113 -1.9135989 1.1859262 -0.60299915 0.33665392 -1.0086812 -0.12870485 2.7460876 -1.4252033 0.7534228 -2.4932487 0.69604 -0.88093597 -1.8380545 -2.1757116 -1.4654641 -3.0125701 1.9922868 0.021763165 -0.58572286 1.6677724 0.17290087 0.5470635 0.5259819 -1.0308063 1.2642581 2.2137623 -0.08895623 -0.22202212 -2.7604706 0.47857094 -0.4145954 0.45238873 1.0272561 0.6500456 -0.44582334 -0.39370856 -1.4221685 -3.159642 -1.4540906 -0.17690384 0.66919655 0.7218035 -2.7429013 0.21497095 -1.0277848 0.49390212 -1.6521028 -0.22175881 -1.9426138 1.9664671 -0.1542924 -1.2225878 -0.9540404 1.5445772 -0.844339 -1.0863273 -0.62209046 -1.1164824 -1.7876227 0.7272098 1.317056 -0.05476081 0.48280445
70 0.57428235 -1.4626582 2.734057 -2.1363623 2.9889855 1.6880771 -0.54265505 2.2006412 0.5819891 1.2853122 -2.5685265 0.83385944 0.24423794 -0.03436864 -0.9597007 1.0689605 -0.060941294 1.6614121 1.6736685 -2.0608969 -2.1232831 -1.8224233 1.6151465 1.5478015 -2.8448622 0.258657 0.17693666 0.21428819 -0.7657679 -1.6462566 0.16675982 0.2749001 -0.2028084 -2.5566826 0.26373816 -0.54793763 0.563135 -0.8716775 1.0594283 -0.7696517 -0.270883 -0.75798184 -0.47179887 -1.7036847 -0.6405324 -0.21232964 1.2285866 -0.8647814 0.6104775 -0.05523983 -2.5565684 -1.8568171 1.5182703 2.1026056 1.6862788 0.37636545 -0.13578933 -0.36939844 -1.3361671 0.13083208 -0.035337813 2.308424 1.1457688 1.0734065
71 0.5577584 -1.0076474 1.5953822 1.4784486 2.4895332 1.5368595 0.97079116 0.82608336 0.78274155 0.42366502 -1.2908608 -0.9680379 -0.40539154 -1.1258446 -0.83321947 0.22635506 -2.4180434 2.2572746 -0.15995209 1.2339932 0.04586714 0.1683718 2.71108 2.3239834 0.62381893 1.4950262 -0.95832825 -0.63664174 -1.0964618 0.485169 -1.2215095 -0.9431434 -0.31899306 -1.3867903 -0.6888311 -2.057648 0.24346028 -1.3030975 -1.4434534 0.43320477 0.18211417 0.22621556 1.6571455 -1.4432956 1.4784368 -0.15855017 0.95110506 -1.6986406 0.6475045 -1.37364 -1.1663399 -1.3465928 2.6573958 -0.48742467 0.93485636 -1.0183086 -0.84096944 -2.623912 -1.5479654 -0.5657893 0.43134177 0.7696254 -0.4612146 -0.41077787
72 1.3040036 -3.6598027 1.1651766 0.2694389 1.4752065 1.5872047 2.9979973 -0.23621503 1.4562606 1.43593 -3.3074305 -1.2122691 0.09220523 -0.7088275 -0.11867024 0.98614776 0.08058626 1.8259771 -0.44071585 0.5919308 0.27809015 1.609362 2.460454 0.9277296 -0.16193609 0.009970156 0.48679045 0.16145432 -0.61661077 -1.0526302 -3.4513717 -1.1835672 -0.29078695 -2.7846477 0.1157182 -1.124864 0.78637356 -1.4643441 0.07033776 -0.20372316 -0.26693422 -0.79174536 1.3122538 -0.9952342 -0.46670115 0.32930392 0.063121684 -0.8714809 -1.2395108 1.4862623 -0.078684375 -4.8626184 1.9426227 0.7384132 0.66484153 0.40561432 -0.23146899 0.9564981 -1.9936663 2.3646686 1.9650427 2.781928 -0.1822396 1.245723
73 -0.49851397 -1.342916 1.1102669 -0.27685693 1.719679 2.0653276 1.3132339 -0.9239323 0.37073594 -0.055600468 -0.9110174 -1.0230851 0.13026026 -1.1825376 -0.13141765 0.70339227 0.05138303 1.449208 1.8300381 0.115360126 0.8951423 -0.53974974 0.2687122 1.1260984 0.32783008 0.56916374 0.46603024 -1.1308521 -1.7701292 1.3422923 -2.4646547 -1.4497662 1.9458358 -0.8964887 0.66490006 -2.200428 2.116348 -3.5438807 0.48553103 0.25418055 0.057952806 -1.9358574 2.4145043 -0.013227619 0.42081743 -0.28957203 -1.3331383 0.5607459 -0.13368551 -0.102316275 1.2150989 -3.2093236 0.32654506 0.22246113 -0.3221546 -1.2301103 -0.19718328 -2.2250614 -0.3252473 -0.3133 2.1827452 1.8087201 0.4523395 1.7472929
74 -0.88238853 -2.0809 1.160783 -0.04653904 0.35666794 1.1788403 -1.2160838 2.366411 1.0410905 1.7062478 -0.41555914 0.54120636 0.024815006 -1.303656 -1.692847 -0.3460554 0.88200027 0.22501773 1.9293514 -1.7598723 -0.14949377 0.5441689 0.34374738 0.9178708 -0.53699857 -0.51216763 1.6609075 -0.74330276 -0.99551964 -1.8519247 -0.49769327 -0.29868248 -1.1272932 0.9045291 1.2890218 -0.79096496 0.809503 -0.92136973 0.16216058 -1.6259422 -0.573516 0.3079264 -0.80166197 -0.3656808 0.05799093 0.13850912 0.5717283 1.5187792 -0.45391843 0.1156888 -0.34613633 -1.0953392 -0.7864056 -0.8734432 2.2783597 -0.34120217 -1.5261675 -0.786078 -0.58800954 -0.08953577 0.024835838 0.03403413 -1.5314969 1.1099128
75 1.9812474 -0.5599822 -0.357746 -1.0847234 0.29202652 0.79508954 3.2926064 0.39810768 0.26535323 -0.61745703 -2.5462692 -0.49870294 -0.055250015 -1.371637 -1.4361427 -0.008405581 0.3182031 1.304174 0.075843655 -0.36271966 0.4649851 0.24222344 -0.07009599 -0.7760905 0.30668974 1.0278296 -0.64783424 0.9761086 -0.1747963 -1.8393421 -2.418166 -0.40995607 -2.3890946 -0.49431044 3.2368093 -0.96059066 1.0172971 -1.873412 -0.300432 -0.49054796 0.3783489 0.43519828 0.17334849 -0.16093315 -0.6017795 -0.23391572 -1.9514893 -0.04308418 -0.20553721 0.7017312 -0.41989475 -0.9368539 1.9349341 0.32931954 -0.6418917 -1.7297451 -1.9113421 -1.8490103 0.396344 -0.9516653 -1.5880222 1.1537106 0.107586674 0.85999197
76 1.780508 -1.4283503 -1.5646985 -0.553497 0.43251923 0.35068646 1.4745932 0.69117486 1.9214915 1.6944602 0.839018 0.80663186 5.2551895e-05 -2.547756 -1.3859313 -0.038517743 0.89934504 0.037510686 2.023646 -0.65475494 -1.5878749 -0.5627498 -0.21914467 0.1520785 0.29452845 1.0060387 1.8110784 -0.7826893 -1.5074953 -1.7825756 -1.3770143 -1.1196932 -0.3487623 -1.7046316 0.8738579 -1.162905 0.46146834 -0.4965532 1.3392042 -0.07386338 -0.59457976 -1.0926399 0.035127908 0.6823912 0.6595618 -1.9215456 -0.6786101 -1.1479352 0.86511874 -1.2748581 0.79819226 -0.99992704 1.1241647 0.23409161 -0.91435087 -1.0391997 -1.117939 -1.4907714 -1.468613 -1.5516374 -1.0612727 2.6217437 2.4677958 -0.6971311
77 0.8298178 -1.8012168 2.1049569 -2.2580173 3.3074503 1.56398 0.05667974 1.0787206 0.74183524 1.8715628 -2.6960595 0.41032287 -0.22845872 -0.56036717 -1.2644426 0.9806028 -0.7255846 1.1406535 1.4818282 -1.1731173 -0.769181 -1.3532346 0.86653256 1.2627114 -2.0802453 0.85530436 1.4555382 -0.23936509 -1.3472525 -0.6804577 0.036229234 0.74746346 0.3192972 -2.6884677 0.6952015 -1.368989 0.0175884 -0.30225733 0.47457033 -0.33068094 -0.7954783 -0.069970876 0.13081664 -1.6279176 -0.73248696 -0.5311702 0.6702922 -1.4795381 0.8196973 -1.217652 -1.7985932 -2.0514512 1.3180554 2.157684 1.0302113 0.08384663 0.004842081 -0.9420486 -1.7441398 0.0674605 1.0602329 2.3881173 1.7538555 1.5910078
78 0.6517627 -0.5699184 -0.12440666 0.91515726 -0.18755285 0.29482022 0.13794425 0.76271325 -0.48208654 2.2051094 -0.33275065 1.4475214 -0.42226815 -0.58602697 -0.54137087 -1.3677346 -1.6891656 4.0989304 1.7404344 -1.4544171 0.119982354 1.0605803 -0.782275 1.2238806 0.14285137 -0.15370524 2.7668283 1.8512721 -1.1067386 -0.2066241 -1.0761147 0.79852223 -1.3223959 1.28604 1.1932299 -0.95598674 1.2524815 -0.8768891 -0.9561831 0.25315315 0.42903358 -0.2658747 1.7339202 -1.0415069 0.45728034 -0.28130394 0.7346471 -0.48746955 -0.22406842 0.5286737 2.0004313 -0.70114976 -0.8254535 0.3048653 2.2131467 0.94323164 0.665354 -0.9477784 -3.1450408 -0.4229476 -0.72836727 0.6452939 0.72396046 -2.0189447
79 -0.88421744 -1.3194594 2.0398061 1.3432981 1.3970469 2.110837 3.915088 0.62712365 -0.40211082 1.3406879 -0.75714886 1.0253266 -1.1226673 -3.1743588 -1.7174344 -1.7784413 -4.492215 1.4494133 0.6421545 -0.38916108 2.188293 0.07459204 0.82617104 0.5560395 0.19576469 2.5335214 1.245575 1.7529708 -1.4007741 -0.32641637 -1.4389421 -0.6503173 -0.15641823 -1.9490411 -0.35593688 -1.3446738 -0.04796079 0.1770335 -2.0366843 -0.14826407 0.66210866 2.001886 1.5301887 -0.08518072 0.5848897 -1.7965498 0.47701916 -1.6305069 0.2251537 -3.0282135 1.5082253 -0.10656869 1.4163723 -0.30331266 0.056573074 -0.63196063 -0.98810714 -0.5714454 -4.250649 -0.25138214 -0.7054039 1.6928898 1.7791961 0.099912755
80 1.2897462 -1.0107446 -0.0071905167 0.8320203 1.5440694 1.2833616 0.28930926 -0.7617112 -0.60565513 1.2159569 -1.1741349 -0.34730282 -1.059222 -0.52376103 -0.081366256 0.5508705 -2.2599084 0.02249464 0.7202831 -0.70814306 -0.60123104 -0.5457531 1.4736522 1.3784317 -0.66874963 -0.6715786 -0.4693614 -0.41657323 -0.76142895 0.41040483 -0.37832874 -1.3106703 0.7311219 0.03928501 1.1269127 -0.1035258 0.013176826 -1.1847403 0.7264506 0.54370284 -0.12133987 0.13664605 1.3527826 -0.17299041 3.5774548 -0.4299405 -0.8038877 -1.6377429 0.6401762 -2.054576 0.99291605 -0.734405 1.227979 -1.1001848 2.5098112 -1.3012321 0.21858376 -2.092754 -1.8744624 -0.81280476 -0.451989 1.3841276 -0.26466954 -0.5802299
81 0.6786743 -0.9796898 -0.7879578 0.9790491 0.82563955 -0.34155607 1.3079138 0.38970757 1.2616878 0.58636785 -1.1150376 1.3197212 -0.59554225 -1.0626869 -1.0544281 -2.1811707 -1.6023954 2.0638978 -1.0043002 -0.019753333 -0.76653004 0.51533705 1.14335 1.1019642 -0.27773383 -0.081170656 1.0042317 1.1994612 -1.9123243 -1.7571318 -1.9385276 -1.8447039 -0.13984129 0.4290302 1.1593108 -2.3989825 -1.1307923 -0.3908426 -1.7487893 -0.19551942 0.93172807 0.007204371 -0.23102458 -1.96625 1.0201093 -0.76907414 -0.2720363 -0.85392255 0.47550854 -2.939528 1.2872205 -1.5253818 -0.12961616 -0.38847378 0.79361725 0.603684 -2.7180908 -0.9889673 -0.3832512 -0.199376 0.37627417 1.5458592 0.63784105 0.27825254
82 0.93157005 -2.954907 0.6296965 1.1935148 -0.9504692 -1.4936914 3.034947 0.9832017 -1.1779037 -0.07013128 -0.26851 -1.7943827 -0.68193424 -0.8507253 -0.54761684 0.18938199 -3.458462 1.1588815 0.40221313 -0.53582823 -1.1781015 0.27728415 -0.17200728 -1.6935927 0.48095873 4.398434 -1.3394998 0.38653874 -0.34964904 -0.8885074 0.6695882 -2.4992793 -1.0859866 -2.221175 0.83182234 0.2165542 0.2474536 -1.3050946 -1.3680525 -1.9830353 -2.3980377 0.4204417 1.3276777 -0.98618996 0.42674372 -0.6555462 -1.7504959 -1.3534685 0.3293796 -3.0344093 -2.094138 -1.387 -1.5099957 3.0603528 1.1917593 -1.9912088 -0.79559714 -3.3543468 -3.2242184 -0.6287672 0.36006507 1.1963829 0.59991556 0.6356403
83 -0.77378446 -1.9039564 0.7366044 -0.03851129 0.19554293 1.191698 -0.8954955 2.3333893 1.1425102 1.7401038 -0.678342 0.46677127 -0.10869835 -1.0949925 -1.4111584 -0.17784362 0.8251751 0.15428127 2.059697 -1.497498 -0.07643215 0.53498465 0.18395282 0.69993263 -0.19013926 -0.34959483 1.7023914 -0.60973847 -0.9845816 -1.841043 -0.59483445 -0.3620076 -1.1064674 0.7491013 1.2293311 -0.90200466 0.9660269 -0.8539125 0.11313368 -1.5661027 -0.58693856 0.51709473 -0.6110933 -0.3432326 0.28236544 0.10517467 0.52158535 1.4585522 -0.4564341 0.28858814 -0.2896402 -1.0183668 -0.7553218 -0.72483015 2.1793222 -0.3944642 -1.4724398 -0.8799289 -0.6472294 -0.11298406 -0.053571157 -0.07293341 -1.5469049 1.2007804
84 1.836567 -0.7421935 -0.79865277 0.2867252 2.594656 -0.010837947 -0.20656583 0.13233225 1.1610682 3.588481 -3.0235667 -0.5442282 0.6658018 0.52510047 -0.13467652 -0.84914726 -1.0844406 1.804328 0.30612305 -0.2813371 0.31168517 2.1820836 0.004474987 -0.7028055 0.5630855 0.5912291 0.06160108 0.053376295 -0.1202355 -0.8548348 0.6518628 0.595857 2.0530775 -0.9541779 -0.55621576 -2.6315172 2.6647072 -2.5976205 1.0866961 -0.41030833 1.6920877 0.049866315 0.7853229 0.27115777 1.2915474 -0.009600045 -0.5568252 -1.9593972 0.7777857 1.129363 1.2122759 -3.050626 3.130271 0.18818878 3.7913 1.0447925 0.071647815 -2.3782222 -3.2393048 0.50648236 1.0511738 -0.6281801 1.2479521 3.3296688
85 0.72769004 -0.6333403 -0.38762513 2.148126 1.8316957 0.07307936 1.2794248 0.240164 1.1963433 1.300855 -1.2193456 0.9547397 -0.24206896 -0.80140543 -1.446975 -1.2577409 -1.8963941 2.9726675 -0.820741 1.0081141 -1.1498374 0.4190558 0.6919217 1.6327813 0.5561871 0.39270455 -0.069831 0.7017144 -1.4832499 -0.69684213 -1.5427595 -2.226316 -0.77862066 -0.5542102 0.44639084 -2.9142015 -0.6709889 -0.41789564 -1.8599294 0.55343443 1.369578 -0.3587782 0.037125155 -1.4742796 1.2717643 -1.1081316 -0.23149218 -0.35424972 0.311374 -2.1803458 -0.14385138 -2.5918703 2.1064703 -0.5212485 0.8822931 0.9313676 -2.3524399 -1.1992885 -1.5200324 0.459807 -0.071968436 0.33599344 -0.31505305 0.6133187
86 0.19023745 -0.72719496 -0.66678226 -0.06419573 -0.45913294 0.7174158 0.6623693 1.1702135 0.10452018 1.4164422 -0.815522 0.09380413 0.08136971 -0.40604532 -0.88129455 -0.96979684 0.21213855 -0.044258904 0.7423587 -1.3973073 -0.76939136 0.53955585 0.12332189 0.59167874 -0.16384245 -0.27567163 0.37879935 0.3467564 -0.6078973 -0.26678628 -0.25085905 0.2437449 -0.13563311 0.9540482 1.0881621 -0.76055014 0.7691152 -0.96231604 0.9451096 0.03181428 -0.0009305064 0.081289254 1.0313951 0.25257322 0.50952286 0.8100121 -0.41284344 -0.009165333 0.22969523 0.46073285 0.8753173 -0.14544061 -0.13837104 0.27931657 1.1495488 -0.46601403 -0.027911697 -0.7647166 -1.0743445 -0.30211475 -0.3278816 -0.21615635 0.7740057 -0.5356589
87 0.31888002 -0.282319 -0.40716818 -0.27861065 0.40664527 1.5031555 1.8041476 -0.38342404 1.8257421 1.4027703 -0.26467016 0.8895705 0.18394834 -1.1025614 -0.3958475 0.116169736 -0.79928005 3.7672348 1.2999235 -2.1129308 -0.35536575 0.36270043 1.0358001 1.6849736 0.8048753 -0.42477924 1.0678921 0.31407148 -1.35503 1.7036986 -2.8289917 0.85434717 -1.5611111 -0.27707744 1.1940542 -0.8785315 2.1657107 -0.66003484 1.4498068 0.27397153 0.3545023 -0.7335436 0.8150285 -0.13280849 0.006884199 0.5706305 -1.1256733 0.4345315 -0.06401299 1.0946579 0.69968426 -1.9326885 0.99482405 1.6485631 -0.012768779 -0.17505822 0.5289805 -0.8651687 -2.9523692 0.13489774 -0.63137555 1.1203712 0.43722713 -0.8274185
88 0.25173184 -0.38809338 -0.24881904 -0.09794394 0.30861652 1.2836231 1.7874426 -0.23399965 1.7766896 1.4498391 -0.3727346 1.1481599 -0.06241604 -1.2382895 -0.40409622 -0.15436877 -0.9049278 4.299487 1.3869431 -2.3489199 -0.09469522 0.60075295 0.64273995 1.5663176 1.025727 -0.6323142 1.5225725 0.5492539 -1.4037956 1.6915379 -3.1249354 1.0922234 -1.8761646 -0.099840075 1.7959054 -0.67609024 2.1166039 -0.73513705 1.22824 0.013148596 0.3658514 -0.5416142 0.8256106 -0.41661483 -0.12601015 0.357273 -1.1031175 0.42236662 -0.2630165 1.267054 0.8592265 -1.960299 0.6507882 1.559906 0.33011264 0.15101342 0.48253804 -0.83029586 -3.2463768 0.298273 -0.5441747 1.0996276 0.44045094 -0.7752357
89 0.8907907 -0.30475777 -0.5526857 -0.5777451 0.19204824 0.39637446 0.135483 1.1385303 0.32223547 0.8690991 -1.7596487 -0.51015234 -0.3454505 -0.2370287 -0.23584293 0.15245904 0.0068550906 1.214124 -0.8315666 0.2963926 -0.2597199 0.38518927 0.27957946 -0.014219119 0.03463804 0.61295456 0.47488952 0.68292993 -1.5043538 -0.36439276 -0.41313407 -1.1401286 -0.35888702 -0.4077041 1.2495372 -1.282572 1.4756227 -2.235091 0.77315265 -0.13461447 -0.57979906 0.32526803 1.8731079 -0.44861588 0.393016 -0.123226814 -1.3973875 -0.49156466 0.36201495 -1.1402472 0.05916963 -1.1475735 0.01987379 0.6368705 2.2602212 0.8410195 0.5607981 -1.7234063 -1.1071248 -0.242403 -0.34439665 0.38736236 -0.63127977 -0.52603585
90 0.31064564 -1.5119665 -0.033102818 -1.352429 1.4365726 0.2485853 1.2267296 1.0762293 0.15527527 -1.3452946 -1.322814 0.81432605 -1.2108911 -1.5472006 0.35134825 -1.255621 -0.92443734 1.1791868 -0.028098566 2.136134 1.486114 0.39625946 1.8701952 -0.8945767 -0.6757422 1.3012351 -0.25887388 -0.18862946 -1.5888218 -0.22099644 -2.587161 -2.3114073 0.6753498 -1.5704906 4.0619407 -2.0347724 -0.23465742 -1.9992682 0.06590791 -1.3528694 -1.8136195 1.878516 -0.4699286 0.3740769 -0.5892534 -1.2390431 -2.273221 -1.9001064 0.09747565 0.17922048 -0.03617928 0.3995712 0.49348572 0.11926868 2.3684413 1.5378702 -1.1695261 -0.9067323 -2.3972368 1.1609459 -0.556117 0.25609833 1.6295348 0.13921753
91 1.1678622 -2.3082516 1.3937639 0.839677 0.8292663 2.7614212 -1.2049336 0.70413464 -0.9665149 2.6081252 -1.123293 -0.7923174 1.4699312 -1.8373636 -1.1301253 -0.32128155 -1.5348511 3.1785855 2.494344 -0.9354051 -2.1609502 -1.2082351 -1.5464847 1.2997037 -2.3131378 -0.0187585 -0.4061531 -0.46047053 -1.1339804 -0.7034297 0.7343676 0.21161143 -0.2448435 -1.1673315 -1.5030893 -0.93709487 0.4528121 -1.4375044 0.9031985 -1.8699782 0.051574238 -0.41190523 1.0823859 0.4846724 0.81328666 0.20178942 0.48801637 -1.2945513 0.41676685 0.6817626 -0.90668184 -4.0830107 1.9038354 1.2410669 2.4175103 1.108429 0.68891513 -2.4629853 -2.154423 -0.32400134 -0.5935117 0.98340243 0.7645765 1.0008088
92 0.72023886 -1.3860669 1.5102204 0.93052393 3.3488693 3.0357053 1.9651686 1.6837169 0.8329549 1.1996787 -1.3890138 -2.0787613 -0.26047128 -1.5714418 -1.4318856 0.83590025 -3.6177619 0.94828326 -1.1562823 1.1699187 -1.6359432 -0.3731099 4.0482388 4.149477 0.3419649 1.65832 -1.854452 -0.4891652 -0.4042158 1.0120002 -1.0438156 -1.462155 -0.4427299 -0.84821695 -2.5361562 -2.869863 0.7503548 -1.7051684 -0.14958717 1.0008546 0.8321216 -0.5136193 2.9311411 -0.4771526 2.530205 1.5533769 0.34087735 -0.902288 1.4619024 -0.7757824 -1.0584532 -0.9342444 3.214609 0.5770425 0.9374124 -1.657325 -0.42817938 -2.7510347 -2.198298 -0.57441735 -0.27405417 0.06901643 -0.3869511 -1.2615403
93 0.75480396 -1.5708673 -1.1587281 0.5572781 1.0480943 1.9856721 1.241215 -0.38147205 -0.614888 1.50491 -1.5322758 -0.59253967 -2.1680064 -0.81210786 0.09627633 -0.1531449 -2.4210355 0.45867673 0.87700146 -0.4041795 0.07654608 -0.1681626 1.100185 1.0278046 0.0965465 0.18434283 0.6724734 -0.7402337 -1.4839371 2.0331044 -1.0709447 -0.9997879 0.58228636 -0.07105294 0.89990216 -0.8557416 0.36296454 -0.5802058 1.0888 -0.5732148 -0.9388376 0.85393304 1.6886971 0.2799331 3.1340446 -1.1566468 -1.2123965 -1.8228506 -0.11983194 -2.6674926 2.0210974 -1.6796846 1.2905986 -0.23868369 2.5780852 -0.4539204 0.46145946 -1.4137542 -2.918344 -0.6563126 -0.22159697 0.69251937 -0.17345324 -1.1794698
94 1.0758837 -1.7612212 1.8223909 0.5007396 1.3071862 -0.53243625 -0.4240614 2.1702762 -0.36762106 0.033968825 -2.916987 0.58842856 -1.3032062 -1.7823727 -1.7961842 -1.4179782 -2.6798036 3.0522466 -0.054247063 0.96716213 1.6697015 0.87454057 1.7502652 0.74577844 0.40155032 0.9173449 1.5904747 -1.0120629 -1.0533165 -2.2381892 -0.40719834 -0.99341106 0.17537308 -0.73912346 1.0704525 -0.76953113 -0.94660634 -1.6790168 -3.8401043 -0.8887212 -0.3042047 0.6105112 0.5822066 -2.7823377 0.47180328 -1.4775162 1.1784698 -2.5159488 -0.4037204 -2.963173 0.6565127 -0.474201 -0.20816419 -1.6146383 1.5467275 -0.66191626 -1.2325408 -1.1742004 -1.0336288 -1.7374785 1.2605685 1.311933 -0.5018642 0.6236578
95 -1.1448373 -1.8855438 -1.2995714 -0.057419516 0.19132094 1.1382365 0.4887845 3.4464848 1.1384382 2.9869797 -2.3551042 0.84607816 -0.3155529 -0.36007574 -1.1412895 0.27452034 -0.26273927 -0.62139994 2.6006753 -1.0303758 -0.30264595 0.40455922 0.80764633 0.5059281 0.5044962 0.5120413 2.3736672 -0.10199037 -1.07181 -2.725267 -0.87646675 -0.70412284 -1.0752629 0.8721358 1.4034973 -1.4973997 1.7582189 -0.28531078 0.7931917 -1.5429573 0.06981565 1.0009925 -0.5272186 -0.8418415 2.1913698 0.39994583 0.5462664 1.4762467 -0.6787325 1.4868492 0.098087616 -0.3383601 -0.63313067 -0.44584185 2.5457668 -0.50793606 -2.3791633 -1.012735 -0.33891377 -0.84869385 0.10574206 -1.2527041 -1.3376379 0.79504436
96 -1.193994 -1.990318 -1.5446934 -0.0030438541 0.44417495 -0.08085337 1.9663522 2.75434 0.44161105 2.0079973 -3.5484133 1.3446165 0.29999185 -1.2985977 -1.3091879 -0.6016426 -2.2079644 -1.4244869 0.859399 -0.42795306 -0.38850638 0.79975146 2.9518564 -0.39412412 -0.2985205 0.8155458 0.98414993 0.41630068 -0.4221151 -1.4147935 -1.9382797 -0.83470345 -1.6478543 0.51753384 2.0201778 -1.2076954 -0.382621 0.45718473 0.98972756 -0.9128979 0.48503512 0.33919692 -0.46155402 -1.116132 1.6982155 0.59620583 -1.0775846 0.540734 -0.6926428 0.3250301 1.0403886 -0.15027294 0.5945567 0.103515185 1.6179987 -0.026329428 -2.708228 -0.2822293 0.30341235 -1.5864497 1.1945499 -1.3235881 0.4260578 -0.20503189
97 0.26156986 -2.6179852 1.0873234 0.2834384 1.6285695 1.0574751 2.154883 -0.9467288 1.0388191 0.33892587 -2.2003694 -1.4335445 0.6282354 -1.1668336 0.11434067 0.76934034 0.17010704 1.58052 0.79744273 0.48171148 0.91718465 0.25864726 1.0796561 0.709089 0.14323819 0.5649481 0.6593499 -0.7837172 -1.3291683 -0.024922471 -2.9842277 -1.7158946 1.1583656 -1.8209714 0.095259674 -1.5377401 2.2686224 -3.540782 0.023157613 0.026981486 0.2312293 -1.8640219 2.368565 -0.26703078 0.11179737 -0.35031056 -0.60319835 0.21970025 -0.6057791 0.47550473 0.6409983 -4.22611 0.8833374 0.20945773 0.018549537 -0.45497414 0.030362852 -1.363173 -0.71707386 0.8079198 2.5687225 3.1252832 0.29436925 2.113653
98 0.05686801 -1.8280396 0.6060616 -1.1719197 0.110862724 -0.7695861 0.3076595 2.6892889 -1.4774468 0.93972135 -2.3971775 0.993824 -0.28853595 -1.7115256 -2.1515565 -1.2336164 -2.6443696 1.6314468 0.19690304 -0.8796987 1.552256 0.2558582 0.5091908 0.077713214 -1.5055169 1.2861125 2.5071309 -0.31396624 -0.5892624 -3.0612826 0.5341311 -0.04370764 0.45249003 1.502206 0.43757668 -0.41724807 0.21492219 -0.893575 -1.7743747 -1.5622349 -0.07232837 0.5709922 0.61605644 -2.0934153 -0.11291361 -0.88640386 0.019800304 -1.5715466 0.13378239 -1.3922904 3.2221546 -0.6865265 -2.2038224 -0.59370595 1.0489113 -1.0774735 -1.038753 -0.03784795 -0.6579462 -1.782501 1.0609001 1.5407547 0.57198685 0.026442433
99 0.4168271 -1.5304347 1.5695237 -2.3314157 4.115668 3.7082803 -0.03564005 -0.22594665 1.1054282 1.8693315 -2.930697 -0.74990356 -0.5767853 -0.76449573 -1.6370329 0.7346957 -0.9242466 0.40730175 2.2338927 -0.6340804 -0.38452718 0.2575503 0.4427594 1.8058945 -1.8678118 1.4042271 1.7761828 -1.4023598 -2.7703736 2.9416356 -0.31440327 0.9889413 1.6749618 -2.2636414 0.5621377 -3.4019103 0.41894892 -0.6817252 1.2140155 0.8190532 -1.8063747 -0.059336692 2.4022715 -0.9074421 -0.0054164384 -0.28864416 -0.25531492 -0.8636469 1.3444318 -2.4262586 -0.860047 -3.111571 1.3595499 1.8536894 0.10162994 -2.0822372 -0.52227384 -2.2965434 -1.8689884 -0.09237479 2.806943 1.8996557 1.9720435 1.0472306
100 0.8566745 -1.3530049 -1.0773782 -0.6296329 -0.9662012 0.9057197 0.5657675 2.294312 -0.27017397 2.8511977 -0.95549023 0.57996726 0.40505576 -0.79232246 -1.9302659 -2.0610497 0.28540677 -0.6813645 1.4565014 -3.4866982 -1.8881532 0.86159515 -0.2842684 0.39349127 -0.8955596 -1.1915679 0.6537324 0.9087225 -0.2356519 -1.4837426 -0.04389659 -0.47764727 -0.7413279 2.209659 1.265802 -0.78753614 0.81886077 -1.4058721 2.0074284 -0.37738168 0.24855413 0.1660544 1.6904184 1.1203771 0.87562907 1.883157 -1.5015707 0.6430277 -0.14424558 0.37041447 1.9603461 0.13936825 -0.938612 0.27907258 2.1894612 -0.5217731 0.22339827 -1.0733397 -1.6346679 -0.7215398 -0.58774287 -0.6108379 1.408502 -1.2998306
101 -1.4058489 -2.1280844 -1.9451786 0.091332905 0.32863304 0.063226216 1.9040058 3.4404187 0.5985219 3.0279999 -3.3774946 1.5549997 0.3814851 -0.6427573 -1.3739889 -0.058609672 -1.934215 -1.3270664 1.6448617 -0.7260915 -0.44923127 0.67957693 2.486928 -0.42000008 -0.19062091 0.87842244 1.8320744 0.3335269 -0.69856113 -2.4940207 -1.5460694 -0.8807294 -1.3704972 0.5394313 2.018825 -1.3255848 0.4863183 0.66889423 1.4411247 -1.0423474 0.59058917 0.4823933 -0.8116843 -1.2185394 2.2924209 0.5210794 -0.43654928 0.75795466 -0.9084605 1.267273 0.7035946 -0.2839644 0.13682035 -0.020866202 2.1330638 -0.0105779255 -2.849024 -0.3100337 0.35745773 -1.4464351 1.253845 -1.5246325 0.097995356 -0.1576
102 -0.6403422 -1.0602366 1.1527547 -0.42805842 1.7305223 2.2869 0.9829069 -1.0251044 0.3282152 -0.095939755 -0.7150084 -0.85679483 0.08907406 -1.2040957 -0.1968839 0.6685973 0.10952117 1.4682288 2.2286015 -0.018653128 1.0526855 -0.6813911 -0.12388805 1.0065087 0.32023063 0.49502215 0.5002556 -1.3447175 -1.8981773 1.6689571 -2.19063 -1.3463126 2.112111 -0.69896495 0.8333338 -2.2679908 2.0209324 -3.563548 0.7440689 0.2401817 -0.010359473 -1.8333913 2.4214818 0.02182686 0.35821414 -0.37233818 -1.5321417 0.6696403 0.04803773 -0.25711113 1.3226452 -3.1466947 0.1187964 0.44092256 -0.41976914 -1.2831988 -0.25360218 -2.4976542 -0.25745967 -0.6415868 2.2567592 1.5970873 0.54170185 1.723235
103 2.3251169 -1.003146 -1.4730397 -1.3326976 0.19065335 -0.14583202 2.2050862 1.5267264 1.860795 2.674789 0.9135216 1.0420405 0.23613216 -3.3541605 -1.7096404 0.061231844 2.416271 0.3721185 2.0741942 -1.240065 -1.573059 0.1824244 -0.009220767 -1.3517545 1.1402425 2.0661225 1.0382712 -0.3013282 -2.6543665 -1.4395595 -1.6390462 -0.33404452 0.11250889 -2.3158653 1.3770646 -0.36157706 1.1074418 -1.1385257 1.6055453 0.14518496 -0.5763836 -1.9038559 0.04270937 0.3615109 0.07776132 -1.4504362 -1.3351682 -1.9093639 1.191598 -0.20076188 1.0978658 -2.6908336 1.2403663 -0.020130847 -0.8384287 -1.2722601 -1.5763267 -1.8373204 -3.2110376 -2.6969664 -0.68029886 2.6387231 3.2302501 -0.8863773
104 -0.8260004 -1.2344073 1.0085032 -1.9198486 -0.023392806 0.38774332 0.5210836 1.7477174 -1.4697858 0.5211842 -1.5699316 0.600122 0.3939577 -1.3184937 -1.6353844 -0.38573858 -0.9441881 0.26012745 0.45492792 -0.9030715 1.3623419 0.105708554 0.4935496 -0.058111977 -1.5913111 0.57507926 1.4447478 -0.48389512 0.014143674 -1.9004507 0.47298867 0.61235636 -0.040440213 1.0210357 0.61548525 -0.38781783 0.27546158 -0.5563493 -0.42423478 -1.5248195 -0.6225211 0.68354565 0.1954171 -1.0561311 -0.40635863 -0.30689633 -0.45655 -1.1416576 0.42935637 -0.103678405 2.4340055 -0.85163707 -2.0338943 -0.11862784 0.35728186 -1.3458462 -0.63204116 0.023551114 0.3620388 -0.7279715 0.75722706 1.1881646 0.86108917 0.8340536
105 1.0372344 -0.1511591 -1.2633424 1.6206151 0.52964765 1.1985041 0.9529264 -0.021226339 0.8055905 1.176887 -0.5956419 -0.66361535 -0.82045877 -0.1987654 0.96393913 0.3952008 -1.8817159 0.67895067 -0.6679352 -0.39299804 -0.32478914 -0.98033 0.011560648 0.8036819 1.3094065 1.5995644 -0.37588796 -0.63998884 0.019836713 0.65203065 -0.31430167 0.022228051 1.6612515 -0.37296504 -0.1947485 -1.0756538 0.92443216 -1.9438378 -0.07424126 0.58931136 -0.6820745 0.5217831 1.1784046 -1.6224451 1.6703476 1.6094303 -2.9594083 -0.3043654 -0.27917805 1.4111748 -0.1282677 -2.2649782 1.0811428 1.0045487 0.8656982 -0.5825259 -0.088501476 -2.256773 -0.30782464 0.55267525 -1.1398658 -0.83117265 -0.7995518 0.20223346
106 -1.1937841 -1.8994308 -1.6313727 0.01723987 0.39659354 -0.067465656 2.013305 2.8689425 0.4518718 2.3659751 -3.40256 1.3784171 0.37350202 -1.0391974 -1.3175148 -0.37522396 -2.1536438 -1.38168 1.0473655 -0.50219756 -0.35619605 0.73916256 2.708359 -0.40178567 -0.22079061 0.899105 1.176721 0.37206432 -0.47173142 -1.6847258 -1.6912832 -0.79872346 -1.4635284 0.49295232 1.9002259 -1.2527096 -0.05074137 0.534294 1.1536702 -0.9255217 0.51522803 0.39085194 -0.48263723 -1.1480763 1.8565091 0.57296604 -0.8382818 0.4853887 -0.6506071 0.6273285 0.9056958 -0.1790148 0.4343336 0.09260491 1.6937851 -0.087424584 -2.6368659 -0.2969823 0.31623787 -1.5203224 1.2185158 -1.3865714 0.4129039 -0.23938651
107 3.1108842 -1.1194195 1.4445304 -1.7687169 0.38690513 -0.53944194 0.029154629 3.9893062 -1.4853038 2.9664505 -0.028897738 1.2095752 -0.43463817 -1.9123979 -1.2770098 -0.31628034 0.44059238 0.5039587 2.188629 -1.1875734 -0.08277629 0.58079314 1.5184186 2.6860006 -1.1503901 0.14885181 0.31908172 0.95794106 -0.74184614 -1.933083 1.6728462 0.47653764 -0.4748258 -0.6531342 -0.75212777 -0.5317487 0.65380156 -1.1476506 -0.35088542 -0.80862737 0.3318308 -1.4366379 -0.32592988 1.4395782 0.31246936 0.5995106 4.2028294 -3.9335043 1.3920273 0.028963339 -0.5299342 -0.36419585 -0.45982108 1.3028966 3.1876934 -0.5585681 2.0792522 0.36105388 -3.8469615 -2.9272897 -2.4114718 0.56895083 3.9570649 -1.9741564
108 -0.9677603 -2.2019153 -0.6163058 -0.51467186 0.3925407 0.20682828 1.9199984 1.9134055 0.67043734 0.9035909 -3.8586602 1.2651339 -0.30995625 -2.1124427 -0.694739 -1.6671994 -1.6608428 -0.46801367 0.53640664 -0.6564122 0.27626833 1.0049375 2.8029463 -0.36178026 -0.9536611 0.3990445 0.055653676 0.79594666 -1.3506113 -0.57370913 -2.646618 -0.90055585 -1.5635908 0.6291036 2.4824057 -1.7402722 -1.2790462 -0.20129433 -0.30021557 -1.2776657 0.24684136 0.781024 -0.30707797 -1.6499494 0.6086637 -0.04560513 -1.0526805 0.052499115 -0.13104203 -1.2787493 1.7647545 -0.63739383 0.28822303 0.05811954 1.2931219 -0.43568078 -2.989254 -0.8753052 0.35087904 -1.3934393 1.2139847 0.2089149 0.7612533 0.74797535
109 3.0721755 -1.1542175 -0.652798 0.45457217 2.0526378 -0.5363754 0.5780619 -0.65312415 1.3731297 3.3340287 -3.300464 -0.7934502 0.7857581 0.7734862 -0.3294185 -1.3907567 -1.323627 1.2844748 1.2181292 0.32091615 1.357144 2.4470136 -0.07354357 -0.7518093 0.6471565 0.71262985 0.5561597 0.27398637 0.19406946 -0.6992829 1.2501552 0.50098884 1.9445504 -1.8595344 -0.37252367 -3.3180418 2.3985283 -2.5383143 1.3299514 -0.42802233 1.298796 -0.07597911 0.8278062 0.95255363 1.1123065 -0.021933284 -0.35491183 -2.0268352 0.93961436 0.9228892 1.2262384 -2.1884925 2.7017286 1.645527 3.7521396 2.0384238 0.8711623 -2.3044715 -4.433979 1.0189993 1.0397146 -1.0529217 1.8033978 3.0527134
110 0.5661345 -0.54956603 -0.16833301 0.10487618 -1.6299641 -0.70716304 1.0350465 1.1784867 0.014058444 0.94734365 -2.2857568 -0.44844952 -0.8046519 0.077200726 -0.6580586 -0.18219629 -0.0044183484 1.9152939 -0.9103801 -0.118582405 1.108708 0.21506733 -0.56903887 -0.6873682 0.21244605 1.2195871 0.38063684 1.5764741 -0.9469507 -0.49903297 -1.3201975 -1.0317079 -0.26442724 0.06366119 1.9553593 -0.96266997 1.28614 -1.3779114 -0.26135823 0.20950903 -0.50426096 0.78168464 2.4665153 -1.4235247 0.08695429 -0.8261048 -0.5970569 -0.29035634 -0.48375762 -0.96901065 0.6184803 -0.23004916 -0.18957779 0.042651076 1.6011418 0.5050166 0.36729342 -1.9491512 -1.7875593 0.77392244 -0.7133727 0.5022191 -0.8797667 -0.3782679
111 -0.013762749 -0.331231 -0.108197905 -1.0861607 2.0749097 1.0855007 -0.11832885 0.91789633 -0.3297125 0.23245938 -0.47965515 0.3722533 -0.33833244 -0.63198215 -0.37708256 -0.91486794 -1.1687664 1.0646371 -1.1462973 0.8045198 -0.8351875 0.13894065 1.83212 1.4273828 -0.17653836 0.5327878 0.8203799 -0.33702 -0.67604625 -0.716676 -0.33939517 -1.8465382 0.92784953 -0.36318797 0.94042444 -1.9438949 0.9808413 -2.7101686 -0.020514807 -1.1180252 -0.6086793 -0.004848985 0.58270586 -0.5183805 0.9723906 0.68666023 -0.74063635 -0.98796374 0.8067579 0.040206783 0.20746836 0.20739405 -0.37678948 -0.04284017 2.2271125 0.25391087 -0.59279114 -1.2994069 -0.05784142 -0.09852912 0.20662785 0.36164397 0.0008154178 -0.43670195
112 0.6412055 -1.7663857 1.3461598 -0.28484768 0.49023235 -0.9243786 -0.26830128 2.547601 -1.1946232 0.4665595 -2.5394342 0.6381489 -1.0114299 -1.8504809 -2.049213 -1.3593367 -2.973087 1.8904221 -0.17342803 -0.1476921 1.6178731 0.25126037 0.8618389 0.43801016 -0.71466714 1.3520601 1.8587291 -0.3536891 -0.2359315 -2.5864499 0.39593413 -0.50142395 0.3795586 0.61372244 0.49366364 -0.3069639 -0.55443203 -1.3805339 -3.3667946 -1.2640451 -0.054580037 0.6737467 0.59696555 -2.6498177 0.28116447 -1.0626374 0.661305 -1.791736 -0.30518353 -2.190645 1.5861585 -0.043526374 -1.0214927 -1.2089274 1.3476607 -0.7944632 -1.06458 -0.5962928 -1.0139166 -1.8125923 0.7275583 1.2643031 -0.29208428 0.4813732
113 0.39334366 -1.1754684 2.1510081 -1.3761619 2.3350446 1.463876 0.13405778 2.2876554 0.27289185 1.0682923 -2.5466778 -0.091592796 0.3397831 -0.64146954 -0.30073795 1.1427481 -0.47138816 0.4727679 0.7272946 -1.0696754 -1.5733144 -1.6523744 2.5222256 1.585579 -1.459784 0.46457922 -1.3742163 -0.08874876 -0.44142398 -0.7226705 -0.047332074 -0.3567087 -0.36656386 -1.505777 -0.7240399 -0.23828341 0.7947049 -1.6417753 0.6535737 -0.3085552 0.32666695 -0.7489798 0.074912265 -0.98685735 0.09376718 0.40179595 0.5049711 -0.16010603 0.64673585 0.87089247 -1.3358591 -1.1093156 1.4931744 1.3743539 0.99440926 -0.71438587 -0.34053195 -0.99462724 -1.1388185 -0.47328973 -0.28651774 0.8366907 0.5374047 0.4494594
114 0.6031463 -0.67714065 -0.33452323 2.0103545 1.5714021 -0.099217966 1.3476002 0.25382644 1.1048847 1.2369742 -1.0207216 1.1581907 -0.31747437 -0.9317821 -1.4328107 -1.4185054 -1.9226439 3.026633 -0.76729554 0.64213824 -0.8702015 0.42049113 0.57831514 1.4994559 0.51365596 0.31950647 0.1428518 0.8043229 -1.5103543 -0.96482784 -1.6142039 -2.179105 -0.58260924 -0.25650316 0.63037896 -2.8563004 -0.73730457 -0.4535625 -1.9088326 0.3311203 1.3224233 -0.24856158 -0.100704 -1.7371563 1.1482066 -1.1168369 -0.3585859 -0.4466913 0.28686455 -2.2252917 0.16035064 -2.5140142 1.678307 -0.5901449 0.9282806 0.75917244 -2.4724967 -1.1641095 -1.2944978 0.41228038 0.0761735 0.55985326 -0.23751585 0.6904649
115 1.3249633 -0.5235443 0.049111813 -0.7818088 -0.7712619 0.59825104 -0.87466186 2.1540282 -1.5722504 2.1215608 -2.2821052 1.517564 -0.098676324 -1.3808035 -1.4193411 -2.10115 -0.9528084 0.7590357 0.807073 -2.7584474 -0.094516784 1.605098 -0.4204195 0.06815025 -0.09614015 -0.8658985 0.8623895 0.7491092 -0.91193104 -2.5878706 0.33129916 0.15960269 0.10664318 2.2778573 1.9053874 0.0039213193 0.31545818 -0.72468096 -1.2282935 -1.387009 -0.11423004 1.1020901 1.3272263 -0.7641929 1.1813526 0.97703373 -0.012930891 -1.336192 -0.13046622 -1.2751044 2.1956973 -0.50003517 -2.3085558 -1.2430444 2.1266086 -0.4286518 -0.68055606 -1.1365064 -0.6101768 -2.2184258 1.0745156 0.7809251 1.0022889 -0.24972092
116 -0.12820028 1.1350642 0.016247513 -0.9409587 -0.18181871 0.64020246 3.1201982 -0.4686472 1.0592551 1.7010962 -1.3674753 0.18777773 -1.6320148 -1.5389618 -1.5925449 -0.45481423 -0.023936458 3.102834 -0.4192575 -1.7939854 0.91120094 0.6622152 1.4194022 -0.13044941 2.3987608 -0.17136115 -2.0711386 -1.1150669 -1.1962694 0.7447598 -1.8331857 -0.03820603 -0.8299913 -0.903674 2.8937488 -1.2774411 1.5091953 -1.680351 -0.023627931 -0.8629898 0.28687376 -0.23843202 -0.47445428 -3.003792 0.8918681 -0.39573845 -0.8092922 -1.3457963 0.3079955 0.20431264 1.4323617 0.77662736 0.3238519 -0.41305944 -0.8395222 -1.5896654 -0.063650526 -1.9317032 -2.683185 -0.9406607 -0.73433304 0.24238698 -2.0794306 1.7678651
117 -1.4534762 -1.619744 1.7268742 -0.4446933 0.47042477 1.173906 -0.357125 1.281919 -0.5091865 0.5413583 -0.050490875 0.26342794 0.31628275 -2.1901987 -1.6057411 -0.34785688 0.10186847 -0.12203765 0.95575225 -0.56518334 0.59986395 0.619948 1.4608978 0.20968936 -0.46241286 0.019115286 0.48118043 -1.3941653 -0.33556998 -0.918167 -0.65398926 0.5301502 -0.8301629 0.6402353 0.30993134 -0.27456015 0.5192585 -0.8302252 -0.5706553 -2.1149807 -0.36009783 0.23526762 -1.072497 -0.0987914 -0.10633578 0.6200774 -0.18148293 0.4517197 -0.053867467 -0.16010413 0.2522607 -0.92881656 -0.9871739 -1.15507 0.7351434 -1.2423316 -1.2977042 -0.19062026 -0.26215458 -0.6182812 -0.037401285 -0.13997966 -0.8586416 1.5078802
118 1.6250294 -0.8298328 -1.9397179 2.281863 -1.1168967 0.6823291 1.7027433 -0.42569372 0.15246308 0.5163634 -0.80409807 -1.2038082 -1.4310127 -0.95893323 1.4687741 -0.102824815 -2.2650585 0.60381967 0.4343109 0.70301294 0.81497866 -0.95925015 -0.6596957 -0.28626323 1.8287278 2.6621199 -0.39405552 -0.49931136 0.0024453537 0.6657872 -0.912462 -0.32496557 2.344963 -0.25605765 0.87906885 -1.7203549 1.486231 -2.5329025 -1.1348386 0.28301486 -0.7070824 1.4137036 1.1846702 -1.4496913 2.1082885 0.5608222 -4.2066054 -0.12714799 -0.64252335 1.9984751 0.8854307 -1.624641 1.1590314 0.7564604 1.3159924 0.39499444 -0.31748912 -3.3913684 -2.5817316 1.2182925 -1.8027347 -2.3921926 0.3295546 1.2320111
119 1.8239546 -0.59924966 -0.64097714 -0.022576744 0.05727551 0.8315202 2.7484834 -0.5947699 0.17663194 -0.2619822 -2.2819607 -0.662834 0.11101055 -0.7760051 -0.86528105 -0.33452895 -0.55615884 2.3489697 -0.03579696 0.44168654 0.7922111 0.33766314 -0.71825457 -0.47133663 0.42449772 1.1858517 -0.3522538 0.80783874 -0.32846162 -0.6533686 -2.478797 -0.0021124382 -2.1925898 -0.3660141 2.243292 -1.267115 1.7452666 -1.2740843 -0.37913364 -0.5300503 0.400197 0.97943336 0.459709 0.072654895 -0.43887255 -0.45146626 -1.2041619 -0.52934605 0.26567915 0.0016606787 -0.20203134 -1.1422461 1.6970222 0.5192106 -0.25413838 -1.0531582 -0.96676624 -1.969158 -0.080567434 -0.83214307 -1.3684492 0.8618321 0.101172075 0.79325587
120 -2.1885989 -0.56317586 1.7819349 1.2247542 0.8747865 1.9782075 3.141475 -0.14995067 -0.9788871 0.92270607 -0.9503125 0.46133563 -0.006735474 -0.6517422 -1.2607774 -2.6963084 -1.4343252 1.097714 -0.49897912 1.0466472 1.1429796 0.21887556 -0.60710627 1.5930725 -0.16759196 2.3433979 0.32642943 2.4914715 -1.3212943 -1.2009698 -0.33564803 -0.45681873 0.4820163 -2.8588984 0.9093644 -3.0102234 0.17641547 -1.2495164 -2.484219 -0.58019173 -0.5275128 1.6054963 1.2087464 -0.11899883 -0.5829901 -1.2942567 1.7615063 -1.0105879 0.75640404 -2.121164 0.48012298 0.32369494 0.1286826 0.75623405 0.8194073 -0.07138407 -1.5947114 -1.5407963 -3.4646196 0.46424198 -0.5659385 1.7474748 1.06551 0.66465324
121 2.1100616 -1.7591614 0.23492557 1.2409437 -1.0690104 -0.26757196 2.2107306 -0.430978 -0.1424131 0.66007805 -1.1778834 -1.9153401 0.30003193 -0.44126758 -0.5698432 -0.33540443 -3.100771 -0.3851122 1.0975451 -0.05414614 -0.5793224 0.3208812 -1.0041246 -1.5669869 0.5902992 3.6342282 -1.0206287 0.5158583 0.22237298 -0.51338494 1.2871714 -1.9996871 -0.104526855 -3.240486 0.10029286 -0.6432821 0.41760302 -1.0891703 -0.20647146 -0.9956224 -2.0248 0.41532096 1.6503305 -0.0414954 0.3555268 0.05500324 -1.5268397 -0.34639993 0.508867 -2.6171134 -1.195749 -0.86034566 -1.1653864 3.7479355 0.85819286 -0.47149363 0.015629519 -3.7837934 -3.2947662 0.3721475 0.43243405 0.54618686 0.78391194 0.5342737
122 2.1597154 0.008048244 -1.6122168 -0.47788695 2.3634007 -0.7137419 -0.1504768 1.6440884 0.99019533 4.070598 -1.7036804 -0.23303422 0.5255134 -0.7277171 0.005897178 -0.37423822 0.27871773 2.342062 -0.0559692 -0.5334275 -0.68626344 2.8229904 -0.10903195 -1.5565403 1.2017112 1.686867 -0.10851022 -0.045835543 -1.7544212 -1.3141221 0.20278649 0.9764885 1.8121817 -0.95834625 -0.7074132 -1.3033359 2.9487445 -1.878154 0.6735338 -0.54000014 1.8139863 -0.9575746 0.38664833 -0.2386122 1.1940058 -0.19699952 -0.4411124 -3.743121 1.3282586 0.68332434 1.2270426 -4.834755 3.1713252 -1.6289415 3.3861024 -0.18071844 -0.66083604 -2.1651666 -3.504295 -1.8647896 0.9033037 0.5827503 1.9999851 2.430408
123 -0.54390955 -2.3892026 -0.57800615 -0.58217657 0.61595005 -0.28412756 1.6118015 1.4589401 0.9631912 0.008924187 -4.3186154 1.7573354 -0.77408814 -2.7464502 -0.85142887 -2.757292 -1.8005141 0.63632005 -0.14015189 -0.05917934 0.69225526 1.4687583 2.6692975 -0.6566875 -1.0187467 -0.1501354 0.46692127 0.61087525 -2.0357873 -0.93861693 -2.9852598 -1.2292954 -1.4750992 0.9608723 2.5727694 -1.7792782 -2.3889008 -0.41302425 -1.7311096 -1.7374748 0.568515 0.86953336 -0.60156083 -2.4222682 -0.162684 -0.8624716 -1.0973352 -0.5498834 -0.020255405 -3.3038557 3.0240667 -0.894293 -1.1151347 -0.57877535 0.9347224 -0.34928882 -3.6167276 -0.53864384 0.6711228 -1.6046041 1.427129 1.028453 0.43745703 1.0939177
124 1.7749635 -0.52613443 -1.6795584 2.5732343 -0.79575557 0.97631294 1.3128968 -0.22275124 0.2551987 0.9321417 -0.8319604 -1.2395568 -1.3319976 -0.7861299 1.5065987 0.16845575 -2.6956282 0.7299889 0.4536375 0.3911514 0.63804406 -1.0598025 -0.59572417 0.1657537 1.834676 2.5785964 -0.58196783 -0.44673195 0.15945461 0.5573441 -0.33834967 -0.50745344 2.4659743 -0.27763954 -0.08893824 -1.4007984 1.3466119 -2.172674 -1.2076596 0.5455388 -0.5948266 1.1676053 1.5054666 -1.754151 2.1161182 0.8773814 -3.867633 -0.21376966 -0.6089114 1.4726118 0.58982563 -2.071535 1.3562529 0.8112422 1.1278648 -0.048628677 -0.16394025 -3.6160693 -2.0374453 0.76221585 -1.6558155 -1.8826202 -0.06660383 0.79442966
125 0.6105279 -0.25881293 -0.21600387 0.8503326 -0.99055904 0.28798458 0.19023438 0.5056445 0.3768699 3.2066715 -0.49435693 2.2765427 -0.8281505 -0.79028636 -0.773808 -1.5712475 -1.3496219 6.0767956 2.172099 -2.9938378 0.32454798 0.77254426 -1.9512094 1.6299974 0.5669304 -1.096777 3.638145 2.3220909 -1.3755127 0.35222024 -2.4410684 1.4727861 -1.980441 1.474937 3.2488058 -0.818846 1.759992 -0.7464713 -0.3061683 0.20551965 0.4563569 -0.29475358 1.729814 -2.075763 0.459759 -0.57865036 0.5432143 -0.20035493 -0.9181294 1.2851071 2.3527527 -1.0127926 -1.1612155 0.82364583 2.2623196 2.0163493 1.0364869 -1.488214 -4.618278 0.4772354 -1.1070201 1.0078648 0.5633778 -2.243791
126 1.61358 -2.8863304 -0.17048225 0.43118346 -1.9568111 1.6792519 2.0491645 0.95355695 0.37481642 0.1269172 -1.3242923 -0.98861986 -2.8003583 1.7442955 -1.5812736 -0.015275934 0.43294048 1.7210697 1.0304468 -0.9471973 1.2691576 -1.2620419 0.24226488 0.26529974 -0.00854382 2.08 1.3518016 -1.5221626 0.8640029 0.98423594 -2.0926423 0.9562134 -1.1760813 0.66116995 2.3750532 -0.8512042 1.0722513 0.38203648 -1.1858205 -3.2310588 -1.5666553 1.5852175 -1.220596 0.7434424 0.7976883 -1.5672508 -2.495985 0.31713635 -2.4258997 1.5143064 -0.8497834 -0.963649 3.0028634 3.5080125 2.198722 -0.23208141 -1.0711529 -0.5379576 -2.1905756 1.4843503 -0.59404504 -0.115739614 0.94074965 0.35005817
127 -1.0325434 -2.2799077 -0.6261423 -0.44849458 0.44855088 0.18102728 2.0164657 2.104044 0.52993166 1.0045402 -3.9325964 1.2896137 -0.22331223 -2.2148335 -0.8250231 -1.630129 -1.9062111 -0.70553297 0.61953354 -0.6322412 0.27201673 0.9413241 2.9126227 -0.42376462 -0.98687154 0.53021216 0.08027285 0.7797493 -1.2001256 -0.6352118 -2.5921972 -0.8788317 -1.6272699 0.6554126 2.4949994 -1.6051348 -1.2982157 -0.09517007 -0.18476097 -1.2454427 0.28094995 0.7682436 -0.36153436 -1.544148 0.77442473 0.07740996 -1.1947551 0.14225864 -0.19718133 -1.0504414 1.6828254 -0.6207131 0.48606944 0.09433991 1.3973794 -0.38269758 -3.0633838 -0.80652934 0.26424873 -1.5445119 1.2436203 0.0009609332 0.7845061 0.66493505
128 -3.3772876 -1.9333388 -0.5634334 -0.92291325 1.5657848 1.2366277 1.4031308 -1.169558 -0.09551699 1.2704973 -1.4067585 -0.14436038 1.5948182 -0.52924395 -1.1965098 -0.2806822 -0.24439846 4.2845955 0.6653209 -0.51950395 0.19333784 0.2430305 -1.5307965 0.992304 1.1164534 -0.18344074 2.62927 -1.2771844 -3.0134113 1.8300433 -0.4955266 0.04710471 1.5587006 0.5621943 1.7489786 -1.8893061 3.0648572 -3.6040254 0.72796667 -2.0130732 -0.6067061 -0.19424392 2.0413287 -0.4031683 -0.96054107 -0.42786467 -1.4380212 1.1674442 1.2829722 1.175673 3.384221 -4.2561007 -1.8634133 2.643375 0.14926724 -0.18029816 -0.6973311 -2.8433843 -0.26367754 -0.47499296 2.434693 1.2792153 0.64190227 2.001782
129 0.889351 -1.0731307 1.6199507 1.116359 1.7683346 0.3652015 0.26825422 1.3033488 0.4354073 0.4182439 -1.4224832 -0.036668986 -0.79564106 -0.94098985 -1.1681858 -0.34769616 -2.058064 2.4253826 -0.04675066 0.90723765 0.4769504 -0.0040019546 2.044229 1.6209161 0.20281824 1.1739231 0.1509039 -0.6073203 -1.1780255 -1.2188568 -0.6815665 -0.988051 0.20144382 -1.4444288 0.33094883 -1.3024014 -0.27895764 -1.1907666 -2.2856798 0.15728018 -0.16770759 0.440075 0.73949766 -2.1136744 0.98544145 -0.97482675 1.2841172 -2.1047542 0.11768708 -1.9296408 -0.9320834 -0.9961366 1.6239183 -0.7280066 1.1817675 -0.4367354 -1.064867 -1.9202358 -1.1223423 -0.7250287 0.73660594 1.3213229 -0.060901195 0.118142426
130 0.3841966 -0.42331848 -0.14481008 0.46136326 -3.679706 -1.3871672 1.233541 1.5380695 -0.17078021 2.0188353 -3.1956713 -0.5764184 -1.4488988 0.57334924 -1.6115813 -0.5057021 0.48273295 3.1065772 -0.8487306 -1.1981591 1.7214695 -0.0589292 -1.4467622 -0.63763744 0.19072713 1.3332801 0.66265553 2.4858656 -1.5043977 -0.5224269 -2.5371177 -0.97595423 -0.5110116 0.69009507 3.2868924 -1.2417785 2.143141 -1.6799868 -0.43874043 0.8322869 -0.69067913 1.065861 3.6863143 -2.802398 0.44323438 -1.146348 -0.2861605 -0.05454691 -0.9002904 -1.1513096 0.9812304 0.24249263 -0.45989 -0.27372637 1.9771348 0.49290422 0.7378827 -3.4437072 -3.080298 1.2914948 -1.1872164 0.6798194 -1.4177129 -1.1423761
131 3.682357 -0.5278884 -0.7816394 3.384791 1.140406 1.7569978 2.0748236 0.9419709 0.96705323 1.9259702 -1.0038075 -1.2213099 -1.2352728 -0.7945212 0.84579366 0.3001518 -4.1436725 0.83160645 -1.358787 0.9102563 0.4496385 -0.23296838 1.0783303 1.3635223 2.191186 3.5834303 -0.97831976 -1.3863959 0.33662713 0.08097343 -0.08902885 -0.00506487 2.332036 -1.0746986 -1.8894994 -1.5959402 1.478656 -3.2384748 -1.3075334 1.3213582 -0.3506597 0.8099063 2.8505754 -2.3005 2.8816485 2.5342155 -4.22645 -1.8301736 0.12172504 1.2222987 -0.64196944 -3.6680863 2.5190282 0.95153886 1.719274 -2.072757 0.13887699 -3.3930373 -1.4394155 -0.08078408 -1.6087041 -0.954804 -0.6004386 -0.88793063
132 0.41563118 -2.2593637 -0.53061175 -0.7003835 -0.015341702 -0.30198425 2.209233 1.2430881 0.12741989 -1.4131784 -0.9841091 0.36548457 -0.94319576 -1.400955 0.1837237 -1.1995071 -0.5925898 0.7053591 -0.33148623 1.563249 0.98856354 -0.16652362 1.0923951 -0.7224468 -0.44414014 1.3422028 -0.09207319 -0.46213832 -1.2220105 -0.6788432 -2.7487855 -1.2447428 0.7261815 -1.294877 4.655536 -1.3539509 0.12718454 -2.4993165 0.29695666 -0.77818537 -1.7050778 2.1446245 -0.45132008 0.49702683 -0.35000035 -1.0878942 -2.4692302 -0.9500227 0.08388959 0.8828271 0.1362889 0.9353647 0.19891408 0.51930606 2.0017889 1.4262706 -0.91932195 -0.61309946 -3.3922424 1.6966585 -1.1211152 -0.9748452 2.0319765 0.8948767
133 0.5180987 -1.348061 0.83200216 0.16363336 0.98830473 1.2739804 3.0926788 1.2322099 0.8247426 0.8810119 -0.040818825 1.0873268 -1.2758772 -3.6343553 -1.5820849 -0.34322464 -2.7897768 -0.3213099 2.1079903 -1.5602708 1.2401755 -0.32122272 1.8151188 0.4864382 -0.2036433 1.0237192 0.89395523 0.7207972 -1.2941898 -1.0978034 -1.1516112 -1.7962607 0.3495877 -1.2455837 -0.14567417 -0.3728573 -0.72683066 0.6638982 -0.5526967 0.99966836 1.1341571 0.712659 0.5711428 0.30314878 1.3212119 -1.9130673 0.2591577 -1.1722976 0.13816255 -2.7702918 1.425821 0.35214633 1.7106769 -1.1451004 -0.762443 -1.4472206 -0.9804212 -0.68316126 -2.867745 -0.53361803 -0.8910096 1.9804779 2.0862613 -0.5979222
134 1.6833651 -0.91592413 -1.4445609 1.15064 0.56626934 0.5462809 1.6751724 1.7288139 0.54349977 1.1358402 -0.8397513 -1.2764573 -0.80902773 -1.2059107 0.38589013 0.8099568 -0.50026846 -0.31924766 1.0670633 0.34055153 -0.6567516 -0.56033194 0.2719914 -0.27892807 -0.08622059 0.3943548 -1.0533168 -0.3393626 -0.6340737 0.089632064 -2.3136404 -0.8994523 -0.68897283 -0.87565553 3.1761777 -1.1047788 0.8200988 -1.2777839 0.8564159 -0.3151136 0.8711119 0.7821093 -1.5162952 0.76245284 2.5418193 -0.500805 -1.4840666 -2.0129757 -0.1961624 -0.2284347 -0.31974137 -0.34779125 2.3073058 0.33716172 1.3813274 1.956752 0.33771712 -2.2157266 -3.2829595 0.96757966 -3.1702619 -1.6788086 1.654055 0.9017808
135 -0.2506074 -1.4006616 1.8049505 0.80946743 1.2533165 1.692997 3.7660284 0.8544723 -0.015030488 1.0464392 -0.4551254 1.1395513 -1.3089163 -3.701568 -1.649711 -1.1296233 -4.142857 0.65252185 1.3816175 -0.7215856 2.1890216 0.024957247 1.3765595 0.24556239 0.041071925 2.136645 1.2166175 1.3486316 -1.3408341 -0.52597785 -1.2744385 -1.1683258 0.25050852 -1.4718513 -0.5741938 -0.8441055 -0.5271879 0.5180785 -1.5548198 0.4218353 1.0726478 1.5288407 1.1929545 0.0063425163 0.83575916 -1.8955761 0.27329966 -1.4523195 0.09298715 -3.0518136 1.6598994 0.10488725 1.6009866 -0.927835 -0.49110162 -1.048317 -0.8917646 -0.46440816 -3.6640594 -0.49398658 -0.5855615 1.7733684 1.9201714 -0.16980028
136 0.074157074 1.6558836 -0.20549874 -0.9126775 -0.15698346 0.7120323 2.4617882 0.19348443 0.7424063 2.4919 -2.1265385 -0.040148735 -1.8560364 -0.54614866 -2.325759 -0.26048887 0.19567145 3.7492 -0.61277133 -2.2613914 0.6152804 -0.018494131 0.7292615 0.06832493 2.1034207 -0.10780184 -1.9360985 -0.5095072 -0.74985284 0.1779593 -0.72691816 -0.4339459 -0.06932532 -0.6292186 3.0244837 -1.1272225 1.826581 -1.8841051 0.571818 -0.026636643 0.4206928 -0.273565 -0.15902507 -4.389349 1.714373 -1.2884622 0.504174 -1.6178218 0.26012394 0.66524476 2.1076884 0.6251975 0.6166208 -0.46739802 -1.0809224 -1.226448 0.54646784 -2.7080925 -2.9173322 -1.1311407 -0.33850533 0.90780723 -2.4025464 1.8121445
137 0.11788835 -1.0098679 -0.04526595 -1.007443 1.3697187 0.4760013 0.70890075 0.91639555 -0.06677731 -0.61085725 -1.1603454 0.77709067 -0.76534957 -1.1216197 -0.052258287 -1.1279562 -1.0365504 1.4673523 -0.5558545 1.502601 0.6854342 0.5152403 1.7080046 -0.016463948 -0.2922242 0.9482711 0.2847965 -0.11132268 -1.4283129 -0.25348794 -1.7707781 -1.7373747 0.6047353 -1.1540056 2.641817 -1.6561897 0.3603166 -1.9112624 -0.09018662 -1.0499642 -1.1183872 1.0086358 -0.042327017 -0.039849497 -0.12130485 -0.6002408 -1.3888979 -1.6283889 0.29800928 -0.121127084 0.20539439 -0.05410201 -0.12784232 -0.10205952 1.8982702 0.95943195 -0.8767824 -0.9426737 -1.4368856 0.38588297 -0.29137865 0.4174439 0.82434595 -0.13588533
138 0.33618444 -1.0820489 0.051376283 1.0304707 -1.1026744 3.0210855 2.6409924 0.63987684 0.7244434 1.6545058 -1.3199435 -0.72924703 -0.84970653 0.32055652 -1.3181237 -2.320107 -0.11603336 -0.42076567 -0.20199424 0.87623125 1.7656943 0.62076575 -0.10548228 0.8308562 0.5804707 1.8846033 -0.7092176 0.4523071 -0.86448365 -1.6902012 -0.013038346 0.08640369 0.33549905 -2.2721112 1.1341128 -2.1913192 0.59760207 -0.094832696 0.059845757 -0.17823757 -1.3981311 1.9729046 0.3247798 -0.61152476 0.85383886 -1.8584298 -0.7083639 -1.8966904 -0.42172253 -1.7949193 1.0955713 -0.8349076 0.9132642 0.24045442 1.5728784 0.0002737515 -1.4253339 -1.9280025 -3.1603465 0.24694028 -1.0037946 0.5968432 0.8703477 -0.43640745
139 -1.7980139 -0.30956897 -0.2129536 -1.9975753 1.7489538 1.7221888 1.9641912 1.1087537 0.72263783 1.3214364 0.08627319 -0.41257274 0.875543 -1.5120655 -1.3568527 0.7832544 -0.18201795 -0.21743332 1.2280589 -0.7621902 -1.8089254 -0.37081096 3.4438045 2.0521648 0.005356155 0.43831947 -1.1978796 -1.469087 -1.1733636 0.5922686 -1.5706598 -0.6667559 -0.25377837 0.052499805 -1.082817 -2.3402905 2.527744 -2.1455657 0.46635363 -1.7691058 0.16058958 -0.5296883 -0.97765976 0.5484733 1.0264478 2.2923684 -1.3094671 0.208081 1.149413 0.6501751 0.73085254 0.35989597 1.0686842 0.46373704 0.0714261 -3.7441447 -0.8235826 -1.0553362 0.77426416 -1.9146247 -0.35320315 -0.3207276 -0.8847416 1.5511059
140 -2.4726706 -2.3769195 1.9691861 -0.5379935 0.9695101 2.3497384 0.64308137 1.7953458 -0.4904565 0.92307967 -0.13777333 0.2112507 0.10527359 -3.8785613 -2.192553 -0.3580541 -0.2536036 -0.40243572 1.9945493 -0.3590292 0.94069517 1.0838655 3.081811 0.28278756 0.38233605 0.360625 0.35611778 -2.3955452 -0.7390501 -0.9901144 -1.6929494 0.61323464 -1.1668215 0.75148827 0.12982084 -1.1515725 1.4298003 -1.6121368 -0.99695307 -3.6735256 -0.29209197 0.430525 -1.6931028 -0.13035196 0.6731662 1.2107887 -0.69374 0.8213458 -0.14377405 0.16468549 0.30488697 -1.2641326 -1.1962258 -1.7718574 0.7705633 -2.5997863 -2.4636443 -0.71025205 -0.8136208 -1.2714972 -0.3183523 -1.1317105 -1.5820401 2.7117288
141 -2.493702 -1.5219594 0.004991692 -3.2173176 -0.3618769 1.068347 -0.1674507 -0.33444425 0.52485996 3.8508728 -1.3933274 0.45214954 -0.58380306 -1.6529018 -2.98251 -0.25745147 1.0353816 0.34184143 0.5117832 -0.5814455 1.5864658 -2.5495422 -1.2723553 -0.1671626 -0.5008503 -2.1888282 -0.7982314 -2.9488523 -1.5478454 0.27653992 0.0044948333 0.89114124 1.9416939 -0.61987555 3.6893399 -0.7469036 0.5171642 -2.3248253 0.36747023 -2.0054636 -1.5948273 1.5878551 -0.96595067 -2.0409474 0.38815185 -0.21187757 -0.67515206 -0.6837681 -0.28505075 1.5612378 1.5187174 -2.2938004 -0.9575402 1.4572076 0.104493335 0.14139204 -0.7208469 -3.243513 -1.7834079 -0.5135639 1.4736577 0.30465525 -0.5155968 3.140372
142 0.67157143 -0.06566302 0.26135722 -0.16020222 -0.15078957 2.4439304 0.44783434 0.03878519 1.8395274 0.59830785 -0.9969633 -0.05071653 -1.174339 -0.6820717 -0.7904577 0.060190856 -0.5136499 0.2610081 2.9248695 -0.57494855 0.016008232 0.73262453 0.22927321 1.5618262 -1.1193079 0.24678434 0.4209747 0.61308444 -0.41925266 1.4282005 -1.6554452 -0.88132817 -0.24487703 -1.4187765 2.245173 -2.2025776 0.36729026 -1.0173645 1.8797297 1.6737258 -1.4211798 -1.1453524 1.5727155 0.4056343 0.70078844 0.16800867 -0.542055 1.5880208 -0.29188654 0.31428212 0.7287673 -0.3298782 1.0508884 1.8699744 0.4309352 -0.70153254 -0.8533285 -0.7972046 -2.224522 0.531794 -0.15128896 -0.4988133 0.75241697 -1.100207
