228 64
0 -1.5027754 1.322429 -0.93046254 -0.8188731 1.5118457 0.061916035 0.28978452 -0.4927915 -0.0937753 -0.15585472 1.3002319 -0.6496875 -0.57964647 1.5415684 -0.4348966 0.14880621 -0.26381022 -0.67671436 -0.37900165 -0.1313787 1.1246871 -0.05653917 1.070617 -1.6730322 -0.31055036 -0.24726303 -0.44458467 1.3144634 -0.42363012 0.19160241 0.08624007 -0.83892655 1.0729207 -1.6683986 0.91773486 0.80591154 -0.7259282 -1.0698392 -0.66191274 0.87280476 0.7465364 -1.08574 0.63271224 -0.9965831 0.049112767 -0.11796997 -0.49673578 0.09550055 -0.14822814 0.7069807 -1.3140748 -0.4942711 -0.23066726 1.3074144 1.1136923 -0.4623691 0.6981653 -0.06961997 0.974785 -0.62557757 -1.4388251 -0.47269928 -0.49532536 -0.7459141
1 -2.739591 2.491541 -1.271715 -1.5375195 -0.64487976 0.84598047 1.5249441 -2.8672597 -0.671632 1.7016778 1.4024343 -0.54199976 0.090967804 -0.24606033 -0.055765353 0.73854125 -1.9687588 -1.1547103 -1.2449107 1.6787711 -0.25502315 0.9658839 1.3874438 -0.3895197 1.3716831 -1.4805139 -1.9505087 0.3949337 1.1972526 -1.1329024 -2.0187948 -1.813155 -1.5394226 -3.2207468 -0.20442447 0.98810726 -0.56839436 -0.118989 0.18097597 3.3182063 1.0946515 -0.4389905 -1.6952082 -0.5818127 -1.1034603 0.19255006 -2.5555274 -2.548321 -0.8737502 1.24014 -1.3336358 0.18137015 -2.9724743 3.2608464 -1.6672838 0.93131626 2.0988474 -1.3871369 1.4945021 0.6857864 -4.3948565 0.6682039 -1.650464 -0.7790626
2 -0.30827573 -0.19356629 -2.0170364 -0.86825925 -0.16051964 -1.5403961 3.2242959 3.1155794 1.4170413 0.4837143 2.307125 0.17854768 -0.54389244 2.9563649 -2.6837723 0.28741232 -1.907413 0.4169454 -0.06902531 1.1436237 -3.6131465 0.98254603 0.21131817 -1.4107548 0.92968386 -0.26371038 -1.7761357 0.9236385 0.8989291 -0.47863293 2.0655649 0.28716898 -0.78948003 -0.07514045 -1.2821324 1.2264514 -1.9192923 -0.66291445 0.23563358 -1.6346861 2.0414474 -2.4264193 -0.38107187 -0.9362442 -1.2073416 2.0691729 -3.3302982 -0.13254301 0.36953175 1.3094801 -3.3262024 1.6020902 0.8363454 -0.34382936 2.3240883 -1.6322654 -0.17124839 -2.7213795 0.8032374 1.510961 -3.0993118 0.9276938 0.86838335 -0.046429966
3 -0.38298684 -1.8840544 -3.5082593 -1.8760378 -0.5369007 0.49875647 4.307898 3.4506884 1.3255078 -0.041723076 1.3435223 0.11052748 -0.82352364 3.213414 -2.5193944 0.014253238 -2.0545604 0.70672715 0.40349683 1.6999325 -4.234588 0.65761274 -0.5622401 -0.0123636285 2.375515 -0.7059778 -2.5534968 -0.08902036 2.455265 -0.019689998 2.7859025 0.028974595 -3.6953218 0.03732483 -2.1850097 -0.038730476 -0.83399636 -0.20218043 1.3339877 0.0035962877 1.4820881 -4.3334527 -1.8902279 -0.65825236 -1.9665406 2.0436575 -3.9904437 -1.441834 1.5704423 -0.13996167 -2.2433922 2.4699144 -1.8830048 -1.3663479 2.379257 -1.6021199 -0.13055049 -3.637257 -0.51282287 2.5380588 -3.2609334 1.6997392 -0.78380895 -0.009005077
4 0.030558998 0.47207138 -2.2258356 -0.7127187 0.04049674 -2.1827838 3.03188 3.2473757 1.717367 0.7387179 3.008893 -0.19475916 -0.7210524 3.5533774 -2.5805736 0.4602066 -2.2156465 0.70676374 -0.2365914 0.99315107 -3.5813496 1.4647222 0.34369364 -2.3128304 0.5767031 0.32407174 -1.545231 1.757701 0.21186943 -1.0056707 1.7502141 0.16721793 0.21472222 0.0011064825 -0.4994365 1.3153107 -2.2956343 -1.137339 0.19449411 -2.3151374 2.5092363 -2.2171907 -0.06223192 -1.085512 -1.0840228 2.0857415 -3.7994273 0.06050275 -0.42422575 1.8421241 -4.118577 1.6834569 1.5092283 0.06082351 2.5418391 -2.2640333 0.087612584 -2.708671 1.1328688 1.405753 -3.7188597 0.3804623 1.638464 0.09681825
5 0.06297293 0.4058939 -0.50491256 -2.1291678 0.498494 0.18508157 1.5757035 -1.9642787 -0.3073721 -1.612762 0.3171238 -0.9961286 -1.8148477 1.4780625 -1.9043053 0.51111674 1.3034315 -0.98715925 0.9267525 1.870671 1.3442069 1.6940745 0.13227597 -1.3749976 -0.3527609 -0.9116226 1.5126004 0.6526245 -0.01791523 0.61071163 -0.64449847 -0.698232 -1.0038699 -1.0386002 -2.3507226 0.45739824 -1.5828549 -0.61803913 0.434847 0.24141411 0.82857066 0.0019238966 -0.7229456 0.20237562 -0.7779911 1.8479955 -0.25348884 -2.4573317 0.45238638 0.5508865 -2.7314882 1.1735878 -2.2687552 -0.09833777 -2.2085857 -1.7105378 0.77403265 1.9902631 -2.2640724 -0.10011306 -2.1278334 2.4622712 -1.6613667 0.117722474
6 -0.015775789 -0.023106566 -0.91494703 -2.619377 0.15481661 0.84907883 2.3728547 -2.348739 -0.35079214 -2.1853604 -0.57734144 -0.5728633 -2.6103837 1.9366803 -2.0448577 0.30345112 1.6878976 -1.3384831 1.3747789 3.1481185 2.2038739 2.052338 -0.1385988 -1.8999151 0.13661765 -1.5853393 1.6214496 0.30384466 0.476548 0.4920301 -1.6177397 -0.6114749 -1.3333534 -1.2278718 -2.8062363 0.43846852 -1.691347 -1.0769106 0.9526394 0.322143 1.2039236 0.3210857 -1.9012492 0.35019487 -1.1124055 2.5784752 -0.7125695 -2.8590136 0.30905503 0.85446197 -3.199905 2.1446338 -2.27731 -0.5604272 -3.4459949 -1.319699 0.8460035 2.27943 -2.9636595 -0.117938176 -1.7656553 2.931565 -1.0882967 0.93043894
7 -2.9463766 2.7850735 -1.0267807 -1.2607609 -0.73625726 1.3804283 0.88644624 -2.8383522 -0.60726166 1.1339713 2.2809842 -0.8557918 0.4069065 0.49017534 -0.12038508 0.1620129 -2.585808 -1.7211967 -1.1706488 1.2505805 0.02563566 0.27816108 1.1665499 -1.4971491 0.9959309 -1.1745546 -1.4881194 1.083431 0.2336779 -0.5851244 -1.4796574 -2.1241913 -0.754787 -3.7797587 0.4991176 0.8609391 -1.386493 -0.73454905 -0.29869756 3.5057213 0.71719426 -0.40949944 -1.3779124 -0.62775415 -1.0824871 0.21249652 -2.2941344 -2.8191133 -0.6902843 1.4340507 -1.802638 -0.19994852 -2.8577611 3.419991 -0.5594862 1.0853503 1.525708 -1.9389418 2.1655161 0.5456208 -4.030258 0.10504146 -1.5635549 -0.4581655
8 -0.89031136 1.7994859 -1.3554717 -1.5469949 0.9425585 -1.2622602 2.7467968 1.8304366 0.022771621 1.4437819 1.3609833 -1.5293391 -0.9979459 0.2270015 -0.88867694 1.3733447 -0.49245593 0.55129313 -0.6240314 0.82283866 -1.2894613 2.217019 2.1621635 0.83422893 -1.0219326 -0.37356898 -1.964738 0.7017184 2.9488373 -1.7228552 -1.0517411 -0.64761966 -2.6230986 -0.23405997 -0.5004243 0.4995622 0.38553223 -0.91450185 -0.26663208 -0.0118458755 1.2789816 -2.600147 1.6306111 -0.9158869 -0.72323245 0.74559134 -2.4375482 -1.0290589 0.5169547 1.3195045 -0.42512223 2.1177323 -0.93839025 2.7938416 -1.3242013 -1.2242812 2.8939254 0.74104714 1.5615011 0.6439466 -4.173445 2.6051173 -1.1383476 0.58327913
9 -0.008897049 -0.34801093 -2.0512493 -2.662921 0.62451404 1.7347898 2.093798 -2.0843527 -0.24429637 -1.5507083 -0.11005959 0.5499622 -2.2482986 1.3489844 -1.8749942 0.25646046 1.4922583 -0.414543 0.5592553 2.2723072 0.51689386 1.4275448 -0.057668578 -0.2399654 2.3238962 -0.24755825 -1.2225829 -0.6644435 1.5786475 -0.029836494 -0.022906581 -0.36693892 -2.172542 -0.7642781 -1.6254491 1.0507385 -0.69726294 0.62751925 1.6945438 2.045917 -0.28339228 -1.3780227 -2.324125 -0.1809797 -1.2367435 0.8094012 -1.0914621 -1.4866437 0.22238421 0.09929616 -0.6212455 1.9274629 -2.6553895 0.3239409 -0.47010046 -2.1793964 2.1622312 0.01957948 -2.0224864 1.5838664 -2.8038638 1.3622861 -1.3851839 -0.38277817
10 -0.53914076 -0.57142407 -1.9326853 -2.0190234 -1.1195818 -0.009785037 3.2555676 0.78579646 0.36270303 -2.24611 -0.6696109 0.35210288 -2.287238 3.158407 -1.8149015 -0.1524299 -1.1295336 -0.34468234 1.0853988 2.4034517 -0.19292873 -0.4391934 -0.20464961 -1.474592 0.03606344 -1.965625 -0.41284522 -0.9462422 2.0586767 -0.80695325 -1.3961167 -0.714432 -2.02868 -0.036009487 -2.3591878 -0.077081084 -0.31734532 -0.6496138 1.567268 1.6302747 1.2804706 -3.8146186 -1.5014129 0.07703236 -1.4967561 3.444566 -1.5789002 -3.1102393 -0.014215279 -0.0988427 -0.9234078 2.3653615 -3.4389093 -0.02497977 -0.7327788 0.5717077 1.2010828 0.56161827 -1.2373096 0.58957756 -1.227125 1.451041 -0.31284884 1.1064811
11 -2.077921 2.6777558 -1.408056 -2.067985 0.66210675 -0.25639755 2.1284168 -1.1957334 -0.816443 1.6053654 1.2782696 -0.7439557 -0.8950018 -0.5773147 -0.13305022 1.0927838 -0.9451028 -0.40398765 -1.2024983 1.4661878 -0.76585704 1.8269165 2.20999 0.35057276 0.34582734 -1.2304568 -2.2441118 0.4800484 2.167462 -1.5504364 -2.2891555 -1.3478608 -2.6365314 -1.7637085 -0.3922295 1.2626529 0.14975171 -0.054500055 0.09458875 1.7664213 1.4307505 -1.5056659 -0.11959918 -1.1569594 -1.0551062 0.49030322 -2.6445184 -2.2679486 -0.86753285 1.3936718 -0.74300194 0.83615065 -1.9670497 3.176417 -1.9182919 -0.5948353 2.8472915 0.17525207 1.2148414 0.44395888 -4.613612 1.4833908 -1.4380891 -0.6489413
12 0.54495955 -0.3049265 -2.3360662 -0.90247464 -1.135739 -0.7004558 3.1759508 4.3167043 0.48737925 -0.25613162 1.5737295 -0.9409822 -1.4168745 1.9832587 -2.072793 0.27746305 -2.1085222 0.7845309 0.4440254 0.11367179 -1.3474941 0.33885747 1.1731683 -0.08769608 -1.795735 -0.11640264 -0.922302 0.7950682 2.7139754 -1.3819199 0.5807656 -0.8016559 -1.3583498 1.0941045 -1.2330245 -0.9868893 -0.27938706 -0.7831429 0.699866 -0.7228943 0.7560936 -4.527605 2.102531 -0.47527757 -0.42667955 2.0693448 -2.7991996 -2.1141894 0.8070559 -0.17222992 -0.23442402 2.2014773 -1.485101 1.6004539 0.7272316 -0.53033596 2.5030255 -0.6598345 0.7216059 1.1366855 -2.63543 1.4002479 -0.31823057 1.1733282
13 1.7961894 1.6571696 0.25855234 -2.303574 1.0666285 0.27891386 0.5807402 -0.8895307 0.36891901 -1.0173303 1.5948578 -1.4687246 0.18727404 3.3888724 -1.8556418 1.1552095 -0.6757604 -0.26041377 -0.17735556 0.70385164 0.7041205 2.8691864 2.5435576 -0.36809367 -2.592443 -0.1269539 1.647573 2.3560019 -0.41959196 0.7570656 1.2217484 -1.0816585 -1.1578517 -0.19079517 -2.879937 0.11500851 -1.8556137 0.11227283 0.4884811 0.037863243 0.49179474 -0.6704875 0.8423361 -0.5887238 0.028704545 0.88573515 -0.40275764 -2.3310957 1.0135288 0.4025692 -3.753012 0.0135265235 -1.852257 2.2860968 -1.3240362 -2.3223517 2.477795 0.95912385 -1.0376011 -0.41542184 -2.5719657 1.866068 -2.960388 0.17585503
14 -0.50012237 -0.6041819 -2.1807327 -2.130601 0.0060681608 1.1022487 3.727802 0.069671124 0.644396 -0.23534055 0.005980494 1.1079212 -1.892433 1.1614398 -1.2341311 0.47900668 -0.5198243 -0.3194511 0.42097396 1.8973593 -2.7468286 0.29312634 -0.6052847 0.34242517 3.1695616 -0.65030116 -2.4898605 -0.940447 2.0858154 -0.42302412 1.6036423 -0.3157686 -4.3115797 -0.58498836 -1.8147993 1.136359 0.29782075 1.0954797 1.6129111 1.9068261 0.6932946 -3.962454 -2.297431 -0.17544511 -1.787882 0.9866929 -1.795717 -1.5974797 1.0379953 -0.5081758 -0.11331005 2.57698 -3.8426208 -0.3710056 1.9350015 -1.5564134 0.50528085 -2.0405593 -0.8434713 2.7277904 -3.1602004 1.2588991 -1.2248757 -0.2613588
15 -1.4629624 1.6918446 -1.524158 -1.9862416 0.8738766 -0.7617908 2.257691 0.67252904 -0.013738303 1.3869057 1.6899699 -1.2200173 -1.2753544 0.106351964 -0.9104693 1.1512548 -0.51165974 0.2747765 -0.8207554 1.1308504 -0.66507614 2.3616593 1.8540059 0.77851784 -0.1286157 -1.093315 -1.7476932 0.56341547 2.1451402 -1.6451471 -1.4234679 -1.1218503 -2.4259272 -0.38075963 -0.65455747 1.0590005 0.13876535 -0.527362 0.2132939 0.2675344 1.0570896 -2.1502388 1.117255 -0.9447017 -0.9656602 0.909609 -2.2532902 -1.8142037 0.12889344 1.072856 -0.5528908 1.609194 -1.3081956 2.5671093 -1.5820626 -1.5250063 2.6775608 0.757107 0.8398761 0.9843983 -4.295913 2.0487678 -1.3077937 -0.25931013
16 -2.2212546 -0.026361391 -0.67625093 -0.8622069 1.3627396 -0.50048333 0.6316085 -1.2055156 -1.3257457 0.13053942 0.964908 0.8552486 -1.4383954 1.2547442 -1.251394 0.29869407 -1.4286568 -0.1642802 -1.1565982 -1.1310018 0.8100279 1.3195086 -0.7983407 -0.07042646 0.156645 0.29779837 1.3304169 2.1026328 -1.1773416 -1.1801417 1.2794516 -2.336858 0.602995 1.3913639 -0.310614 -0.18402304 -2.25515 1.9588625 1.0093135 1.6374753 1.2919065 -1.1373119 0.7048297 0.81998336 1.3548405 1.376085 0.28710866 -0.08348172 1.0965776 -0.3803093 -0.37980476 0.7474458 -1.2379985 0.49708304 0.7702334 -1.1590478 1.8053743 0.7811086 -1.1085562 2.8493645 -1.8281119 0.87677157 -0.62186307 -0.24462086
17 -3.380507 -1.7555575 -3.1099575 -2.297667 1.3068885 2.5325794 -1.2338078 1.2793876 -1.6779141 0.09254304 0.70536953 -0.3522986 -1.9007663 0.9533631 -1.8053415 -0.9549396 -2.6316335 1.0369124 -0.6373379 -1.3602458 1.4549302 1.5979271 -0.6605213 0.26307863 0.17344047 -0.04504019 2.6215954 1.9462746 -0.9882388 -1.0267636 0.8257895 -2.5759869 2.16892 1.2461561 0.2629271 -0.17609246 -3.9362152 1.7072558 1.0033503 1.3359952 -0.049742475 -0.5526605 1.939457 0.18985619 0.10477315 1.4802427 -0.97993296 -2.4896884 -0.43250006 -2.1831732 0.5791141 -0.4475734 -0.10240891 -0.8456693 -0.15184455 -0.89340854 2.1153708 0.18251933 -1.2155818 1.286185 -1.935804 -0.91672015 -0.40299237 -1.470957
18 -0.6458154 1.134812 -0.8753782 -2.2863066 0.32939875 0.28358376 0.83826107 -2.9537263 0.41401505 0.0074512237 -1.2138495 0.09341376 -2.4097052 -0.99248326 0.77756846 1.855832 -0.21651702 -0.6433581 -0.21972673 2.0612013 0.40970486 1.500571 -1.377054 0.47513175 2.2562609 -0.5741899 0.24486977 -1.1706606 -0.39193437 -1.5225708 -1.9395214 -1.3619815 -2.0671227 1.2234708 -0.82389194 1.9270445 1.664154 1.8002906 1.736507 2.6097045 -0.2068088 -1.5693486 -1.5074854 0.5933816 -1.0876181 -0.2648243 0.6031662 -2.4061387 0.14748342 -1.0143758 0.065060586 0.56015855 -4.530927 -0.20484266 0.021565424 -1.52634 1.3038285 0.88064516 -2.0306623 1.9956698 -3.2713776 -0.07504409 1.202531 -1.8614521
19 -3.2376146 -0.17987458 -2.5013385 -2.2201276 0.9509461 2.3531384 -0.76417226 1.3399719 -1.1764386 -0.12063941 0.6820442 0.015343822 -1.6334027 1.6354005 -1.093366 -0.22854497 -1.9376131 0.51411235 0.2673412 -0.38947058 -0.46942884 1.2765765 -0.29646078 0.5318275 -0.5652877 -0.32320195 1.6947637 1.5496585 -1.0839449 -0.25698417 0.54380167 -1.6522961 0.28870147 0.833692 0.4351822 0.47856653 -2.812665 1.7749567 0.6265094 0.9011992 -0.18630454 -0.5472102 2.50828 0.5579839 -0.35237956 1.63127 -0.5242203 -1.3419658 -0.78444284 -1.6403 0.2516362 -0.08309367 0.49957243 -0.7764648 0.17490217 -0.76886815 1.6710604 0.30347833 -0.32989106 2.1314218 -1.1128675 -0.80923796 0.13247856 -0.3721419
20 -1.2297927 -3.1828709 -3.363458 -3.0096788 1.6077762 2.8792922 0.14217056 -1.5978742 0.18266988 -0.061696753 -0.37350434 0.8601872 -1.4674283 1.3652908 -0.097927876 -0.3584379 0.30850607 1.5520304 -2.1150916 -1.2140248 2.1963897 2.5371 -1.2048725 -0.36609605 3.1657414 -2.2715042 1.0771419 0.46174 -0.7751922 0.21633647 -0.5196497 -1.6200075 -0.23205331 0.0787947 -0.64970005 0.40735412 -1.6575546 0.9752963 2.7931492 2.5661047 0.021936955 0.82814986 -1.1728482 -0.4927559 -2.5284235 1.0777838 -2.0164664 -2.295823 0.045711346 -1.5394535 1.2751873 1.0258645 -2.7378109 0.08776221 -3.404416 -1.0787671 1.5027679 0.9433387 -0.92341626 -0.18188691 -2.1072638 -0.6307372 -1.3205717 -3.8335395
21 -1.9002886 -0.4085645 -0.9658881 -0.8205841 2.1152186 -0.3287602 1.2789642 -1.083156 -0.6062823 0.2142958 1.9893098 1.3716692 -2.1323302 0.31859872 -1.0193112 0.67366254 -1.3029444 0.8268341 -0.9739044 -1.6719481 1.7393173 1.6640204 -0.12482236 -0.3147566 0.66804457 -1.0713161 0.67100763 1.9405792 -1.607427 -2.0550053 1.4001781 -2.8360186 -0.3811743 0.6899472 0.15773158 0.74920356 -2.0146697 1.8200115 1.3729221 1.9153554 1.8303192 -1.5937873 0.042973712 0.41903725 2.0004077 1.2909422 0.006088602 -0.08676482 1.5368615 0.48700333 0.8732274 0.96729994 -1.2875266 1.9004362 -0.30954096 -1.7116297 2.2387154 0.5247248 0.02766152 1.7346457 -2.2376053 0.5491534 -2.7223067 -1.2321407
22 -1.4305753 1.2382656 -0.71398145 -2.143234 1.714947 -1.3509302 -0.698466 -2.1489353 1.0758822 -1.9277936 -0.5006303 -0.7310605 -2.599984 -0.99931395 1.5202829 2.6887336 -0.4915408 -1.2946347 0.6097413 -0.82337815 -1.2863936 0.2446188 1.5736306 0.38436383 1.1228106 -1.1928229 0.36475277 0.02302038 -1.9333563 -0.7927578 -1.604634 -2.213749 -2.2669098 0.42321226 -1.7261425 2.751089 2.4046497 0.14032164 1.1300097 1.9492711 1.8268678 -3.3502247 -1.0262836 -0.5610084 -0.35674098 -0.3481318 0.35927653 -1.324086 -0.70468336 -0.008710319 -2.1099367 -0.54448986 -2.208553 0.4920016 1.9329001 -0.90276563 1.8539033 0.67080635 -3.186378 2.6031067 -2.9254735 -0.45073375 0.73329914 -3.6892335
23 -1.9368396 -1.1888275 -1.934251 -2.0091524 3.3791509 -0.20335373 1.2100896 -0.62740284 -0.14471743 0.5733693 0.8550872 1.7383926 -2.2825294 0.2666077 -1.072276 -0.5121873 -2.0180333 1.5043374 -1.7848458 -2.3363817 1.333476 1.911887 0.83653253 -0.33613396 1.9997175 -1.5351386 -0.12035092 1.1702222 -1.2160591 -2.0917943 2.0759215 -1.8695493 -0.26265132 0.6517419 -0.54562706 2.2740078 -2.6010888 1.5397787 1.5541058 1.4375905 1.6180413 -0.86840856 -0.18360665 -0.19013005 1.3447332 2.2665355 -0.56336933 -0.24050048 1.5080838 -0.019637875 1.590174 1.2820635 -1.4772123 2.6310623 -1.7460941 -1.099669 2.4986317 1.1677307 0.47997084 0.24276966 -2.9587936 0.5556902 -2.557443 -2.6038146
24 -0.4769934 1.8733801 -0.3806911 -2.023499 0.7583309 -0.38092187 0.8025386 -1.6894288 1.0102456 -0.064227626 -0.42508033 0.53524864 -1.9570652 -0.79987025 0.45614365 1.3986849 -0.59174615 -0.5379823 -0.28711927 1.7496089 -0.4080683 1.3141513 0.05282706 0.2886558 1.3981543 -1.1562444 0.09141513 -0.49767518 -0.49963602 -1.2128108 -1.1750625 -0.83428544 -2.3053892 0.5259655 -0.5797658 2.4809115 1.1554037 1.7005545 1.0773054 1.6825148 0.29464915 -1.1152831 -0.7298975 0.14832133 -0.68690425 0.057941012 0.6540684 -1.4560852 0.30655205 -0.06849402 -0.26148278 0.7422161 -3.1840081 0.6184654 -0.0148315495 -1.1170527 1.5060221 0.30590388 -1.2840801 1.9093579 -2.874352 0.24117038 1.3775393 -1.6358838
25 -0.5394761 1.5958518 -0.5035163 -2.0288122 0.59510475 -0.18684055 0.85120636 -1.7722187 0.8808633 0.0042076223 -0.31802502 0.40909895 -2.0313075 -0.6219084 0.38986945 1.3843118 -0.5877922 -0.46527135 -0.3710003 1.7541871 -0.19153176 1.361487 -0.2658091 0.19367643 1.5069761 -1.0646744 0.06776007 -0.47064117 -0.5716114 -1.1713067 -1.1798844 -1.0381753 -2.13179 0.6273799 -0.5466478 2.3035574 1.0562893 1.6704295 1.2497104 1.7947824 0.17301326 -1.1924697 -0.83101064 0.18188602 -0.7840722 0.08999676 0.54468524 -1.7180786 0.26821485 -0.21524264 -0.27848458 0.7652638 -3.2930214 0.4847651 -0.04732762 -1.2402862 1.4055501 0.35334346 -1.3234829 1.8945793 -2.9381213 0.11439451 1.1841819 -1.620117
26 -1.0467423 0.6993449 -0.90947264 -1.9123776 1.8207498 -0.8633556 -0.4929779 -1.3550655 1.1836196 -1.8157336 -0.053300418 -0.8137098 -2.0327656 -0.7060748 1.325495 2.024179 -0.59699327 -1.2181959 0.2970646 -0.9834827 -1.2881598 0.17464946 1.768279 0.13134216 0.34195653 -1.464829 0.4692665 0.69132614 -1.6012025 -0.23039104 -1.1013942 -1.4215354 -1.8966045 0.61455584 -1.5878774 2.3666642 1.5395768 -0.48346987 0.5993554 1.3893852 1.7780732 -2.5130315 -0.6368666 -1.046902 -0.48924658 -0.061597977 0.10730331 -1.2030089 -0.51022404 0.14991634 -2.221566 -0.25010204 -1.1441698 0.7344895 1.7702963 -0.8465879 1.7618443 0.69047785 -2.58662 2.355413 -2.0799031 -0.23558097 0.8555122 -3.0282729
27 -2.9682581 -0.28551617 -2.3525574 -2.0013032 0.96555996 2.1294358 -0.8319402 1.2193841 -1.180718 -0.111815795 0.61593187 -0.08801809 -1.4764671 1.4585092 -1.0195245 -0.28453764 -1.7779806 0.4822897 0.2294713 -0.45781603 -0.18357363 1.1733456 -0.2387721 0.4887936 -0.53174055 -0.22615919 1.7344058 1.4648471 -1.0051761 -0.31509304 0.50552773 -1.6221619 0.50703305 0.7848012 0.37493044 0.3135983 -2.68052 1.5844483 0.49746922 0.8717474 -0.14607033 -0.48446867 2.313571 0.487312 -0.17469257 1.4092414 -0.47060502 -1.2621592 -0.6849846 -1.5597336 0.23227432 -0.11367535 0.45923376 -0.73537886 0.20782043 -0.60717285 1.5772213 0.17363764 -0.39314356 1.9009802 -1.0176048 -0.77016187 0.10738083 -0.3657135
28 -1.5787535 -0.4605617 -1.1354251 -1.0438279 2.308997 -0.44535166 1.2114954 -0.7049657 -0.27894428 0.28724867 1.6943039 1.3371389 -2.001773 0.1990971 -0.9381577 0.27452582 -1.4242687 1.0013086 -1.0503831 -1.6554828 1.384965 1.570669 0.35380173 -0.37260428 0.98662084 -1.2726592 0.16799764 1.4844373 -1.3043656 -1.9018642 1.4160466 -2.244377 -0.46425328 0.52726233 0.006418561 1.2901179 -1.8293171 1.4673744 1.2390993 1.5179839 1.6336591 -1.346958 -0.07877177 0.08791311 1.6021751 1.4475899 -0.24018413 -0.19013478 1.355965 0.47360095 0.9344539 0.9032579 -1.222784 2.1056128 -0.6976913 -1.4922779 2.1206498 0.6795096 0.2903064 0.9879642 -2.3288994 0.492254 -2.4854522 -1.616245
29 -2.140437 0.6058743 -1.5284063 -2.9271612 2.7737021 -0.6150131 1.6003679 -1.3475045 0.8655372 0.35514787 -0.67427665 1.2029612 -1.8888099 1.561978 -0.08222003 -0.3095713 -1.1125911 0.96430236 -1.8862851 -0.53716224 0.98849607 1.5396681 0.53510875 -0.94764817 2.3737814 -2.885032 -0.841913 0.08997418 -1.1564417 -1.1244398 1.1297196 -1.327702 -1.3752257 0.1226697 -1.0776426 3.564452 -0.8216029 0.6409605 1.7402307 1.8897626 1.5435 -0.648385 -0.6296796 -0.060408767 -1.3380206 2.881883 0.30140603 -0.594223 1.5350223 0.52108943 0.68904126 1.7962289 -2.970707 2.5204177 -2.3121238 0.4025346 0.79377955 1.0509957 0.49092543 -0.06807643 -2.314683 1.3570132 -1.0673226 -2.7562177
30 -2.1782253 0.8530252 -1.2870902 -2.7420382 2.1997387 -0.69513124 1.7873018 -1.4287704 1.0000931 -0.06594845 -0.6994057 0.5787738 -1.811152 1.9260768 -0.19469623 0.109429814 -0.75858283 0.7350644 -1.2927132 0.3456217 1.0575407 1.426137 0.26923597 -0.99839956 2.0189342 -2.6234884 -0.80052793 -0.048897654 -0.966 -0.85259694 0.35042474 -1.3321794 -1.6484497 0.03357381 -1.230967 3.0465276 -0.38223588 0.040012754 1.4561046 1.8088037 1.5254662 -0.7517048 -0.9129136 0.13526064 -1.5251987 2.8805895 0.58922887 -0.9769016 1.3369684 0.48985812 -0.2056518 1.7767634 -3.3149433 1.9845872 -1.9580326 0.28276744 0.33362725 1.076118 -0.06555119 0.18883249 -2.1429913 1.434981 -0.7542743 -2.047323
31 -0.19026718 -1.5768142 -2.9765873 -2.6126683 0.6621918 1.7776227 0.7350842 -2.9185202 0.65105295 -0.10131523 -0.25822797 0.021905325 -2.0448947 1.1456733 0.7304996 0.6237079 1.489464 0.7277226 -0.9458858 0.41952145 1.4364316 1.7926465 -1.4848655 -0.90157557 3.062999 -1.8046354 0.7427249 -0.80577123 -0.59203464 0.37202385 -1.1977686 -1.355409 -1.1919051 0.37926355 -1.168059 0.80933326 -0.5413907 0.5675488 2.786546 3.2693462 -0.227875 -0.034232475 -1.350002 0.032528106 -3.449269 0.5060968 -1.3552742 -2.7179687 -0.45325226 -1.5753785 0.7836191 0.7683326 -4.7969537 -0.4274413 -1.7264211 -1.333317 0.6618291 1.5257007 -1.5194305 1.4531773 -2.4554965 0.07618824 -0.2504211 -3.5549912
32 -0.44928697 -2.41221 -3.2118738 -2.6418548 1.075728 2.488394 0.632859 -2.1009297 0.5177831 -0.37448788 -0.40339124 0.57764435 -1.3567243 1.3242688 0.17599335 0.047351394 1.3486747 1.0671434 -1.3250724 -0.18501736 1.8655342 2.1028948 -1.0469376 -0.5483602 2.9370189 -2.0495975 0.81023353 -0.15815984 -0.45129907 0.5502232 -0.9385798 -1.1731501 -0.90300506 -0.20376307 -1.1073803 0.46549094 -0.8835964 0.589809 2.6653805 2.689735 -0.1524453 0.6505737 -1.4162619 -0.22458215 -2.8042862 0.73945 -1.720738 -2.2883046 -0.15572302 -1.3177027 0.8851731 1.0562965 -3.3729439 0.10517737 -2.6484928 -1.1235963 1.196874 1.1146464 -1.2308288 0.56544906 -1.9298822 -0.20152675 -0.84773564 -3.388697
33 -1.8200927 0.7021647 -0.25090158 -1.2391777 1.3271614 -1.1078821 0.18431425 -1.8433343 0.69534975 -0.61055857 -0.31246394 -0.72832376 -1.3824201 1.2525889 -0.103675984 1.9197353 -0.13354233 0.4138255 -0.30942374 0.68143106 0.48775637 0.46247804 0.649273 0.13331844 1.1479324 -0.10955978 -0.7654957 -0.6917784 -0.7052759 -0.8296225 -0.8993175 -1.7341542 -1.1836803 0.27132317 -0.56427157 0.83239335 1.1374131 -0.62864155 0.8931221 1.2127624 1.0144532 -1.7813876 -0.9266031 0.18129767 -0.56831515 0.920429 0.95823675 -0.77257454 -0.16542722 -0.14073367 -1.2481682 0.19072115 -3.1525154 0.08842804 0.1761254 -0.7931994 0.31015766 0.46204123 -1.0514864 0.8686672 -2.2795858 0.08524934 -0.29821607 -1.495768
34 -0.043633528 -0.8164373 -2.090414 -1.9452037 0.2586801 1.0953267 0.53089017 -2.980183 0.28073713 0.04382904 -0.11355842 -0.26293874 -2.062128 0.7348873 0.7888564 0.8903617 1.3165437 0.32031268 -0.54954505 0.6490922 1.1289155 1.2720032 -1.3713956 -0.6693122 2.560752 -0.76689565 0.49555272 -1.0447854 -0.36562285 -0.081431784 -1.0899298 -1.3438637 -0.7370114 0.5666527 -0.85732484 0.63938934 -0.36376327 0.42626035 2.257886 2.9596667 -0.4182012 -0.5716809 -1.1085037 0.18255411 -2.6966214 0.1472127 -0.79490757 -2.4092221 -0.572551 -1.3374158 0.5872349 0.45355594 -4.46089 -0.7994084 -0.55890983 -1.4716742 0.3208413 1.2095416 -1.5425206 1.5542454 -2.3883824 0.20932719 -0.022653526 -2.7641072
35 -1.5855417 -2.9907334 -2.903288 -2.2446773 1.2744992 2.4253037 -0.19698255 -0.70030403 -0.02276326 0.15418196 -0.048598487 0.58322597 -1.2044679 0.8830213 -0.34632555 -0.47497916 -0.57034796 1.5430034 -1.6667305 -1.4648334 1.970312 2.1695476 -1.0465696 -0.27480754 2.3345134 -1.3275467 1.2459267 0.7136749 -0.8655586 -0.118427515 -0.28234804 -1.8319029 0.80241466 0.3098484 -0.43366662 -0.040044006 -1.9425987 0.8010157 2.050748 1.9359099 0.06543734 0.6720606 -0.6128652 -0.42137337 -1.5300784 0.92363834 -1.5268233 -2.1568234 -0.15075333 -1.5282625 0.9707897 0.6017649 -1.7837495 -0.072244115 -2.6100218 -1.0572442 1.319074 0.6199678 -0.9006231 -0.13335511 -1.8924856 -0.70288956 -1.0798701 -3.0023758
36 -1.4420388 -0.13349019 -1.2475482 -1.6325489 2.1794953 -0.48425773 1.062763 -0.2868063 0.32170603 0.4129916 0.118507214 1.2230577 -1.430247 0.48660988 -0.35352364 -0.60008013 -1.3937442 0.9455921 -1.2456242 -1.1546545 0.68514884 1.2019787 0.6576615 -0.3545606 1.4562749 -1.6732185 -0.49063134 0.5152541 -0.9381238 -1.2061001 1.2916481 -0.9764498 -0.5525423 0.25705746 -0.66239786 2.3005466 -1.2980181 0.6810086 1.0078652 0.9886443 1.1911246 -0.4748726 -0.096480206 -0.25212637 0.38098952 2.0245316 0.050856203 -0.31340525 1.1191461 0.06274249 0.85547584 1.0373333 -1.3820813 2.1203241 -1.3641611 -0.103785165 1.1386633 0.9511847 0.45443612 0.101366796 -1.8494748 0.58234614 -1.2183897 -1.9310894
37 -0.58271587 0.23373297 -1.4365618 -2.087602 -0.5151189 0.2892013 0.56687534 -4.9707546 0.015054604 0.4005549 -0.4803619 -0.85597944 -4.275048 -0.2138596 1.0998219 1.6359622 1.0788792 -0.42908338 0.089397915 1.8878342 1.1403065 1.5454733 -2.6216102 -0.46383816 3.8083777 0.27764365 -0.26234543 -2.1604774 0.12186774 -1.7841434 -2.4806013 -2.4625158 -1.0096864 1.3127571 -0.6027117 1.2329514 0.66881347 1.3417362 2.3450232 4.612391 -0.16675425 -2.1835148 -1.5410966 0.22428954 -2.5390544 -0.8748605 0.22042076 -3.2550304 -0.86690575 -1.8992913 0.8319968 -0.07163027 -6.727086 -1.1520511 0.67463094 -2.075131 1.1651026 1.2805529 -2.4992826 3.0832705 -4.3491406 0.03763422 1.0525856 -2.3290248
38 -2.1545074 0.26627252 -1.439058 -1.5270553 0.6620452 1.6006448 -0.22003117 0.7432591 -0.62968355 -0.08014819 0.7753593 0.0077432743 -1.144606 1.6461208 -0.52837926 0.15250467 -1.2365383 0.405477 0.45557246 -0.31545076 -0.6798223 1.2539145 0.014252705 0.32804605 -0.31667235 -0.52070993 0.89648396 1.0270953 -1.035833 0.12099047 0.3021199 -1.1452787 -0.18074968 0.3454165 0.39787436 0.516453 -1.723199 1.2800263 0.51526165 0.6849331 -0.3531418 -0.57020915 1.7678405 0.12586185 -0.721795 1.1427263 -0.3684307 -0.97651595 -0.8056165 -1.1543396 -0.07596092 -0.0283659 0.39876795 -0.3039244 -0.008052633 -1.0906656 0.99916965 0.37493554 -0.056404386 1.3452235 -0.94647545 -0.39549592 -0.12745729 -0.3732623
39 -0.46668717 -0.083276555 -1.6541971 -2.1321301 -0.33084473 0.36841866 0.8455433 -4.70268 0.1243626 0.30082783 -0.28167492 -0.8126258 -4.0054207 0.1335778 0.9813126 1.7342767 1.1810691 -0.3202762 0.10695581 1.7677294 0.8924351 1.6540072 -2.3560877 -0.7622704 3.6560795 0.071180254 -0.15140358 -1.886433 0.026101688 -1.2821852 -2.1133525 -2.2249262 -1.1069266 1.20611 -0.8420452 1.1455925 0.34964463 1.0032668 2.3431966 4.5210533 -0.2306125 -2.0180962 -1.6360554 0.23403655 -2.8899198 -0.6615048 0.05948594 -3.1926174 -0.85494393 -1.7129254 0.549054 0.2635178 -6.6495867 -1.0466892 0.52126294 -2.1317308 0.9555783 1.3656421 -2.4495842 2.902147 -4.1432395 0.36195037 0.5906374 -2.3549404
40 -2.354272 0.32735014 -0.9755299 -1.0050423 1.2481167 -0.119045325 0.46537945 -0.6612313 -1.1523153 -0.077668265 0.41828457 0.6299826 -1.1281011 1.719278 -1.2003424 0.39353248 -1.4009292 0.022229945 -0.71578616 -0.6676356 0.053087898 1.2025592 -0.5155755 -0.04350509 -0.26017174 0.5251857 1.2241663 1.8400261 -0.5369007 -0.48074833 1.1398507 -1.9655867 0.68647563 0.9702256 -0.38613442 -0.17077439 -2.0182629 1.7325292 0.8919249 1.4182674 0.4991006 -0.894043 0.81833273 0.6614928 0.621009 1.3300833 0.45881182 -0.35443383 0.37924263 -0.5347964 -0.64235556 0.81180406 -1.0342039 -0.0703221 0.7980945 -0.8391096 1.5675118 0.70258343 -1.0988994 2.6954243 -1.6485225 0.7532737 -0.063062824 0.0031169653
41 -0.53263295 1.36964 -0.55579966 -2.006563 0.45759946 -0.07061603 0.7936605 -2.0925517 0.65791583 0.029163148 -0.57442075 0.2959165 -2.1253319 -0.7047006 0.45540732 1.4712274 -0.47441345 -0.5515975 -0.34060183 1.8304238 -0.023592228 1.3416438 -0.6267043 0.31059608 1.6854068 -0.8498984 0.12994978 -0.68921953 -0.40892366 -1.1973653 -1.3845162 -1.0824172 -2.0410025 0.7568295 -0.60905015 2.0837464 1.2019578 1.6720244 1.2909638 2.099808 0.07097341 -1.2648786 -0.9348644 0.33360854 -0.8742388 -0.07649819 0.5684182 -1.8836226 0.20626752 -0.40716726 -0.1661162 0.6117745 -3.574631 0.26980942 0.037651513 -1.2530606 1.3572654 0.45878932 -1.4866203 1.8854207 -2.9317873 0.09181959 1.1806451 -1.6253353
42 0.47607973 0.5192899 0.29329988 0.5974217 1.5861547 0.39231858 0.84949756 0.34792545 0.027914472 -0.2799346 0.73075104 -1.1120383 -1.0867609 0.95295566 -1.1456681 -0.14252327 -0.30801684 -0.92676765 0.496449 -1.1832951 -2.0368 -0.0037714515 0.22731768 -0.4577417 -0.45561668 -2.70754 0.9642071 2.142384 -1.2186196 0.8444404 0.32145035 -0.09168649 -0.6869804 -0.3548526 0.37396705 1.6530979 -1.055731 -0.26310548 2.3712041 -0.2113565 0.7512287 -0.15929708 1.3002901 -1.9166287 -1.5144267 0.96749 -1.2874299 -2.0671232 -0.35584924 -0.11652562 -1.1276485 -1.083878 0.38413382 0.21094935 1.5786035 -1.0529169 -0.017733825 0.98171735 -1.1634597 3.0510504 -0.3574919 -0.9269383 1.4465815 -1.6008966
43 -3.41113 -0.13464756 -2.5485735 -2.298695 1.0692271 2.4032218 -0.78616786 1.4384806 -1.1170211 -0.19978532 0.78372 0.040178068 -1.6000468 1.978866 -1.0395199 -0.14401734 -1.9489373 0.516656 0.3289687 -0.33812413 -0.6772654 1.4259443 -0.20918685 0.52857554 -0.6245077 -0.45617023 1.6997347 1.7136049 -1.1502515 -0.11559045 0.55651003 -1.7056292 0.18241782 0.85204816 0.3770634 0.5112343 -2.8239503 1.842515 0.58238614 1.022064 -0.29314798 -0.5132059 2.6018438 0.60740805 -0.45950904 1.7302773 -0.49116558 -1.3504584 -0.8553998 -1.5454928 0.14098346 -0.0031120342 0.5578755 -0.7208969 0.117016934 -0.8050695 1.715395 0.304843 -0.26744008 2.2316806 -1.1367389 -0.736243 0.08600219 -0.3509952
44 -2.756994 -0.9895739 -2.273573 -1.8237755 0.87964773 2.0386126 -0.99577737 1.181365 -1.3326931 0.04411266 0.6027339 -0.30781356 -1.5173099 0.9593451 -1.3557012 -0.7118433 -1.9257913 0.60679454 -0.24448739 -0.8015326 0.62399054 1.085233 -0.5019476 0.40396565 -0.20617644 -0.056852896 1.9272368 1.528122 -0.92358166 -0.81625146 0.6119852 -1.8170633 1.3435739 0.93289936 0.383378 0.12060085 -3.0568764 1.225225 0.5824382 0.8644956 -0.0314619 -0.4344186 1.8466773 0.35394952 0.1564969 1.3505843 -0.60104954 -1.7610345 -0.4776736 -1.6790562 0.35961094 -0.39953843 0.19408478 -0.6150609 0.18387432 -0.6026719 1.6020081 0.15467696 -0.8299625 1.3222456 -1.4408962 -0.8441774 -0.05548859 -0.80267733
45 -2.0281663 -0.0108186295 -0.6113816 -0.73173946 1.2084829 -0.41441026 0.5922408 -1.0671393 -1.1984937 0.021352397 1.1641846 0.7381769 -1.4079039 1.169153 -1.1665078 0.35219547 -1.2642723 -0.108227246 -0.9404719 -1.0390422 0.895507 1.2142148 -0.7808172 -0.09609757 0.084604904 0.11893467 1.2756838 2.0174868 -1.1794022 -1.1770201 1.1473114 -2.3263159 0.51272905 1.2536014 -0.18357661 -0.1665566 -2.0624404 1.7737166 0.9753199 1.4992689 1.2379668 -1.1705014 0.62673163 0.74270403 1.3025489 1.2453815 0.23672986 -0.112522006 1.0118818 -0.33089852 -0.33973682 0.58713347 -1.0605158 0.51087743 0.83019274 -1.1820487 1.6622097 0.6477531 -0.9837132 2.6847312 -1.6909057 0.7115339 -0.71053445 -0.2648943
46 -0.64106476 -2.6852846 -3.2430997 -2.8404915 1.2474322 2.5837991 0.5865431 -1.9464872 0.39009726 -0.33984146 -0.3200571 0.6365487 -1.4136077 1.3258344 -0.0015804855 -0.07416334 1.0791025 1.1692411 -1.5892988 -0.5482166 1.9247591 2.2512014 -1.1477953 -0.46174893 2.9929771 -2.1683676 0.8507322 0.03706396 -0.56801236 0.5004195 -0.83712614 -1.3284366 -0.8044987 -0.09803631 -0.9706277 0.49649212 -1.1362838 0.70839125 2.7578495 2.5787253 -0.064123705 0.7186395 -1.3936291 -0.31654117 -2.8327906 0.9318278 -1.8775288 -2.306301 -0.092517294 -1.4511551 0.8968701 0.9778027 -3.1520338 0.076979116 -2.944481 -1.1938198 1.2704264 1.1123189 -1.1465807 0.2876871 -2.0071657 -0.41090167 -0.9749093 -3.5669427
47 -1.7385976 1.0852011 -0.32464302 -1.5661649 1.2894552 -1.4452598 -0.6905048 -2.7685957 0.33045435 -1.2814585 -0.5131391 -1.0380304 -2.282607 0.10330009 0.771327 2.7785707 -0.042444043 -0.31347322 0.06699527 0.074235894 -0.07554248 0.15964971 1.0000516 0.8520015 1.5843561 -0.02060159 -0.62711406 -0.77343917 -1.1836904 -1.5478581 -1.3510115 -2.715678 -1.3306173 0.3991956 -0.7318861 1.5470562 2.3782456 -0.11595491 1.5162144 1.651353 1.415278 -3.440172 -1.1402276 -0.06547688 0.069232315 -0.09743925 0.62814295 -1.0299205 -0.9424074 -0.16057955 -1.659779 -0.77414507 -3.0485616 -0.16476783 1.5728208 -1.2015246 1.1001188 0.3078827 -2.4323997 1.9013147 -3.368756 -0.52289236 -0.037606925 -2.9286103
48 -1.5665382 1.1128063 -0.31121904 -1.5612769 1.1605159 -1.4629943 -0.708317 -2.7080243 0.31002504 -1.2998651 -0.42939252 -0.918779 -2.4799073 -0.19525947 0.94046 2.5935023 -0.11759226 -0.51911783 0.2612918 -0.19187596 -0.2722193 0.11688385 0.9075464 0.75918096 1.5075568 -0.19510557 -0.5260319 -0.6809667 -1.2406391 -1.4389287 -1.4930638 -2.6427975 -1.3472205 0.46917778 -0.77130634 1.7520591 2.2867362 0.12551692 1.46091 1.7640462 1.4477398 -3.3799207 -1.0607798 -0.1888851 0.008000091 -0.28103757 0.46360844 -1.1295755 -0.97697073 -0.26245567 -1.5394799 -0.78884834 -2.7868674 -0.07697036 1.6796736 -1.0702827 1.2785283 0.34804457 -2.5162084 2.0994475 -3.227276 -0.62793463 0.19602561 -2.9760675
49 -0.04095858 2.5744956 -0.22347358 -1.2238739 2.3421936 -0.74246794 -0.45243025 0.794942 1.2448223 -0.80051005 1.9015814 -0.083428204 -1.0871068 1.0258621 -0.71512413 -0.641978 -1.7626683 -0.102263644 0.4856107 -0.14538026 -1.5457505 0.9831868 2.4944284 -1.0100139 -1.8691632 -1.5076407 0.8199608 2.151955 -0.90903544 0.11731244 0.64783925 0.68701684 -0.75232184 -0.6628656 -0.5292863 3.1361063 -0.7425566 0.19147961 1.0180885 -0.4600435 1.8230398 -0.20312573 1.2694204 -0.67762804 0.45548326 1.6162583 -0.43803054 -0.7596528 1.083588 0.46440125 -1.7494103 -0.84284765 -0.17849761 1.9423982 0.5456006 -1.6011578 1.9262213 0.5749311 -1.5289613 1.3417404 -1.8393503 0.7298988 1.6327074 -1.6076087
50 -2.8735292 -4.50788 -3.8923616 -2.6371129 2.3495495 2.8439002 -0.843505 0.01566774 -0.6618828 0.5236134 0.055762388 0.70291877 -1.922915 0.8824392 -1.4682719 -1.0327628 -2.4224389 2.1508756 -2.261453 -2.8034475 2.7792943 2.6282392 -0.854948 -0.15288882 2.4591842 -0.5527323 2.342717 1.8895696 -1.093284 -0.8712283 1.0323486 -2.9559338 2.6546905 0.9917006 -0.5960715 -0.40052617 -4.111084 1.3206339 2.439403 1.9648056 -0.13370529 0.48194122 -0.27998316 -0.3693754 -0.32485592 1.5961912 -1.6660237 -2.4956083 0.0018011633 -2.1670418 1.425282 0.5708833 -1.150535 -0.16093993 -3.0040598 -1.6498024 2.2639363 0.50532943 -1.2606544 -0.35853064 -2.821523 -0.76304424 -1.924751 -3.2316604
51 -0.09359856 0.30074847 -1.8464756 -1.2106346 0.6056145 -2.3710897 0.9658078 -0.28065148 2.0063438 0.8741071 1.1125962 -0.612461 -0.836537 0.8725445 -1.1673021 0.09073038 -0.50838745 1.773653 0.31019795 1.7251792 0.35425037 1.8899486 -0.50253636 -0.74965286 0.9763549 -0.44432592 1.1048234 1.5186894 0.058108184 -1.7229759 -0.9713671 -0.9340753 1.8830695 -0.06601545 -0.4993649 1.087694 -1.8031187 -1.8513151 1.4405271 1.1657544 -0.3410149 -1.3210243 -2.2412004 -0.1462287 0.2782992 0.7101935 0.31538075 -2.307978 -1.9222099 2.343783 -2.0212657 0.32025242 -0.67611307 3.9519253 -1.2316831 -0.24793956 1.1033529 0.51415986 -2.6710317 0.73345375 -3.5593514 0.96657985 0.28901973 -0.8711754
52 -0.9502393 0.34775406 -1.8625175 -0.46523854 1.5327463 -3.0927095 0.45093432 -0.77628887 1.9476768 0.36876735 0.5254131 -1.4167684 -0.5947095 0.50402683 -1.6639634 0.16507283 -1.3370925 1.9698808 0.4658183 0.9842387 -0.04186786 1.4804598 0.42929855 -2.2974603 0.14383897 0.07703138 2.0897133 1.6575989 0.16887417 -1.1805243 -2.33001 -1.0372398 2.2355783 -0.80178 0.08855666 1.1145228 -1.5439916 -2.2073436 2.1445265 1.525166 -0.121854104 -2.3148394 -1.8036468 -0.34849456 -0.81076074 1.5863417 0.32720724 -2.3371277 -1.9139674 0.8323101 -1.617428 0.7709933 -1.7622125 3.3185987 -1.6552418 0.15697908 1.3981954 2.1862972 -1.8693808 0.69261754 -3.4834328 0.9418399 0.5724212 -1.1058991
53 0.8205135 0.04679275 -2.528226 -1.3145357 0.06625766 -2.055696 1.4516022 -1.0177059 1.0457973 1.2116358 0.1996568 -0.4293921 -2.1834161 1.7505751 -1.7702816 -0.6998794 0.5435387 -0.022743678 -0.3108294 1.0378119 -0.15951067 1.5262794 -1.0641228 -0.02479837 1.3086882 -0.7207896 -0.09439619 0.8266674 0.029039798 -1.1260014 0.29081348 -0.2636519 1.0989712 0.9147918 -0.97521716 0.95992815 -1.4896592 -0.9722455 0.7877506 0.8244985 0.16075894 -0.3791567 -2.911985 -0.29877207 -0.014248561 0.5467755 -0.6138153 -1.8005612 -0.5231689 1.162531 -2.6468878 -0.6245414 -0.49241892 2.4735355 -0.19832626 -0.7331376 0.39605677 -0.72128165 -1.8481774 0.9507902 -2.7045028 0.8052271 1.2221671 -0.6285642
54 -1.7253486 4.2525864 1.7720747 -0.75202405 -2.0565515 -1.978724 -0.10173422 -2.3688293 -1.246984 -0.31724957 1.4571203 -1.1614852 -5.189239 -1.7085928 -1.1328503 -0.14259765 -1.1943858 -0.24185778 1.3330755 2.5422769 0.16984032 0.21931674 -1.2178628 0.39117694 1.1006582 -1.088291 -2.6675546 -2.6217895 1.0470036 -3.3256073 -2.3739169 -2.815558 -2.5598547 1.4643478 3.0290976 2.1465936 0.46322715 2.9480083 1.2594194 1.7354916 3.3513145 -2.470912 1.9886287 -2.1832576 0.26656646 0.7081452 -0.20911266 -3.0500498 -1.1792092 -1.3856093 1.4140795 0.582406 -0.95764583 0.4179995 2.5031283 -1.3385834 1.8642944 1.004008 -0.09682739 2.9238932 -4.395383 -1.601842 1.5544496 -1.1319039
55 1.4371895 -0.27357897 -3.5051835 -0.5755152 0.21277012 -2.7115502 1.3149606 -2.8051202 0.5650729 1.8803319 -0.20473991 -1.194959 -2.8604493 2.6657817 -3.1051602 -0.49026114 0.95515907 -0.332702 -0.6851551 0.41444445 -0.6415753 0.79869086 -1.4717565 -0.89802027 0.97877145 -0.25507212 -0.8121686 0.70206743 0.07395971 0.028472213 1.7769548 0.16291712 1.9492033 1.5176269 -0.9323028 0.6971786 -1.8100356 -1.8483919 0.4343756 1.1026053 0.36343002 0.31162044 -4.0955954 -1.2716564 -0.30254063 0.8534957 -1.0252393 -1.0535418 0.38597605 0.08346365 -3.6601045 -1.1902016 -1.1414452 1.2314212 0.69294894 -1.6303046 0.53523666 -0.86569834 -0.968069 0.93658584 -2.396059 0.99753284 2.309122 -1.4702325
56 0.6938101 0.6640492 -2.6557746 -1.7817097 0.2816427 -3.2358563 2.3626707 -1.0676222 1.9388107 1.4528766 0.91770333 -0.25869238 -2.4659178 1.7861716 -1.9453884 -0.40604067 0.11954242 0.88769513 0.01478912 1.991255 0.22391172 2.3998802 -1.0424242 -0.43117166 1.3857548 -1.0560057 0.026318297 1.1272435 0.37834355 -2.0361962 0.014797963 -0.39726454 1.6962816 0.482539 -1.1116364 1.983843 -2.0645783 -1.2995816 1.2958013 1.4434303 -0.02920206 -1.294951 -3.4686115 -0.07461236 0.43397558 0.91741204 -0.043943834 -2.6701722 -1.3033367 2.5519266 -2.8901844 -0.31694096 -0.62139434 4.596483 -0.43249947 -0.59579575 1.1297694 -0.41600806 -2.6428268 1.3142345 -4.470757 1.1688154 0.95336086 -0.57105404
57 -0.9122827 1.852072 0.91227955 0.053175822 -0.19943783 -1.6685212 -0.5130851 -0.36150935 -0.73359317 -0.5297666 0.93486553 -1.0662693 -1.9480929 -0.7060831 -0.9655524 -0.5981219 -0.8763678 0.13561204 0.96222216 1.2081913 0.13451418 -0.278901 0.025130194 -0.12146815 -0.36339733 -0.46925497 -0.86210805 -0.8993519 0.8652695 -1.2829483 -1.2475624 -1.2252817 -0.6209402 0.38057488 1.5329926 0.8925653 -0.3985981 0.7211893 0.4105683 1.0480483 1.7024779 -1.5653348 0.99832606 -1.1479157 0.25704786 1.0067106 -0.037764862 -1.8279585 -0.8119518 -0.12816662 0.21650182 0.60388625 -0.035064112 1.2272137 0.97180974 -0.23536892 1.0869561 0.92340374 0.02844869 1.0330788 -2.0779374 -0.3234046 0.48413143 -0.47805816
58 -1.0474997 2.5040615 1.1398095 0.5189895 0.7360035 -2.6235216 -0.5365346 -0.65760165 -0.948999 -0.98642105 1.1469047 -2.0379398 -1.869173 -1.5666845 -1.1865447 -1.388057 -1.5487026 0.052827444 1.1166811 0.30738765 -0.010960973 -0.20087095 0.3827624 -1.3893524 -0.6809957 -0.39550108 -0.44029674 -1.1058635 0.89038897 -1.9316188 -2.5014768 -0.7676413 -0.69427633 0.24739626 2.0635831 1.7917985 -1.1386818 0.78047335 1.0809971 2.0628211 1.8347971 -2.8012125 1.1040477 -0.75862336 -0.7319684 2.0089893 0.35258004 -3.432951 -1.2827387 -0.5339173 -0.34784034 0.78828585 -1.0835176 2.5682752 1.3221959 -0.2081467 1.7512598 2.9924424 -0.21402705 1.3882167 -3.0057783 -0.671183 0.28189424 -0.52277625
59 -0.7016887 0.3403973 -1.9145951 -0.57109433 1.4699129 -3.139089 0.65139365 -0.80840284 2.193779 0.4862492 0.5751974 -1.2700241 -0.5624598 0.5744961 -1.6848505 0.19606285 -1.1517107 2.0333986 0.44115075 1.1665808 -0.077323034 1.6078966 0.23712963 -2.1176484 0.31300557 -0.021267148 1.9308829 1.7321501 0.21382605 -1.3040217 -2.139896 -1.0685475 2.3129725 -0.7070618 -0.024001822 1.0231861 -1.5740408 -2.234021 2.1044655 1.4143466 -0.27310467 -2.1154082 -2.1466575 -0.31600493 -0.63896495 1.4184446 0.42592278 -2.3773334 -1.9637473 1.1463461 -1.6930895 0.8822807 -1.6631206 3.4401708 -1.7143589 0.08730735 1.3072069 1.9951428 -2.0071328 0.69423735 -3.5205104 0.9401029 0.49720207 -1.0988668
60 -1.0066781 0.45544145 -1.7098145 -0.2800576 1.5789876 -2.9460056 0.33513668 -0.89360595 1.707937 0.13840479 0.4453119 -1.4944406 -0.67824686 0.47109804 -1.6398802 0.057876702 -1.5143034 1.8146185 0.34275496 0.700769 -0.18198912 1.2858697 0.5364618 -2.539188 0.097860925 0.16440539 2.028213 1.5495527 0.17592537 -1.0438205 -2.4079978 -1.0869175 2.029876 -0.8153336 0.22001952 1.1427172 -1.412605 -1.9038686 2.207949 1.5514641 0.00277783 -2.4116452 -1.5545287 -0.40876213 -1.0290067 1.707217 0.26187137 -2.2882974 -1.7616845 0.46292418 -1.4684741 0.74304163 -1.8827099 2.961331 -1.4923354 0.10154405 1.3853557 2.3832786 -1.5332329 0.74250066 -3.335947 0.7698858 0.6045975 -1.1018661
61 -1.1249789 1.2059629 -0.92219377 0.9237553 2.470629 -3.7125869 -0.56478804 -1.478884 0.46624267 -0.39786938 0.29928967 -2.7783186 -1.4440145 -0.47612792 -2.1329863 -1.0427642 -2.2742648 1.5639971 0.5927269 -0.37864548 -0.051163428 0.7188197 1.0648308 -3.8212736 -0.8221069 0.84615684 2.351821 0.6583037 0.39214274 -1.394099 -3.6844318 -1.2489672 1.8062772 -0.7770516 0.9000899 1.7261035 -2.0068974 -1.4039333 2.6565948 2.5213923 0.54249483 -3.7874267 -0.16309023 -0.12349351 -1.4926976 2.9152834 0.42741707 -2.258457 -1.324947 -0.68389994 -1.5765334 0.30064183 -2.4891384 3.3583379 -0.7250387 0.6652926 1.8707565 4.11204 -0.7156993 1.0304105 -4.1549335 0.22785053 0.6142851 -1.1380321
62 1.4588127 1.1319808 -1.1896881 -0.16428779 -0.52690965 -1.7359457 2.3137636 -3.6168413 0.25962237 3.8939383 3.4777384 -2.470962 -2.1099856 1.4112189 -2.1785488 0.77076775 0.65854764 1.0782348 -1.0906612 -0.97454756 1.2312924 2.3068693 -2.8880332 -2.3030865 1.187688 0.9441078 -1.7733299 1.0848538 -0.84371066 -0.83015543 0.23420496 -2.0224528 2.9904404 0.8871199 1.4549688 1.3633841 0.23832299 -1.9346879 3.0746036 0.85937726 -1.3398744 1.4549434 -2.0711758 -1.4962988 -1.878966 -0.7231489 0.15287222 -1.7333827 0.23082596 1.1886008 -1.33754 0.7377586 -2.2864711 1.4052724 -0.51071703 -2.4755654 -0.44266072 0.24969162 1.3247948 3.0664961 -3.924062 -0.57401985 -0.009620528 -1.6067694
63 -0.9984659 -0.03301275 -0.8952807 -1.0327963 -1.2081791 0.76437 -0.043953873 -2.0115354 0.27965242 -0.21066304 -0.82952887 -1.6973244 -1.5919455 -0.39664015 -0.538857 0.48752856 -0.52111423 0.56161743 0.05593959 0.5270203 0.9885644 0.8176215 -1.4132109 0.3538531 2.3776271 0.37382153 -1.4473629 -0.91243744 1.1337056 -2.5135596 -2.0169265 -1.4523684 -0.962816 1.2154092 1.1477791 0.6595865 1.7840899 0.5669154 1.5562834 1.2239887 0.64669126 -1.9933025 -0.7063762 -0.8091656 -0.2733231 -0.8976813 0.05978516 -1.168552 -0.81988734 -0.6014 0.23722577 -1.5967536 -2.280267 0.17428423 -0.15370165 -0.9448885 1.2172331 0.5294203 -1.100459 1.1219217 -2.896381 -0.7202347 1.1671605 -0.65893215
64 -1.3184861 0.7219518 -1.6797558 0.024072781 2.350976 -3.225806 0.059961688 -1.1293534 1.2104268 -0.1859028 0.43207702 -1.9992645 -1.0536871 0.3290818 -1.9983107 -0.21885365 -1.9864229 1.793932 0.34591174 0.2842762 -0.37704596 1.0636667 1.1394346 -3.2118542 -0.06718062 0.48638296 2.2311516 1.3397256 0.041856185 -1.0480363 -2.9347513 -1.2314876 1.4706087 -0.94370544 0.3378677 1.3766764 -1.7298084 -1.746162 2.5614972 1.8100439 0.50907385 -3.236078 -0.78450686 -0.43853363 -1.4202684 2.4501843 0.2799378 -2.1739182 -1.6229075 -0.12721832 -1.77433 0.74457616 -2.3984334 2.8760402 -1.1205387 0.18254727 1.8468533 3.3362784 -1.362034 0.9741072 -3.7812374 0.6324964 0.49266666 -1.2217623
65 -0.48705915 1.8661281 -0.3913945 -1.1864244 -1.2472094 -1.1573492 1.4143115 0.61801726 0.3128972 1.5248266 3.482028 0.15015057 -3.827964 -0.9981752 -1.2278287 -2.9840672 -1.7788978 -0.36431307 -0.9654567 -1.0357046 -0.043299392 1.4785362 -1.7778867 -1.5230116 -0.9187944 -0.6311679 -1.7590299 -0.95783496 -0.02131354 -2.363451 -0.43566465 0.27444535 0.52508056 2.1369288 0.30386755 3.2237055 -1.2061013 0.94287336 0.19039723 -0.13425863 1.5088242 -0.7405195 3.478588 0.19094302 -0.41744754 1.7640435 -0.12473746 -1.7717197 0.6031747 -1.6013168 -0.28324762 -0.23574503 0.67370844 0.89441276 2.3323202 -1.020078 2.0565004 1.0345033 -0.017955987 2.3023086 -1.3109742 -1.243551 0.99737155 0.6681233
66 -0.27903083 2.0312152 -0.42084065 -1.4140041 -1.4064511 -0.97176915 2.6022298 -0.34784928 1.3131746 1.5574893 2.6430805 0.85697323 -4.627254 -0.49393332 -1.0151772 -1.9925153 -0.82487184 -1.46091 -2.1622064 -0.77834445 -0.6860008 1.3074416 -0.10086669 -1.832039 1.1758336 -0.43364158 -2.470139 -1.7520788 0.9926432 -3.6085541 -0.16769569 0.9234009 -1.5211008 1.0686862 -0.6590433 3.6347835 -0.26442364 2.4826913 0.38371047 1.5950577 2.5237398 -1.0748142 1.526209 0.22577393 -0.8551733 1.8000835 0.79152435 -2.0451186 0.88764286 -2.4805255 -0.4740152 0.61777204 -0.45768332 0.69384587 3.542779 -1.4888796 3.093646 1.2070756 -0.1691695 2.3897352 -1.3906993 -1.4482716 -0.04458655 1.7733194
67 -0.6571113 2.6734407 -0.22050136 -1.8054991 0.46136454 -1.1904961 2.594263 -1.9982786 2.7126012 0.8643289 0.19265407 0.4118731 -3.6394305 -0.12167873 -1.4364886 0.17016986 -0.9887894 -0.9857669 -2.5496805 0.56558967 -0.9356372 1.7269137 0.11149978 -1.24134 2.3620481 -0.013222164 -1.9384713 -0.2519545 0.8987139 -3.7115853 -0.9245814 -0.08160885 -2.55144 0.91135794 -0.87165076 4.1927257 2.151238 1.936634 1.5372852 1.4022908 0.9295524 -0.9033363 -1.4817839 -0.076837085 -0.38645166 1.6241667 1.9083033 -1.7935661 1.4691066 -1.3400903 -1.5287486 0.86438984 -1.781233 1.7634981 2.0555394 -2.0365489 3.2211797 1.3288996 -0.42087725 1.9750212 -3.2818842 -1.709108 0.82328314 0.49424958
68 -0.17686774 1.8286674 -0.003143943 -0.7194263 -0.5399097 -2.103612 1.0555322 0.16339907 0.12060765 1.8055875 3.556521 -0.3398294 -3.413739 -1.2707311 -1.6905955 -3.2614496 -1.8362716 0.100124486 -0.45486465 -1.3343966 0.23603828 1.8877931 -2.0404146 -1.8416963 -1.6836059 0.10410563 -1.7682781 -0.77460444 0.24765654 -2.26579 -0.6183071 0.29500496 1.5058706 2.3318744 0.14638206 3.3466156 -1.333134 -0.14315297 0.13787298 0.25966537 0.7813256 -0.58373266 3.7110078 0.4413576 0.018609237 1.7181845 0.39175168 -1.0600259 0.85590917 -0.506574 -0.06873011 -0.40033233 0.68298435 2.1845093 1.3107136 -0.40571782 2.234546 1.2276704 0.22139268 2.1593099 -1.874683 -0.8351077 0.87253237 0.23570001
69 -0.44489172 2.8633077 0.0075043375 -1.5415914 0.20776911 -1.1326263 2.539227 -1.8942245 2.664785 0.97459006 0.30203152 0.8107083 -3.772122 -0.46875086 -1.2633922 -0.3555288 -1.0135533 -1.278342 -2.5947928 0.33371273 -1.0383271 1.5136721 0.1166781 -1.2575549 2.2885878 -0.0673186 -1.9364821 -0.5002095 0.9106687 -3.901168 -0.8857862 0.1512673 -2.486425 0.78238237 -0.9055903 4.313878 2.0690036 2.3345935 1.324249 1.5113853 1.106328 -0.69421357 -1.2558641 0.12748004 -0.29489473 1.6317124 1.8596598 -1.6747292 1.2952924 -1.6140708 -1.2627497 0.84042245 -1.4554862 1.5099016 2.356303 -1.6733036 3.330372 1.2733219 -0.23709545 1.9050537 -2.6949825 -1.8377404 0.7581143 0.82776564
70 0.58153987 0.74275017 -2.354389 -1.471634 0.4499749 -3.3228228 2.049383 -0.9142168 2.115799 1.4753741 0.9335755 -0.31004837 -1.9770814 1.420188 -1.7808667 -0.44815198 -0.13298114 1.24645 0.21903808 1.853536 0.17732911 2.3196573 -0.9773167 -0.5388081 1.1522605 -0.9146449 0.32794446 1.319469 0.3398857 -2.0226288 -0.15328781 -0.4767613 1.9233137 0.29150146 -0.90476143 1.9453888 -1.962493 -1.4799582 1.3309858 1.3635601 -0.26695138 -1.2174158 -3.3243067 0.08380014 0.6933639 0.93961066 0.30383456 -2.5596023 -1.5888168 2.7536738 -2.558311 -0.11045965 -0.56727123 4.8343253 -0.72447854 -0.35657853 1.1343155 -0.22211874 -2.5822442 1.2245271 -4.203234 1.1913582 0.90139085 -0.53790474
71 1.0494052 -0.09763711 -3.0012884 -0.8951784 0.062221542 -2.2745075 1.2979418 -1.9828506 0.650335 1.5709432 0.07790088 -0.7938831 -2.5496092 2.2702603 -2.5332198 -0.5149945 0.6367842 -0.18231848 -0.6364731 0.7582528 -0.42428955 1.0714808 -1.264691 -0.6446436 1.0713298 -0.48176694 -0.44305298 0.73686194 -0.0673462 -0.48930258 1.162216 -0.05199194 1.5233942 1.248706 -0.8867748 0.80079913 -1.7545813 -1.3402344 0.6381659 1.0359445 0.34563357 -0.12505783 -3.4073112 -0.8451492 -0.21606724 0.896631 -0.8541738 -1.4151204 -0.052835457 0.5001442 -3.2353742 -0.96630055 -0.7341543 1.5853046 0.45202115 -1.2819126 0.5279919 -0.8566675 -1.2902577 0.8670209 -2.630194 0.8184007 1.7404833 -1.1541591
72 0.75825155 1.0538019 0.45300677 -0.3088372 0.48614994 -2.4907064 1.5449991 -1.8196825 0.33276913 2.0442858 3.678407 -1.4485278 -1.3996403 0.04240352 -2.57007 -0.84816086 -0.8454451 1.1845194 0.056406066 -1.2942853 0.7090541 1.9433829 -1.6910385 -2.0106611 -1.112253 0.99972534 -1.5837969 0.8730112 -0.11725833 -1.3772684 -0.14504981 -0.845346 2.0840926 0.98818755 0.3038896 2.9854422 -0.6087386 -1.8390124 1.6256562 1.1104244 -0.783464 0.36540112 0.4336134 -0.43255553 -0.40102884 1.3585283 1.116987 -1.1885983 0.6749949 1.8310199 -0.27743047 0.443869 -1.0149142 3.3948507 -0.6989152 -1.1556355 1.3355577 0.96538794 0.8947474 2.1205325 -3.6345081 -0.09053542 -0.79457587 -1.155872
73 1.0439239 -0.41634285 -2.7766852 -0.51947796 -0.2003648 -1.9719857 0.9790574 -2.4265893 0.4172651 1.4966972 0.29203632 -1.283039 -2.3541224 1.8640532 -2.465239 -0.21454464 0.4127971 -0.27783257 -0.4516246 0.09452465 -0.5246172 0.57376677 -1.4630382 -0.66810876 0.9432253 -0.21797682 -0.75163084 0.89592 -0.24055265 0.24989726 1.1159052 -0.022481568 1.6332798 1.2349962 -0.4355947 0.12250357 -1.2369096 -1.4219915 0.20548697 0.61197084 0.2601935 0.2960517 -2.9958847 -1.4574615 -0.7808077 0.64343005 -1.4553039 -0.98230416 0.44680044 -0.493602 -2.9012716 -0.86431193 -1.2267473 0.34818435 0.34985444 -1.7664003 0.28114396 -0.71279615 -0.625115 1.0179088 -1.7630787 0.256642 1.8049538 -1.3845024
74 -1.4733604 -1.5595118 -2.466634 -2.065158 1.0853493 0.832218 -0.3146797 0.047003247 0.8458878 -1.4212635 0.8958828 -2.4733014 -1.5424777 0.27333066 0.79644203 0.4364791 -1.2355103 -1.2128276 -0.5866316 -0.94991726 0.14052148 0.86974233 0.69406116 -0.0002575947 0.15231435 -1.32289 0.043816008 0.73772806 0.07208294 0.41927853 -1.9447334 -1.1055465 -0.9828996 2.1534855 -0.75081664 0.26048982 -0.08462453 -2.0676687 -1.2727622 1.6037946 1.5402303 -2.032348 0.25741354 -2.7183855 -2.080934 0.038409013 -1.0201465 -2.7725625 -0.97582734 -0.013110006 -2.1760848 -0.7307667 0.04817751 0.6549976 1.182274 -1.4308604 2.0491214 0.65476567 -1.17106 1.225133 -1.9335502 -0.2760191 0.548442 -2.099087
75 -1.0838857 0.08605703 0.3419523 -2.5489209 0.61766106 -1.9469715 -1.0864474 0.6535861 -0.14510854 -0.07332883 0.121555835 -0.07383483 -1.8632823 2.314775 -1.4374757 0.54304045 -1.1449814 -0.5693723 -1.1077596 -0.18295445 -1.0535886 1.4648911 1.850874 -1.1405635 -0.26189238 -2.4418242 -1.4919817 -0.7485729 -0.51049364 -0.9395373 0.40135446 0.46670437 -2.8188727 0.5885884 -0.20389296 2.9231732 -2.5938606 -0.14425987 -0.8715081 1.1654288 1.9668293 -1.7615893 1.779547 -0.77967644 -1.7384001 1.0289378 -0.64090335 -0.18986554 0.4590421 -0.38459513 -0.97777784 -1.1873004 0.3621667 2.3037271 -0.05009818 -2.1203282 1.3496757 2.3919532 0.06824825 0.5560973 -1.6288714 0.67440087 -1.6049976 -1.9326265
76 -1.2128834 -0.37455803 -1.1827621 0.24651478 0.78336304 0.86018574 -1.1848102 -0.5334319 1.1121503 -2.2120166 0.7279117 -1.7325648 -0.78017443 1.3153766 -0.76787364 0.012031696 -1.9529089 -1.7945442 -0.78155226 -0.49965385 -0.24375387 0.36464557 1.1380147 -1.5016946 -0.6149181 0.09814341 -0.3314722 0.030219438 0.55872977 -0.7018003 -1.4756844 -0.85849535 -1.6964704 0.29444155 -0.10006974 1.3398898 -1.6519105 -1.3894274 -1.2346636 1.3405937 1.9304318 -1.7001016 0.20214954 -3.2335474 -1.6754992 0.74131876 -0.7811203 -1.5822394 -0.34411103 -0.99065053 -0.9673076 0.59602857 0.4278874 0.09965914 1.4113227 -2.6276052 0.82374924 0.2314137 -1.2710522 0.34440428 -1.6415001 -1.0448357 -0.8029802 -1.7200795
77 -0.15991145 1.0275537 -1.231106 -0.67969817 -0.09168197 0.24582459 1.2796608 -0.12042684 -0.10872196 -0.2196603 1.4020625 0.5240549 -1.1423758 0.57109916 0.92520154 0.45741487 0.018366857 0.0851625 0.60591805 0.110194735 -0.9915436 1.1214795 1.1091232 -0.14636299 0.49649313 -0.9275086 -0.08705327 0.6109602 -0.9610337 0.13350347 0.2063252 -1.1236559 -1.2776995 -0.20047897 0.943785 1.5548663 -0.15379943 0.012740423 1.1420816 -0.76232284 0.81283665 -1.9977751 2.0377336 0.3319361 0.41658214 0.0763495 -0.6533779 -0.68054324 -0.55864525 0.87474155 -0.72858316 0.12241693 -1.2460366 0.375689 0.69355357 -1.2439588 0.3247132 0.6121686 -1.4514397 1.2246481 -1.3799196 0.5102855 0.09109354 -0.2757733
78 -1.1509594 -0.7961462 0.38642132 -2.0221047 0.018253379 -2.0195692 -0.16380829 1.4616802 -0.047113094 -0.027652064 0.58276355 0.22573294 -1.7608479 3.2277675 -2.2018776 0.70498574 -0.6268344 -0.29436252 -1.5716248 -0.49464637 -1.2653079 1.6588326 1.8481289 -1.4875154 0.3073199 -1.7405238 -2.2394016 -0.27278763 -1.0670623 -0.36383706 1.5285186 -0.17531694 -2.1959085 0.06265127 -0.5765422 2.0581937 -3.1452765 -0.04768137 -0.14917336 0.2783619 1.5599593 -2.528022 1.5421271 -1.0146313 -1.9946972 1.4316527 -1.1468072 -0.33215824 0.31596288 -0.74786985 -0.94228965 -0.8373384 1.2183107 1.3353553 0.23245959 -2.9664452 0.442079 1.7540832 0.49809742 -0.2433233 -0.9831478 -0.20198646 -2.6684895 -1.0803506
79 -0.9348324 -0.12850861 -0.8478619 0.32634243 0.5345936 0.5473052 -0.74381226 -0.24647911 1.1237396 -1.5584817 0.8448437 -1.1030258 -0.5276825 1.15174 -0.85721093 0.13799596 -1.6780261 -1.2569418 -0.8269704 -0.39556387 -0.25893205 0.32555676 1.0769798 -1.3092637 -0.45670786 -0.039682515 -0.545203 0.11004554 0.25257316 -0.48351094 -0.8228602 -0.6329099 -1.5250331 0.037410572 -0.11476445 1.3303213 -1.3890725 -0.9990234 -0.80404776 0.93491095 1.6106106 -1.3958633 -0.2532528 -2.6554837 -1.2186861 0.8459986 -0.4757572 -0.8852478 -0.22274747 -0.59559095 -0.619039 0.8304701 0.50987005 0.09245899 0.9200833 -2.1792188 0.7754395 0.082664534 -0.83104634 0.11640846 -1.2522961 -0.82635224 -0.8713428 -1.498297
80 -1.6098173 -1.011168 -1.5443238 -0.64364326 1.2090564 0.487188 -1.1177318 0.36352453 0.58088017 -1.9416504 0.65981555 -2.297491 -1.0901363 0.3568117 -0.14640813 0.22766033 -1.9700797 -2.0908036 -0.2949353 -0.6966839 0.5779465 0.5987325 0.91434306 -0.4119289 -0.8326975 -0.48328686 -0.0629382 0.065205015 0.6677125 -0.520746 -2.0603037 -0.5227804 -1.3516905 1.4466865 -0.29744095 0.5418289 -0.90560937 -1.6915243 -1.2962084 1.7508651 1.8617115 -1.8947276 0.5567076 -2.9653053 -1.5499626 0.781232 -1.3097451 -2.245232 -0.9850787 -0.33411846 -1.6587902 -0.42767033 0.55820805 0.2486755 1.3760189 -1.93591 1.1740255 0.18144211 -1.4048557 0.7701462 -1.8528916 -0.9333932 -0.04325771 -2.1140501
81 -0.5636175 0.8286941 -2.2128303 -1.6703515 -0.191894 1.5686318 2.3554506 0.27655017 -0.21062535 -0.6197634 1.4050709 1.2120045 -1.5040522 1.227742 1.8591523 0.72374654 0.16734003 0.9073161 0.622295 0.56183845 -2.3455 1.3583995 1.7184448 -0.64719397 1.1465764 -1.5395672 -0.5840445 0.8915386 -1.0172176 -0.12608455 -0.43388793 -2.3483787 -2.3808327 0.051314674 0.32954198 2.335488 0.5092408 -0.5731159 1.5245612 -1.2075474 1.6099907 -2.8519883 2.8964489 0.028864346 0.363919 0.6291271 -1.34465 0.6713147 -1.0365167 0.42363736 -1.6840045 0.5509284 -1.8078103 0.27990758 0.69487506 -1.2214774 0.85233414 1.0946519 -2.6839535 1.9372145 -2.0428662 0.53330874 0.87263507 -0.6186479
82 -0.75888634 -0.77161217 0.12372112 -1.6101192 -0.35606682 -1.7619233 0.22157338 1.5270938 -0.22197151 -0.059782848 0.8098398 0.029200295 -1.406495 2.2032573 -2.1234167 0.37379006 -0.3488679 -0.19795841 -1.2295387 -0.54605484 -0.97784114 1.2330879 1.0829576 -0.9379129 0.33785054 -1.4854949 -1.7208282 0.21409254 -0.9945413 -0.11239127 1.520737 -0.52468115 -1.3547022 0.3074518 -0.4540006 1.2602819 -2.4530087 0.076629914 0.05315553 -0.38986033 0.76500803 -2.0026932 0.84017646 -0.90145576 -1.466605 1.3124448 -0.9686476 -0.7359483 0.53085405 -0.7156356 -0.96818197 -0.74972725 1.2565188 0.6814297 0.3238285 -2.5976498 0.34789 1.4326546 0.3429214 -0.14563407 -0.7488664 -0.4991907 -1.9273025 -1.0569699
83 0.19732419 0.31188694 -1.3106606 -3.2442236 1.0322125 -1.0606292 1.4415507 1.1077093 1.0475335 0.06757892 2.289719 -0.31243232 -2.0398154 0.30626515 0.18286775 1.4028906 0.2831957 -0.4076122 -1.6686914 0.80241287 -2.517383 1.159052 2.519541 -0.83763504 0.21306571 -1.4994525 -1.4192768 1.6911261 -1.6334634 1.0470549 0.74099296 -0.5113356 -1.4102141 2.2528927 -1.9368594 2.256149 -0.18810602 -1.313405 -0.87173724 0.30553973 1.2743526 -1.330183 -0.39820227 -0.38673937 -1.0484278 1.3843126 -0.21436958 -0.018130831 1.1513397 0.3921016 -3.2509408 -0.060057685 0.39377487 0.8512925 1.7573318 -1.2060438 1.5004845 0.5388848 -0.9376681 1.5775794 -1.9386333 -0.047846284 1.4831816 -2.0585856
84 0.21785013 1.5596564 -2.2037327 -0.1402355 -0.7983391 -2.3593488 1.9086757 -0.99952203 1.0526941 1.3177491 2.1536787 0.12711109 -1.9502255 1.5666485 0.28814995 0.17246601 -0.9308666 -0.97226524 0.475776 0.5521984 -0.6212669 2.678156 0.11947163 -0.2968339 0.7831366 -1.6478463 0.6709242 -0.285722 -0.16131537 0.97193426 0.08477773 -1.9335093 -0.22417888 0.5502268 1.5841404 0.8614951 -1.6764957 0.8280703 0.24587242 -0.53832054 0.58488035 -2.451567 1.3948014 1.9952664 0.1610924 -2.2491333 -1.6885748 -3.8238237 -1.5907803 1.1856152 -1.1946827 -0.2581109 -1.7968401 0.861218 1.2542999 -2.2599747 -0.43206304 -0.21103573 -2.7582793 0.87278646 -1.2709366 1.0486529 0.48652726 -0.9191412
85 0.22679368 3.2433043 -2.2093303 -0.31304175 -0.80036026 -0.7020871 2.2497811 -0.81237 0.03331534 0.3529212 3.251871 1.5031234 -2.0290227 0.15166621 1.8614913 0.6194529 0.0816514 -0.61373264 2.1168013 -0.42503604 -1.1424253 2.1755857 2.1687672 0.34732407 0.4944681 -1.7181563 -0.19338018 0.44937056 -2.1941907 0.62544477 0.91835064 -1.424988 -2.2447994 -0.71646976 2.8949008 3.254226 -0.6395573 0.49774638 2.280948 -2.0431168 1.7837676 -3.8204558 4.050381 0.8547914 1.6661056 -1.7443739 -0.46880955 -2.7545154 -1.4540714 2.590331 0.018904272 0.5413728 -2.30893 1.0889788 2.2231207 -2.3450038 0.051784523 0.85579383 -2.2263892 2.1944554 -1.8913753 1.5593255 0.20481887 0.5223351
86 -0.32028037 -0.18273556 1.0756601 -0.3106725 0.69270915 -2.095503 1.0652615 3.6147425 -0.19948451 0.41704696 0.797543 -1.4831914 -0.96837854 3.3536835 -0.7681637 -0.7818263 -0.70744205 -0.33066085 -0.51247805 -0.15520196 -1.4820725 1.9281921 -0.5613177 -0.9738234 0.46423882 -2.6605103 -0.24666987 2.7142727 1.3017235 0.54971385 0.42973122 -1.4449898 -1.2150458 0.27684495 -0.028739566 0.45234722 -0.7510329 -0.3502487 -1.4163884 1.1581814 -1.0479937 -1.970584 0.15289459 0.7782345 -1.3271189 0.6829059 -0.8835311 -1.112055 -0.14949232 1.6042056 -2.447244 -1.659016 -0.42716098 1.5043901 1.8490057 -1.1344147 1.010303 1.2709116 -0.7101294 0.89753073 -2.144151 0.53963155 0.48487008 -2.3316064
87 0.10216102 0.37919256 -0.41556582 -2.3439164 -0.13408206 -0.8970074 3.2065327 0.734315 -0.041918237 0.08232739 2.7245648 1.0729191 -1.9521986 0.068450645 -0.061026555 1.8036432 1.2206602 0.15110123 -0.41594076 0.27014235 -2.3776715 1.0082916 1.0611455 -1.4267436 0.6455808 -1.5669286 -2.8441033 0.3729451 -1.9674665 0.9434252 0.24537702 -1.3604085 -1.2589191 1.468438 -1.6616886 2.5194635 0.05446393 -1.2204952 0.096377425 -1.3597636 1.9885352 -2.698925 0.34004155 -0.11266529 0.2995172 0.52995163 -0.04541435 -0.6872389 -0.07141029 0.40694404 -2.6334834 0.3983265 0.21499495 0.46700317 2.874797 -2.1293356 0.20838733 1.1915317 -1.2421118 1.9268991 -1.8173782 -1.0297604 0.10734566 -0.8192928
88 -0.7490713 -0.86194915 0.19817656 -1.4139925 -0.5087272 -1.9582974 0.29691178 1.8885044 -0.09730791 -0.017904984 0.8237986 0.2124878 -1.3871082 2.167587 -2.1711152 0.40645072 -0.37974998 -0.25340432 -1.236021 -0.6662855 -1.1240957 1.1347274 1.071001 -0.93060845 0.49604923 -1.491979 -1.7935816 0.37843147 -1.1399544 0.008903546 1.7119142 -0.58485675 -1.3826427 0.3184331 -0.54709524 1.164567 -2.4842114 0.09790544 0.07427402 -0.6771322 0.63350785 -2.0995343 0.7955723 -0.96719897 -1.4297383 1.3408675 -0.9755202 -0.6431038 0.54413164 -0.7378624 -0.92285806 -0.7019059 1.6108118 0.52968925 0.3932948 -2.7115684 0.30392858 1.3951855 0.46950096 -0.28378713 -0.36851925 -0.6656801 -1.9244449 -0.9271587
89 -0.30443385 -0.17705709 0.66172737 -0.56803364 0.47761074 -2.120452 1.2981265 2.8222172 -0.24721079 0.67586875 0.28432304 -1.5015385 -1.4470234 2.777028 -0.74605864 -0.9088142 -0.56573606 -0.059231885 -0.6243534 0.2932052 -1.5129558 1.6435902 -0.59470016 -1.0652117 0.9845799 -2.6544812 -0.637429 2.050036 1.2661067 0.25890863 0.31712985 -1.172202 -1.3762506 0.6150343 0.012699337 0.5053603 -0.90167946 0.22335094 -0.9886138 1.0219098 -0.73292136 -1.866841 -0.019171229 0.77061474 -1.0319494 0.45193523 -0.8580653 -1.271192 -0.42770433 0.844315 -1.9315132 -1.348686 -0.49068788 1.0828445 1.5162787 -1.4132978 1.0209234 1.3489174 -1.2049761 1.0024545 -2.1767542 0.19438232 1.0101427 -2.617653
90 -0.015111972 1.0025644 -1.2210281 -3.3487659 1.575446 -1.1349211 0.29477975 0.54752964 1.5022647 -0.3657828 1.718514 -0.55065244 -2.0468595 0.08596581 0.655255 1.0537391 -0.25482005 -0.59805053 -1.1998508 0.69948727 -2.0989864 1.0243282 2.7687535 -0.5289035 -0.2179518 -1.7952492 -0.43457466 1.5079557 -1.1559451 0.30639756 0.32542098 -0.10299659 -1.9459065 1.818632 -1.6368686 2.6748233 0.027969383 -0.74033123 -0.73846066 0.7461676 1.4114954 -0.97715586 -0.22377035 -0.5259354 -1.0990387 1.2873726 -0.2729411 -0.2464277 1.2226256 0.24331461 -2.6238222 -0.18109979 -0.3786595 1.399914 0.82472163 -1.1244988 2.2574816 0.6548399 -1.4262413 1.774578 -2.2778065 0.48332995 1.9421127 -2.5743575
91 -0.7697372 1.187574 -0.13437203 -3.051668 1.299644 -1.7307986 -1.0248988 0.49080327 0.49138013 -0.22973718 0.45944214 -0.115490645 -2.0583744 1.071243 -0.40555552 0.69748014 -1.0991688 -0.49178088 -0.61342585 0.43093994 -0.906348 1.4433268 2.2403798 -0.7929366 -0.5206924 -2.5384326 -0.80748135 -0.5636855 -0.4308349 -1.2117399 -0.1375516 0.5531465 -3.0572278 0.9382891 -0.6239849 3.3760502 -1.2208843 0.10426346 -0.59945935 1.413419 2.071224 -1.4439588 1.3181094 -0.62265074 -1.2144907 1.0383497 -0.54749626 -0.4208754 0.5464945 -0.11423625 -1.2127124 -0.74299276 -0.5304638 2.4054112 -0.25204828 -1.8055218 2.3521821 1.7367369 -0.83520174 1.2633014 -2.3276842 0.8434797 0.070784055 -2.5371363
92 -0.07349712 0.7659246 -0.5075839 -0.5694712 -1.0199077 -3.6536245 2.3605072 0.9963691 0.70276976 2.364097 -0.10833166 -1.150195 -2.7070227 2.936135 -0.093261234 -0.94873476 -1.2565111 -0.19810332 -1.1935354 1.2766975 -2.2654252 2.4349992 -1.5146111 -1.8558785 1.4645346 -2.945206 -0.23328052 0.28471687 1.6586614 0.49906948 -0.15195718 -1.730204 -1.2620233 1.525973 0.703866 -0.17511846 -2.3404129 1.6138786 -1.496895 0.48875642 0.030260226 -2.07024 0.55740464 2.282787 -0.76514757 -1.7984157 -1.9633836 -3.0397537 -2.0589387 -0.06273605 -1.7932012 -0.61272705 -0.7630362 1.0340711 1.5781593 -1.989677 -0.111872606 1.114339 -3.8322632 1.1134793 -1.7171607 0.1418581 1.9706826 -3.1027212
93 -1.1994387 -0.4855803 -1.0446609 0.039194327 0.70510894 0.73780626 -1.0201588 -0.23167445 0.74416226 -1.8757738 0.65567195 -1.650387 -0.7574487 0.8228222 -0.55443645 -0.022601848 -1.7871814 -1.7376422 -0.5450695 -0.4649422 0.11354349 0.3590394 0.8315586 -1.0450644 -0.60422826 -0.08193572 -0.18195423 0.07456368 0.59852684 -0.680747 -1.5540589 -0.75290924 -1.3349499 0.5361492 0.010825663 1.0039431 -1.2737855 -1.2857133 -1.0852005 1.3049973 1.6978514 -1.5599751 0.27407113 -2.8103263 -1.4580983 0.6704438 -0.83830214 -1.6713797 -0.48539308 -0.6841033 -1.0020174 0.16796505 0.32457393 0.092918664 1.2501597 -2.117896 0.74609303 0.20043473 -1.1883128 0.39734176 -1.6166114 -0.9410996 -0.48358834 -1.647854
94 -0.32527006 -0.089018084 0.22715272 -0.6247318 0.1798652 -2.057479 1.1042942 2.1826222 -0.62063247 0.90673333 -0.3025704 -1.6814303 -1.9962531 2.4383504 -0.48968628 -1.0701073 -0.47528064 0.07418216 -0.44427988 0.6798523 -1.6762557 1.7413017 -1.1992298 -1.054684 1.5909399 -3.051951 -0.44483823 1.4010534 1.297422 0.26300764 -0.06405374 -0.99779963 -1.7539867 1.1631151 0.3518478 0.3086216 -1.2217897 0.80071425 -0.8623778 1.0252936 -0.56459785 -1.817622 0.08491128 1.169912 -1.2104777 -0.022694683 -1.4029815 -1.6079228 -0.8982517 0.31784436 -1.5529803 -1.5072392 -0.698591 0.58664817 1.3855494 -1.608334 0.8741105 1.813608 -2.008969 0.9077945 -2.0728595 -0.0635907 1.4464563 -3.1940517
95 -0.24621984 1.4414463 -1.8693293 -1.3280386 -0.24096775 1.430978 2.7038848 0.14173007 -0.31522876 -0.68788016 1.6123781 1.6512332 -1.5601181 0.95921284 2.419765 1.0631293 0.54559976 0.7590369 0.9479992 0.40230912 -2.7179232 1.3821231 2.2845557 -0.48953578 1.1119047 -1.652707 -0.60784537 1.0113645 -1.4941244 -0.16074115 -0.14856647 -2.2683864 -3.038233 -0.40642354 0.78431803 2.8176696 0.45836 -0.47836116 1.8898793 -1.7370005 1.8805692 -3.2433252 3.6398373 0.46591777 0.9143108 0.6866895 -1.2149948 0.9248634 -1.0861894 0.96818316 -1.5181328 0.76478374 -1.9216291 0.44068792 1.1746016 -1.4885483 0.5054459 1.3562226 -3.0576065 2.2701733 -2.0874367 0.5347533 0.6984038 -0.40289533
96 0.31044403 2.419925 -3.0165958 -0.60458064 -0.48114538 -1.7960474 2.2067502 -0.8798443 0.5135196 0.76651114 3.526786 0.46655184 -2.3380013 1.3913724 0.62713426 0.13243012 -0.6698198 -1.016936 1.3569475 -0.033317894 -0.3884828 2.9896438 1.4301059 0.3232707 0.4284603 -1.8623117 0.25204146 0.6344458 -1.6081895 1.1738368 0.8634222 -1.7938331 -0.97038317 0.15674108 2.61768 2.2296863 -1.3893347 0.67965895 1.4479499 -1.1850876 0.9210356 -3.7764034 2.8192828 1.400298 0.89489126 -1.7803284 -1.0362865 -4.3462114 -1.2909385 2.3390706 -1.0485264 -0.30180126 -2.237411 1.240967 2.1533842 -2.901639 0.3416542 0.23604317 -2.412401 1.4486068 -1.8571415 1.4618173 0.08799598 -0.0064771487
97 -0.96069854 0.18871802 0.3590458 -2.6415956 0.8039453 -1.9863627 -1.0849851 0.5412795 -0.008756716 -0.016738066 -0.02133661 0.0197876 -1.8069427 1.8674637 -1.141113 0.54924077 -1.1299852 -0.60408 -0.988101 -0.07722429 -1.2482836 1.3675306 1.9217675 -0.9948477 -0.25834167 -2.5353563 -1.4104486 -0.78039443 -0.44772464 -0.9110873 0.2583004 0.52682173 -2.9622104 0.77686596 -0.3345011 2.9793572 -2.2167065 -0.19888455 -1.058056 1.2040269 2.0646508 -1.5212557 1.6711327 -0.69088227 -1.5847843 0.8436198 -0.44488457 -0.0813078 0.5841522 -0.269961 -0.9815601 -1.1567742 0.28405154 2.360775 -0.12581328 -1.8488321 1.5743841 2.3070982 -0.053778384 0.6481591 -1.5132574 0.8014172 -1.1167763 -2.019519
98 -1.1086754 -0.08683645 -0.980071 0.63681567 0.4748228 0.47256663 -0.8031136 0.034209453 1.664051 -1.5214673 1.0880989 -1.0418729 -0.5203711 1.2953004 -0.97331715 0.25185683 -2.258014 -1.3651493 -1.2193613 -0.5758371 -0.64058095 0.28324282 1.2141546 -1.544624 -0.4776697 -0.057146706 -0.73405355 0.29023287 -0.06048595 -0.22672407 -0.59681165 -0.56606007 -2.0402663 0.20712341 -0.17590216 1.6384603 -1.6389529 -1.1101885 -0.92744696 1.0372949 1.9044536 -1.5722054 -0.45397016 -3.1162083 -1.3986628 1.1091837 -0.25859764 -0.69441074 -0.21362342 -0.5972722 -0.48755828 1.1943809 1.2011296 0.020670177 0.7493748 -2.563817 0.9745992 0.083271615 -0.6369189 0.044043235 -0.8753926 -1.11622 -1.0938659 -1.93816
99 -0.68820226 0.480891 -2.6731958 -1.91143 -0.22687936 1.8187666 2.1863792 0.3468584 -0.21668147 -0.655608 1.3338584 1.078186 -1.5827507 1.4487915 1.8870838 0.56630015 0.08841168 0.9834138 0.5031533 0.69493663 -2.209247 1.3802903 1.5220208 -0.74458635 1.1471387 -1.5450305 -0.5309975 0.8441533 -0.8215446 -0.117007636 -0.5966657 -2.4621205 -2.108519 0.4525436 0.16543388 2.0276842 0.57045025 -0.77945524 1.279462 -0.9344019 1.5494955 -2.9113777 2.7414334 -0.073114686 0.14775752 0.6591233 -1.4219457 0.67648727 -1.0290943 0.1820351 -1.993457 0.41486374 -1.7468007 0.186626 0.60547 -1.0215521 1.1914444 1.113018 -2.754792 1.7605144 -2.012472 0.56018037 1.1006477 -0.668047
100 0.43370682 0.012497358 -0.9000513 -3.0905995 0.28559288 -0.99668586 3.2176833 1.2841377 0.43664768 0.29846284 2.9057999 0.5849695 -2.1385286 0.62445104 0.089850865 1.8551669 1.0985268 -0.069828406 -1.3501462 0.7429659 -2.7433786 1.2809741 1.8364064 -1.4188776 0.71985024 -1.8576308 -3.0221407 1.3790202 -2.1688185 1.3152809 0.45928597 -1.4146924 -1.4534687 2.1333294 -1.9971081 2.306642 0.27838662 -1.5428045 -0.48567957 -0.63391554 1.703497 -2.6328166 -0.1233873 0.053977933 -0.36650145 1.0291663 0.032235883 -0.31839278 0.70990324 0.4084334 -3.661743 0.008156556 0.4889668 0.37265703 3.0072937 -1.9235734 0.7777511 1.0454899 -1.3330101 1.6313113 -1.7252576 -0.9965135 0.63813424 -1.3130616
101 -1.6143997 -1.0284564 -1.5537614 -0.34044224 1.2073908 0.64629525 -1.4218315 0.3253666 0.49945283 -2.179582 0.64923424 -2.3797755 -1.0194656 0.38692722 -0.29826432 0.17148665 -2.0719287 -2.3000484 -0.21050356 -0.79509836 0.6662328 0.58260536 1.0347778 -0.51379323 -0.9643191 -0.26566562 -0.11736008 -0.1340772 0.77287567 -0.67315704 -2.2846255 -0.5590376 -1.4721712 1.3164854 -0.30614427 0.6130003 -1.0282896 -1.8365036 -1.4340316 1.8325378 2.0405495 -1.9676932 0.6488998 -3.3304772 -1.5162705 0.8076796 -1.451024 -2.1298187 -1.0541811 -0.5817264 -1.5099968 -0.38778126 0.5957837 0.111133255 1.4945055 -2.0395792 1.148301 0.16875674 -1.4526474 0.6724894 -1.840363 -1.0943847 -0.172097 -2.1794546
102 -1.0238003 -1.0243638 -3.1899228 -3.0841627 1.2020092 1.2752517 0.3992829 -0.2349627 1.178287 -1.2253008 0.7714008 -1.5825983 -1.5736098 0.4558998 1.5761806 0.6649908 -0.5650571 -0.34938985 -0.68706244 -0.7398643 -0.2785934 1.1423591 1.1748639 -0.07113957 0.67582077 -1.8951551 -0.11204573 1.0587214 -0.07510565 0.6416797 -1.537534 -1.4841635 -1.0497824 1.9472091 -1.3450171 0.79793215 0.7469926 -1.9482921 -0.8384258 1.3600675 1.2236149 -2.102966 -0.45714825 -2.2400222 -1.7272065 -0.58835745 -0.52910155 -2.1205986 -0.9841691 0.1788217 -2.2767994 -0.19025926 -0.68091923 1.1683524 0.7868256 -0.91972846 2.851726 0.9155802 -1.4001205 1.3121593 -1.8303411 0.5139862 1.2806515 -1.611581
103 -0.44831586 -0.5915205 0.04073617 -0.6546294 -0.5175367 -1.9810203 0.26025593 2.7069736 0.4409092 -0.053932857 1.0418668 0.06340321 -1.1237708 1.8907814 -2.119999 0.10918575 -0.93822587 -0.3534448 -1.2609947 -0.968486 -1.1762754 1.0871098 0.714023 -0.49391767 0.5050316 -1.530448 -1.1661037 1.0970333 -1.5655006 0.42546886 1.7388601 -1.0457698 -1.6381661 0.39687157 -0.6163383 0.6110455 -2.129309 -0.02289864 0.23406489 -1.2167501 -0.12629908 -2.157671 0.8299078 -1.0279316 -1.4549371 1.4393457 -0.908236 -0.92845 0.55227023 -0.57401174 -1.1412109 -0.7359894 2.4288838 0.06202987 0.30224836 -2.929551 0.70334786 1.601558 0.58456975 -0.36646265 0.56685054 -1.2944626 -1.4869949 -0.99415046
104 -1.0405802 -0.93752325 -2.8737497 -2.9207058 1.4800478 1.0461173 0.22128986 -0.33401397 1.339586 -1.2928537 0.5030712 -1.6821212 -1.5279517 0.152058 1.7385929 0.7466423 -0.5979783 -0.6158503 -0.5761686 -0.7804496 -0.32724687 1.0744605 1.3540736 0.09852955 0.53284204 -1.8914438 0.032967158 0.92331946 -0.014823476 0.54789734 -1.7985044 -1.2405046 -1.2941242 1.9083765 -1.3174413 0.93658525 0.8334741 -1.9135339 -0.95367527 1.5302916 1.3389776 -2.0474446 -0.42696172 -2.3196666 -1.7678177 -0.61099124 -0.418934 -2.1886225 -0.98664933 0.33269322 -2.1941838 -0.22600763 -0.6812489 1.248435 0.82337016 -0.8234643 2.8661606 0.8041316 -1.4297777 1.3690013 -1.8928076 0.46703738 1.4238896 -1.776247
105 -0.99311805 0.16620834 -0.9921249 0.5600335 0.42159522 0.48827004 -0.7086593 0.21817136 1.4255869 -1.1648915 1.3012986 -1.0431036 -0.51099384 1.2815531 -0.9775091 0.13934292 -2.3991349 -1.0805339 -1.2866718 -0.500086 -0.7141153 0.5418203 0.9019622 -1.2542623 -0.34086776 -0.29450372 -0.47925222 0.56833965 -0.38512218 0.111788966 -0.34538105 -0.63220453 -2.3099825 0.31245846 0.06357968 1.4357164 -1.4904127 -1.0475639 -0.55070424 0.9024335 1.6134846 -1.4867282 -0.25303477 -2.8617463 -1.4962497 1.0634723 -0.33645934 -0.71236986 -0.23871177 -0.25900438 -0.5685754 0.893627 1.3403282 -0.042070735 0.59313744 -2.5182266 1.0922639 0.38336694 -0.54656905 0.20600198 -0.74489576 -1.1566362 -1.0045142 -2.182921
106 -1.1261637 -0.51354724 0.2951812 -2.099764 0.20399931 -1.938476 -0.3326031 1.1986371 -0.18284774 -0.0151979765 0.52220565 0.14811978 -1.7251364 2.9363573 -2.0589874 0.6021996 -0.6640681 -0.325657 -1.3778348 -0.43958968 -1.1794567 1.530745 1.9202667 -1.4094751 0.08950948 -1.7376533 -2.1163044 -0.38544133 -0.91626996 -0.52751744 1.3027611 0.087536626 -2.225062 0.07021746 -0.5187826 2.276198 -2.9195018 -0.14227107 -0.24922934 0.37606055 1.7245626 -2.3292475 1.5368488 -0.9488384 -1.7222872 1.3786684 -1.0750439 -0.15280218 0.32139903 -0.6295374 -0.97851324 -0.85335386 0.96217096 1.5373168 0.19463286 -2.6357257 0.64482766 1.7775947 0.34141758 -0.031266443 -1.2059852 0.03995674 -2.3751025 -1.1801097
107 -0.70512474 -1.027974 -4.261827 -3.17806 0.10896881 2.3630776 1.8251917 0.34035298 0.20575897 -0.8283265 1.092816 0.59386885 -1.5001403 1.6674763 2.0160487 0.21918803 -0.08459883 1.1028644 -0.07241865 0.07245032 -1.4746367 1.4236671 1.162924 -0.84742534 1.1830243 -1.8042583 -0.5949421 0.9664567 -0.27612987 0.58948493 -1.2499975 -2.9111652 -0.9618911 1.8410788 -1.2319434 0.97085917 1.1105206 -2.0182114 0.19946401 -0.04642451 1.2862641 -2.8470378 1.0469974 -1.0684717 -0.5494284 -0.186707 -1.2433956 0.17430688 -1.4156996 -0.5479528 -2.7670655 0.2127699 -1.2431629 0.21332087 0.5850833 -0.24710746 2.4372518 1.1804783 -2.472601 1.0215178 -1.3075237 0.67924887 1.6850693 -0.70249444
108 -1.1576911 1.2043345 0.9548101 0.0929787 2.0735445 -1.2427901 1.3612088 -0.6460813 -0.3363915 -1.1428752 2.5886917 -1.1407961 -0.58933526 2.2169144 -2.2453866 -0.19668764 -1.5541421 -1.4539315 -1.2291659 1.9907008 -1.3130838 1.3382337 -0.1039455 0.35221663 -1.1379031 -0.9173885 -0.77724093 0.9058192 -1.7752321 -0.15788867 2.0302956 -1.5372212 1.6844033 -0.0321595 0.004171538 2.4149587 -1.3509198 0.999269 1.5964609 0.23899633 -0.21625088 -1.3062743 0.5371597 0.7780716 -0.2853721 1.102893 1.5820436 -0.8544605 1.7887025 1.3237172 -1.7326956 1.33653 -0.573204 -0.49458662 2.9421072 -2.3018239 -0.008230083 -0.90841407 0.41071013 1.0918586 -2.542162 0.56719583 -1.4190054 -1.9145737
109 -0.74042195 1.928968 0.2846484 -0.39065787 0.4712457 0.30232468 0.13305154 -0.6909139 -0.7786741 0.03801128 2.4111032 -0.58420205 -3.062237 0.07697872 -1.8940089 -0.05664709 -2.1063864 -1.5113815 0.15722373 1.3605255 -0.31748122 0.48179594 0.8734316 -0.4764666 -1.061992 -1.5414995 -0.83704656 0.1735662 0.99979055 -0.59004384 -0.83650607 -1.0545089 0.45568657 -0.1527512 -2.1034803 0.16018198 0.26133293 0.22857392 -0.8926934 -0.6825866 1.8696798 -1.1846433 0.36406052 -0.808534 1.5397382 0.7007456 -0.10191365 -1.8863354 0.5453351 0.89369726 -1.568994 0.9173734 -0.3179802 2.026747 2.8811584 -1.6765667 0.99077797 -1.1696637 -1.1891562 1.6116719 -1.829067 0.34217376 -1.3354461 0.1474693
110 -0.3523861 0.4874831 -1.5508987 -1.6090605 1.9745744 -1.607638 0.2558359 -0.123331085 1.3066087 -0.4038729 1.7486622 0.8896251 -1.5972003 2.1161962 -0.8081322 -0.35529748 -0.055736285 -0.028619984 -0.6208225 -0.057059795 0.76414645 1.2643349 1.5725638 -1.4977005 1.4668353 -0.029167643 -1.0647718 -0.6514885 0.41575286 -1.6528797 0.5627218 0.8401368 0.6511043 -1.627777 -0.7603229 0.8493819 -1.9408567 0.23727828 0.30540735 1.4483912 0.7295549 -0.89870805 1.6454506 -0.8089367 -0.7758595 -0.4015405 -1.0259619 -1.4101688 -1.0539697 1.005845 -1.0392588 0.961895 -0.70509344 2.6129298 0.66613626 -1.3245825 1.2492992 0.7101267 -1.9341114 0.6629273 -2.655236 0.75064874 -1.2713249 -0.58438146
111 -1.6563208 -0.5728777 -0.5378519 -0.8290572 -0.5982826 0.23488091 -0.91604006 0.52727073 0.22445397 -0.60457 0.67055726 0.7448975 -0.4562905 1.1706096 0.17463766 -0.7215568 -0.3052036 -0.19386926 -1.329127 0.4549111 0.912534 0.22872242 0.6419606 -0.49691734 0.11131531 -0.8310053 -0.5246259 0.100468375 -0.39031893 -1.071762 0.24819891 -0.26781133 -0.05281697 -0.8183883 0.45084822 -0.30738768 -0.59580564 0.004024841 0.8020439 0.11760188 0.5522492 -0.11861293 0.3169578 -0.40151048 -0.34938905 0.63820225 0.20404208 -1.8766607 -0.56715757 0.46987325 0.005486053 -0.18041644 0.64296305 1.3044751 -0.41729963 -1.2376733 -0.07446219 0.19702876 -0.9026615 0.23488678 -0.120455936 -0.007890525 -0.23953813 -0.117698394
112 1.096024 0.5598018 -0.17424725 -0.6791809 1.0018872 -4.169431 1.3983485 0.1489261 0.84570676 -0.87532896 0.49952456 -0.24268281 -2.664582 0.7867623 -2.2591703 -0.62966645 -0.31322548 0.32590514 -1.3655901 1.1465597 0.37025705 0.58592933 0.78243285 0.95553625 0.7503641 -1.9444396 -0.1787648 -0.03857052 0.9230495 -0.42324597 1.838093 -2.2164204 0.15709376 -0.8899481 0.52935266 1.5531697 -1.9219774 1.2096376 1.30243 1.8457814 2.0800323 -1.9588773 -0.4894426 -2.7740633 0.6499251 -0.6118399 1.6344086 -2.3625283 2.3105397 2.2139804 -1.6656437 -0.70620733 -2.4896967 0.3009339 2.9156363 -2.6701727 4.104849 -0.25184712 -1.9251561 2.1268106 -2.7330427 1.643114 1.3043563 -2.263394
113 -1.0625219 -0.07493746 -0.5464405 -0.8692666 -0.006133578 -0.30303887 -0.014068719 -0.054234535 0.4072089 -0.3863703 0.36924368 1.1489081 -0.9435636 1.0084168 0.2216468 -0.77199537 0.20077571 -0.23293217 -0.85679483 0.30981368 0.8731965 0.38416642 0.8219586 -0.63971317 0.52923167 -0.38075697 -1.1880476 -0.42039165 -0.1364295 -1.432884 0.22562307 0.23511024 -0.31597042 -1.0279499 0.20335625 -0.07471703 -0.36884746 0.29525915 0.912771 0.113196045 0.58624464 -0.30223998 0.29331866 -0.5652572 -0.12743278 0.10974293 -0.00722604 -1.7576522 -0.6569686 0.3671458 0.046222575 0.18322602 0.41813692 1.4338552 0.048508886 -1.0972345 0.508647 0.5544137 -1.0380707 0.2383718 -0.4636949 -0.112708375 -0.6044478 -0.24440436
114 1.4750869 1.2503209 0.6020171 -0.7889316 0.70815647 -1.6752709 0.16190328 -0.35766712 -0.12488175 -0.48335338 0.6917028 0.35666543 -2.5152647 0.28594163 -1.0185072 -0.318665 -0.8584239 -0.21094394 -0.8735105 2.196345 0.78279716 0.10585564 0.7859225 1.7046983 0.8185821 -1.5595329 -0.422699 0.93919945 -0.56135297 -1.659895 0.37967294 -1.6586149 -0.4382642 -0.015158525 0.8589199 1.9312531 -0.80678636 1.5167441 0.9299445 0.95298165 1.7629628 -1.6702627 -0.048845656 -0.7059599 0.4825863 0.9229859 0.6937487 -1.1231033 0.7574404 1.539258 -2.75497 -0.17864883 -1.6023005 0.3029372 1.8331451 -0.99292886 1.6315539 0.12810574 -3.074207 2.0858893 -2.2921128 0.44252294 0.7707486 -0.5624964
115 -2.8464098 2.7455392 0.67749965 -0.32671785 0.68805814 1.7503295 -1.4998082 -0.710585 -2.2371976 0.14472902 3.5034363 -1.6487756 -2.005355 0.89667314 0.2742777 2.7912292 -0.39006388 -2.106923 0.5333211 -0.12605299 -1.2240515 1.2384732 1.7725462 -2.2797048 -1.8149483 -0.88774556 -0.6911541 0.34173754 -0.6711134 1.128166 -1.3315955 -1.0162957 0.4639907 -0.40112928 0.4309309 0.17088845 -1.260476 -0.7766901 -1.1512337 -0.64279497 0.092928104 0.5228 1.3917269 -0.70368147 -0.52434134 0.86746186 -0.20973727 -1.8441439 0.7770993 0.99067193 1.2730558 1.6125313 0.46792096 3.8090281 1.1369059 -3.888065 -0.18719783 -0.4632824 1.6734895 1.7212644 -3.1446965 1.0168793 -2.3670177 -1.905632
116 1.0535536 -0.8537294 -0.05269371 -0.49643573 0.7699816 -4.060167 2.228753 -0.39311883 -0.035096917 -0.94751865 0.6210073 0.0792908 -1.7979932 1.4835378 -2.3635068 -0.48682016 -0.19622321 0.9824806 -1.6799492 0.42814666 0.48627892 1.1499642 0.7188592 0.39105952 0.8673507 -1.9705617 -0.014944875 0.19122799 1.3834294 0.27039754 2.0892038 -1.8814788 0.6551695 -0.8676553 0.671767 1.1277183 -2.1751335 0.7724559 1.9810588 1.8964216 1.2357858 -1.4830307 -0.9817955 -3.7231472 -0.4516684 -1.2113954 1.4542016 -2.2001827 2.7299235 1.35026 -0.9567061 -0.9190322 -2.205911 0.47431016 2.3668978 -3.2727122 4.0303073 0.23943895 -0.57120717 1.8888468 -2.6005657 1.2202308 0.49533036 -2.041445
117 -0.52827317 -0.7059566 -0.542498 -0.7793299 -0.013176044 -1.3942392 0.1924438 0.88319975 -0.47352692 1.2966435 2.9200451 0.5901081 -1.3235755 3.0618796 -0.7841548 0.25342155 -0.26840955 1.5863199 -1.8922362 2.1788156 0.47090966 1.183095 1.7653676 -1.299505 -0.6841473 -1.6484495 -0.9700266 1.783341 0.42002267 0.46781996 1.8044844 -0.8066056 0.9071317 -1.6051388 0.48042008 1.1024069 -1.9113464 0.085698985 1.9628316 -0.43840328 0.3738433 -0.56009763 -1.5217265 -2.2370403 0.37790492 0.47113252 -0.042363726 -0.96925604 1.3819206 1.644333 -1.9501001 -0.92049927 1.2157936 1.5820506 0.61026996 -3.3052058 0.05175397 0.6166348 -1.2895734 1.4351507 -2.1570723 0.52097785 -1.3482287 -0.88174546
118 0.37008515 0.35738012 0.16544531 -0.024035392 0.2667312 -0.49433663 0.09283302 -0.08357589 0.15726775 -0.08590016 0.014338375 0.098581165 -0.42743966 -0.031387825 -0.21506518 -0.065210685 -0.16135836 -0.090820044 -0.13568029 0.42677283 0.08047416 -0.062681034 0.29718566 0.35857874 0.11016046 -0.23429453 -0.20238744 0.023170562 -0.0037552046 -0.26912174 0.18683967 -0.19997668 -0.083308585 -0.11071169 0.051555347 0.38175258 -0.078594916 0.35110104 0.10010767 0.14527912 0.4048527 -0.27054387 -0.089705154 -0.13249633 0.3240331 0.10125442 0.27324265 -0.028037013 0.18093312 0.45192105 -0.40793654 0.0683378 -0.28920582 0.10128789 0.4622301 -0.09162611 0.38493997 -0.0897039 -0.5175342 0.32548434 -0.3084109 0.21063823 0.24180566 -0.04351914
119 -1.582462 -0.8076334 -0.42378283 -1.0371495 -0.08109377 -0.87624246 -1.4995316 1.0075748 -0.20096606 0.5512825 2.800623 1.488871 -1.487188 2.8737628 -0.110406704 -0.27300066 -0.5911665 1.2549555 -2.6736553 2.7355804 0.945867 1.0224334 2.1373973 -0.98485386 0.2825251 -2.618708 -0.742793 0.7186266 0.18312894 -0.36270508 1.7746975 -0.10874187 0.16221695 -2.3312693 1.2410487 1.4410428 -2.1116478 0.08261677 2.6959267 0.048979826 1.0599896 -0.15297051 -0.6131592 -1.6340793 0.007529761 -0.027177436 0.09896601 -1.7261102 0.2820672 2.3228266 -1.3897903 -0.8623192 0.41675925 2.4169083 -0.15267384 -3.314378 -0.17053369 0.7684999 -2.26272 2.3131673 -1.8361944 0.6784512 -0.32895187 -0.41038778
120 -2.5117488 2.6372633 -0.69501036 -0.7428727 2.145023 0.00865499 -0.85355884 -0.72402316 -0.7783664 0.6324074 2.7901318 -2.0189736 -4.1056094 0.065217756 -0.91534513 1.5606335 -1.389641 -2.302013 0.15663448 0.37791806 -0.7917512 2.4343662 1.4336883 -2.1336732 -1.5968736 -0.76196456 -1.4457898 -0.51234984 0.86613554 0.96298295 -1.1445024 -1.0248479 0.5379506 0.11534095 -1.4856249 -0.43219015 -0.59735674 -0.5514012 -1.2310113 -0.45117122 1.1434637 -0.037036546 -0.038000956 -0.8038432 1.6904583 1.3441002 0.03618737 -2.4913566 0.7366265 0.6212076 0.3799188 2.1444905 -0.0013669817 3.2854247 2.6945884 -3.6079469 1.6226299 -0.94911104 0.37398377 0.93339616 -3.2498505 0.6465085 -2.3092787 -2.2036207
121 0.44593704 -0.18398482 0.51536274 -0.41806167 1.2320536 -3.2026808 1.5916457 -1.041619 0.034152698 -1.0716883 1.1094116 0.33885515 -0.8145536 1.4183387 -1.2381968 0.0013026799 -0.35781756 0.98628277 -0.11840743 -0.49567062 0.9071178 2.170155 1.2048552 -1.0039835 1.047934 -0.49090633 -0.33500752 0.19741401 1.0610313 -1.7010121 1.242621 -0.17231634 1.7864202 -1.3959047 -0.37975845 0.6026604 -2.5226946 1.0154068 0.9761896 1.4058889 0.042032376 -0.76952064 0.5457259 -0.9787888 -1.2123235 -0.3675682 -0.25556427 -0.55602264 0.4744034 -0.06849932 -1.1896514 0.39664143 -1.0703318 2.054126 1.606391 -1.86989 1.8461298 1.1160866 -0.9895488 0.058560465 -3.8077488 0.26969165 -1.9413185 -1.0182319
122 0.52116466 -0.4583582 0.5738804 -0.3656401 1.0163081 -3.0817204 1.7189779 -1.2117643 -0.14432126 -1.102418 1.0256239 0.20965266 -0.7473159 1.4090801 -1.3456887 0.020019984 -0.39651993 1.0599489 -0.20688821 -0.4574934 0.92797786 2.1442819 0.9057444 -0.81862414 0.95674783 -0.70346594 -0.1556145 0.3736641 1.0763253 -1.3661983 1.1514242 -0.40127096 1.7360286 -1.1190145 -0.14618665 0.5487453 -2.424208 0.95615417 1.1932019 1.3762735 0.0054826983 -0.6964569 0.27704483 -1.2975692 -1.3445175 -0.45536697 -0.10190934 -0.758479 0.74668044 -0.20294698 -1.1208842 0.27101108 -1.1326245 1.796403 1.456672 -2.0560405 2.0186405 1.0619329 -0.6917993 0.22066085 -3.6355078 0.23711883 -1.7312233 -1.0626992
123 -2.7188814 3.4093366 1.8002867 -0.37661657 -0.15824729 2.4043753 -0.9556507 -2.005678 -2.3437624 -0.652004 3.8422914 -2.0294144 0.6338258 2.1370096 0.16808312 2.2385046 -1.5315028 -1.1738578 0.16565333 0.008808704 -0.57566965 -0.07041944 1.6023927 -2.2581937 -0.646919 -0.93749905 0.07164244 1.3023394 -0.96501935 0.6915507 -0.99254465 -1.7964544 0.1742447 -2.800816 2.237297 0.7041582 -2.3542032 -0.4915502 -0.9593266 2.1755304 -0.6341323 -0.2943367 0.86847425 -0.81566966 -2.2227442 -0.015412555 -0.61828125 -2.14806 0.95491743 1.4482646 -0.56161165 0.31609872 -2.6812181 3.6243372 0.9538766 -1.0919807 0.062464498 -0.9873722 2.6021802 0.8208635 -4.2190504 0.50159556 -2.8674047 -1.3534961
124 -0.3125818 1.2304835 0.5697355 -0.096649274 1.9865896 -1.6100959 1.4059055 -0.490718 -0.05019542 -0.5332384 2.6833947 -1.0011752 -0.8976243 2.4043565 -1.7328913 0.22595543 -1.5495002 -0.8160099 -1.6709465 1.7749648 -1.1570604 1.4646374 0.16826515 0.055209696 -1.4858116 -1.0020485 -0.42924002 1.6120023 -1.5940188 0.012621915 2.452196 -1.6062399 1.5204134 0.08738328 0.050466396 1.8015561 -1.603361 1.2710298 1.7634671 -0.22152467 -0.24141106 -1.3121439 -0.27007067 -0.2616312 0.3037725 1.0988624 1.4160924 -0.51838356 2.3318954 1.140357 -2.1507196 1.4617287 -0.27841988 0.061255336 3.0174 -3.0906644 -0.05250615 -0.5729509 0.12417327 1.6042652 -3.0707731 0.15337414 -1.4858209 -1.5424229
125 0.48707196 -0.8691685 0.33313406 -0.53144044 0.64777076 -2.75064 1.8415766 -0.76611465 -0.23998447 -1.0630507 0.61881906 -0.013399932 -0.72979057 1.1815255 -1.4851416 -0.17760639 -0.2961864 0.9794942 -0.5595861 -0.42961645 0.60001385 1.6193533 0.5462948 -0.38541317 0.9383769 -0.90525645 0.023176387 0.28035712 1.1246539 -0.6502044 1.2090312 -0.79527897 1.1543022 -0.76716477 -0.022864435 0.6152274 -1.9069135 0.52838707 1.1081073 1.245554 0.3600504 -0.9403232 -0.13272285 -1.9206165 -1.1866142 -0.7204806 0.2663273 -1.2039648 1.1093777 -0.07603587 -0.72585994 -0.19659142 -1.2858102 1.1928816 1.4138561 -2.1286116 2.504838 0.93439656 -0.31684816 0.7377928 -2.8292372 0.5029663 -0.9195306 -1.1382515
126 1.1305414 1.8875867 0.58678126 -1.488899 0.24993324 0.1397634 0.72085136 -0.23210609 -0.8555783 -0.32739848 2.2078662 -0.63861245 -2.6857278 -0.031582557 -1.9240546 -0.058193974 -1.7224174 -0.5465317 0.16960737 2.4448624 0.33998537 0.88214874 0.09371333 0.79340816 -0.044254184 -2.2817914 -0.36479974 0.90902954 -0.28285277 -1.5854554 -1.6125131 -1.4568405 -0.0001617664 0.024374302 -0.93276334 1.7350372 0.33113775 1.3351749 0.387891 -0.21862984 1.831589 -1.8127933 0.24305129 -1.1792368 0.117193915 1.150298 -0.33344573 -1.7246858 0.12265033 1.3958391 -2.670378 0.0994452 -1.3211733 1.1402509 1.5388912 -1.3398702 0.7939921 -0.021990752 -1.9431664 2.379889 -2.131617 -0.106323555 -0.22913852 -0.17983563
127 0.053430256 2.975021 -1.5160928 -2.716454 1.5310522 -0.6561946 2.2790012 -1.4135334 -0.12128396 -0.5185126 1.3035935 -0.12937722 -2.83292 2.0256457 -1.959063 0.8928874 -0.08481531 0.49386483 0.784298 -0.2403784 0.65682715 0.8808515 0.21353504 -1.9048399 0.09458324 -0.55777156 -1.7883642 0.21007527 0.28938833 0.02195812 0.12709643 -1.7604445 0.20784545 -1.444333 -0.5406949 2.782081 -0.7347932 -0.98707294 -0.30547118 0.7079785 1.6193829 -2.661423 0.30708116 -2.5252943 -0.38649428 -0.6029186 -1.471283 0.6380218 0.10992757 -0.6931063 -1.888085 -0.52242464 -1.9056613 0.87566674 0.6203859 -0.34465468 1.7994863 0.6794523 1.3096998 -0.20279546 -1.0878432 -0.5376675 -0.58955586 -0.8556121
128 -1.0095909 -1.0976887 -0.65022993 -1.2262007 2.3309171 0.09607671 0.41424283 -2.5875587 0.62662303 0.33598542 2.0687146 -0.95609593 -1.6717024 1.5319346 -1.4653609 -0.57904536 0.013887797 -1.4903184 -0.7705814 2.2828622 -3.5563543 0.91807485 -1.4097224 -0.54428047 1.6941077 0.27875876 0.36775973 2.1526406 1.3904101 -1.1961935 1.05433 -0.6258432 -1.0928202 0.7581242 -0.9306307 0.5588473 0.29892582 1.1433306 0.67549545 -0.676607 1.0028896 -0.8820494 2.8495457 -0.36815473 0.3910898 -0.43979952 -0.44558692 -1.1850128 1.1569511 -0.46056658 -3.829673 -1.426503 -3.0913846 0.753559 -0.48965284 -2.875019 1.1355455 2.233441 -2.0667896 2.642722 -1.848716 0.70035386 -0.029783227 -1.342608
129 -1.4494001 1.6148192 -1.7773999 -1.7462928 1.7934936 0.57812595 0.7532695 -0.9320844 0.42906767 -0.3438475 1.3332108 0.09033833 -1.8965546 2.794313 -1.4792322 -0.24431197 0.6912811 0.028006995 0.8520228 -0.9652724 1.7896899 0.20716867 0.597168 -2.8417978 -0.09595512 -0.25542855 -0.69223076 1.2142833 0.31258938 0.26228058 0.6628208 -1.4141368 1.0622575 -1.6383449 -0.11153867 1.9997003 -0.55419093 -1.2441311 -0.60930526 1.5450362 1.473049 -1.7343527 1.2405403 -1.2224584 -0.22739106 -0.8770678 0.0022145314 0.41764006 0.65380704 0.2343253 -1.2384489 -0.82510316 -0.09063086 1.1543701 0.29708308 0.108879246 1.3210778 0.65848935 0.6377984 -0.62697506 -0.67900234 -0.2590756 -0.32800198 -0.6278234
130 0.5219219 1.5242972 -0.6142013 -2.8983696 0.8131479 -1.1526343 2.8546712 -0.81918985 -0.30129212 -0.6091658 2.12301 -0.5009895 -2.062835 1.7804143 -1.6451048 0.8389266 -0.8154798 0.38551044 -0.31268355 0.54747427 -0.76913345 0.487746 0.11013099 -0.95362383 -0.74167424 -0.038015757 -2.424696 -0.9705027 0.68416625 -0.42483714 -0.17321055 -0.72564864 0.43996122 -0.58821183 -1.42567 2.4704814 -0.86591595 -1.3752851 -0.28238067 -0.4106988 1.5868385 -2.2984016 0.6289649 -2.4002697 -0.24803774 0.29220816 -1.5412567 -0.401355 0.17168346 -0.30071574 -2.378639 -0.59643203 -2.225445 1.5155507 0.53132284 -0.76656324 1.5700738 0.10553453 0.36301053 1.2049835 -1.1532125 0.23344748 -0.6514173 0.26075524
131 -2.1637301 0.7202616 -1.2608421 -1.4499656 0.750536 -0.19427548 0.43773273 0.109543264 -0.8980153 0.00955343 0.10653957 1.1177913 -1.0116956 2.86394 -0.76208586 0.28123075 -1.7754536 0.2586444 -0.41380456 -0.17819856 -1.0837358 1.4391474 -0.03395052 -0.2730846 -0.704454 0.9426186 0.7395864 1.5121597 -0.13395274 0.61798936 1.233612 -1.4049742 0.7692001 1.2298158 -0.559462 -0.0072468063 -1.9212655 1.4277436 0.8676476 0.9554772 -0.9064515 -0.6044762 1.0840302 0.585874 -0.4543084 2.003975 0.22278853 -0.85630614 -0.4960378 -0.65200764 -1.2586659 1.3431976 -0.5869505 -0.86961925 0.50722826 -0.49016064 0.9674056 0.73456913 -1.0485933 2.3821409 -1.6225467 0.46384576 0.21428391 0.42503497
132 -0.47496715 3.1719577 0.74685663 -1.4599942 -0.17185561 0.80213386 0.6647518 -2.061949 -1.251974 0.6927107 1.3403856 -1.3147767 -0.078683026 3.2818766 0.15460204 0.6454454 -2.2857049 -0.6701834 -0.8990177 0.24603857 -1.7299476 1.6282529 1.472868 -2.4316015 0.17299855 -1.4426711 -0.17099269 1.1923906 1.2296052 0.42680672 0.2873744 -1.9502788 -2.0697644 -1.7451012 1.1765277 0.5705277 -0.93375623 1.4263414 -0.43137056 3.1687407 0.8654223 -1.5281837 -0.14725873 0.2984154 -2.5800002 -0.55877024 -1.2212855 -1.3334204 1.6595662 0.7660651 -3.704167 -1.2944249 -3.5113847 2.5725389 2.4696724 -0.58718437 1.1822325 -0.1567643 0.74721646 -0.3571543 -3.2928038 0.46260077 -1.7004786 -0.6785714
133 -0.04746267 1.314111 0.113889575 -1.7445468 0.7852467 0.4917633 0.8353659 -1.6395973 -0.41970822 1.255997 0.64152646 -0.47513944 -1.1554508 2.9158742 -0.36130777 0.6368829 -1.3911725 -0.83217925 -1.7795054 0.79077864 -1.6534463 1.4376072 0.24370712 -1.0533938 0.25570473 -1.3738356 -0.6050715 0.33584127 1.6764168 0.283641 0.6637397 -1.1567672 -2.2485175 -0.2335325 0.065633066 0.5344537 -0.65731764 1.7933586 -0.27789193 1.9291489 1.6186045 -1.2058514 0.21912725 -0.050267145 -1.8005395 -0.32366353 -0.84807986 -0.9474915 1.9583833 -0.16520321 -3.3711386 -1.897734 -2.4022908 1.386296 1.5421785 -1.3736587 1.2275153 0.8918983 -0.35918194 0.5065489 -1.980394 0.533736 -1.1301227 -0.14979117
134 -0.5998896 0.28068212 0.020979596 -2.5573668 0.8444112 -1.8601882 2.7259152 -1.0255424 -0.16220446 0.19502541 2.3974402 0.009025925 -1.0599178 2.1407652 -0.77721566 -0.83903784 -1.2839636 0.05099847 -0.86435914 0.5532511 -1.9352661 0.9594474 -0.55224484 -0.51036644 -1.105716 1.7971934 -1.6423309 -0.8977594 0.7263015 -1.1048505 -0.4379631 -0.30661836 1.9023986 0.7587448 -2.0824091 1.4706447 -0.9906904 -0.7658628 -0.020117296 0.04214086 0.48170054 -1.7733846 0.9078231 -0.72574055 0.9050808 1.8132592 -0.43134457 -1.378684 -0.48834774 -0.16170225 -2.6187758 -0.31092528 -2.7788088 1.5489312 0.26793095 -0.34275606 1.6707186 -0.8598421 -1.1695466 3.028002 -2.0266018 0.6037363 0.45386827 0.42150396
135 -3.9974544 0.59882236 -3.1849499 -2.4510112 1.1640716 2.0802593 0.77554256 2.2019658 0.21760315 -0.3151738 1.1292042 1.1954118 -1.397135 3.091401 -1.1836448 0.6303483 -2.1777582 1.072959 0.056877136 0.39899114 -2.3657095 2.3648646 0.37641266 -0.13724594 -1.0857074 -1.1928352 1.0435301 2.9578872 -0.8260896 0.49611366 0.8696666 -2.232497 -0.80252683 0.055004332 0.2630599 1.507436 -2.4293594 1.8874362 1.4200604 0.7873375 -1.2155983 0.008051483 1.665598 0.47231033 -1.323233 1.8357478 -0.053304464 -0.6906493 -1.2204349 0.5367711 -0.5675122 1.5134265 0.5572613 -0.19773717 -0.94581455 -0.9247565 1.289583 0.17820667 0.33438566 3.0149252 -1.4732543 -0.13848539 -0.36765704 -0.34437463
136 -0.20447907 0.6685238 -0.24240744 -1.4658132 1.4186902 0.63601667 0.3025346 -1.9341321 -0.19631547 1.080624 1.0853826 -0.8825239 -1.4132028 2.3450766 -0.47707087 0.1732274 -0.8684215 -0.8739409 -1.2304242 1.1849145 -2.2879748 0.94841295 -0.01762222 -0.70718163 0.19252388 -0.547471 -0.13704269 0.88131315 1.7457741 -0.20399982 0.82751685 -0.8701962 -1.758018 0.18990758 -0.17429855 0.43038657 -0.45142952 1.2921281 -0.45798877 1.1331695 1.5177875 -1.3368435 1.6313282 -0.08798803 -1.2438692 -0.5293107 -0.82161313 -0.7921169 1.7759744 -0.2668708 -3.3585954 -2.3511524 -2.388321 0.98794305 0.97990453 -1.4930986 1.2215033 1.6656604 -0.5215824 0.82156837 -1.5688957 0.77545494 -0.80894005 -0.4328794
137 -1.4757628 -1.2813581 -0.69353694 -1.2808343 1.6341907 -0.276782 0.43588093 -1.9746172 0.5769397 -0.080565296 1.6282932 -0.12252107 -1.1646392 1.1965346 -1.4664441 -0.39563033 0.26259056 -1.1644764 -1.4312756 2.1327176 -3.0656536 1.6264321 -1.8384917 -0.9119881 2.0744972 0.4034997 0.549044 1.877803 0.6945466 -1.2215945 0.4844887 -0.80292267 -0.454533 0.4173114 -0.8215823 0.3104847 0.5053081 1.0659542 1.2657866 -0.6802479 0.7758457 0.02199394 1.6328372 -0.10162894 0.9444169 0.4233774 -0.30622754 -1.2652321 0.80815077 -0.31547844 -3.2260818 0.28449762 -3.0230672 0.97038925 -1.0736902 -2.7866488 0.67177737 1.46818 -2.0235355 2.8213072 -2.1020644 0.2625825 0.35288116 -1.3970153
138 -1.0223725 0.38898143 0.1841424 -2.5475523 0.73790103 -2.352594 2.4557586 -0.88159597 -0.2021687 0.36989293 2.0364401 0.5112071 -0.88861126 2.3302643 -0.5534336 -1.0477253 -1.3847178 0.20716445 -1.3495638 0.35153896 -1.8556551 1.5532656 -0.65862405 -0.6039968 -0.9573597 2.018098 -1.4278045 -0.77576506 0.2107981 -0.99547213 -0.48723286 -0.48943454 2.0395064 0.87091565 -1.7358898 1.1907623 -0.99404204 -0.17924121 0.22657238 0.57338893 0.26508743 -1.4019481 0.16883257 -0.34878317 0.9510137 2.4744031 -0.1758518 -1.624373 -0.6479279 -0.0688341 -2.3550723 0.44748437 -2.8584735 1.6363366 0.36895064 -0.31979835 1.5870346 -1.0351274 -1.3973055 3.23829 -2.3982077 0.50177324 0.79476106 0.28597337
139 0.52174723 2.4006293 -0.87660617 -3.1450229 1.1000501 -1.0723791 2.975379 -1.0045283 -0.11134508 -0.7223255 1.6942997 -0.23084497 -2.5922 2.0748281 -2.3623714 1.3478448 -0.3903793 0.4989093 0.03545875 0.18535349 0.28795356 0.77365416 0.14366227 -1.5305388 -0.2433004 -0.65580493 -2.7084727 -0.6440122 0.3991569 0.04926814 -0.015247797 -1.3949835 -0.026116082 -1.052225 -0.9974891 3.0974913 -0.94203115 -1.2290716 -0.015271299 0.060105342 1.7528304 -2.388367 0.033098686 -2.9792325 -0.6400501 -0.28282216 -1.285105 0.20724154 0.20099401 -0.63967204 -2.1107702 -0.38318026 -1.8844216 1.3246465 0.58025634 -0.9752644 1.7290993 0.6561989 0.83173364 0.7256589 -1.1685874 -0.12758426 -0.89064085 -0.18679285
140 -2.4137218 -0.7850878 -1.3959485 -1.6267542 0.9057531 0.033450313 0.044761527 -0.46423832 0.028495453 -0.19570081 0.5286129 1.2564673 -0.5619114 1.9889188 -1.1165898 0.028345304 -0.027788915 -0.5593742 -1.64467 0.842089 -2.248198 2.4494534 -1.6274118 -0.71596664 1.0520602 0.69083565 1.3793042 1.7778597 -0.33091986 -0.71052396 0.48526114 -1.3207659 0.40858075 0.2586328 -0.65585864 0.0022548463 -0.7336688 1.5012562 1.5862494 -0.102698706 0.08501685 1.145471 0.9152602 0.87853205 0.6248934 1.5987121 -0.33564615 -0.66542286 0.27419397 -0.5507528 -1.9871154 1.9184453 -1.3928665 0.4918648 -1.1024473 -1.9981974 0.34852734 1.0611451 -1.2541909 3.0119352 -1.6790512 0.3064108 0.6771187 -0.6067616
141 0.0713424 0.93432873 -0.301608 -1.3375293 0.98559666 0.21863067 0.58433276 0.38824058 -1.0882741 0.036503434 0.40710312 -0.14573362 -1.4306135 0.1115363 0.014705453 -0.7682841 0.07958315 0.76233256 -0.95815265 0.012382065 -0.44603994 0.2027517 0.6589573 -1.8417923 -0.4208442 0.6932983 -1.760833 0.8408418 -0.045159362 0.4058735 -0.46696025 0.13552405 -1.1412419 -0.12090169 0.9890084 1.3540119 -0.342117 0.86015403 0.3658826 1.0707566 1.5289644 -0.25897023 0.89346623 -2.2881544 -0.60173845 0.6505724 -0.9444686 -1.6585962 -0.39998576 -0.34613946 0.42626822 0.12885273 -0.65545803 0.86622906 0.25684682 -1.0590397 1.9143453 1.2405446 0.8871662 0.42367536 -1.4523113 -0.17757069 0.92943805 -0.59472317
142 0.047283836 -0.12239468 -0.33874124 -1.2742718 -0.4670437 -0.2894517 1.721327 0.789117 -1.1946927 0.83382356 1.47169 -0.3935663 -1.180473 -0.22184499 0.4293399 -0.67236173 0.1808797 0.5665585 0.2367063 0.023115378 -0.26539853 0.751235 0.41822347 -1.2619582 -0.3786691 -0.6972568 -1.9315243 -0.66645783 0.50886714 0.1424623 0.59142905 1.478847 -1.6367046 0.8232349 0.73864985 2.2785556 -1.9177098 0.6824225 0.18560733 2.4162118 2.2263057 -0.5750288 1.8625262 -0.86194795 -0.5487324 0.6289538 -0.27757576 -2.2317872 0.2810559 0.36835444 0.06335205 0.8606912 -0.598757 1.4318444 1.6765494 -2.2324028 1.2112557 2.2031775 -0.35919228 1.5087631 -1.4134667 0.93855685 0.041129436 0.6209896
