207 64
0 -2.172747 -0.1520526 3.3317554 2.2938845 -0.52925897 -1.1170427 1.7446895 1.4273627 -1.025028 -2.3637156 -2.1764765 -0.10928484 0.7066279 -1.7985635 0.10616947 4.2662888 -5.3213835 -2.135082 -0.45125183 -2.8178015 2.0477865 2.6527033 4.145322 2.1974783 -1.9113389 0.94430405 -0.7807493 0.87717295 2.6774719 1.5350368 2.4070039 1.9771658 0.52260154 3.338366 -1.7084591 0.7394574 -0.5213576 -2.4391356 2.3096538 5.489545 -2.678688 0.5558526 -0.8349921 0.79841024 -0.5873389 -0.5324188 -3.5537713 -0.38499448 1.3828971 -3.1994205 -0.9564829 -2.2606955 0.949512 1.3106015 2.3506472 -0.9073667 -2.0721402 -2.4567864 0.59934217 -1.3861438 0.47780514 2.4863284 -0.94119287 -4.11956
1 1.5190018 -2.4196746 0.17832291 0.5571379 1.6268455 3.0514805 1.3963232 -0.7847341 1.8268715 -3.584885 -1.8846643 1.9664546 2.062531 1.9589044 0.3873404 -0.8847586 -0.1031094 2.789919 1.6857514 2.7475417 1.7811646 3.0563784 2.549092 -2.9318779 -2.282024 -2.3522842 -1.6956732 1.9811525 1.760892 0.11710102 -2.9395325 1.6272455 0.21972802 2.4101834 -2.1276245 -0.5916713 0.70229864 0.81896657 0.55783606 -0.08791193 -0.36797428 -0.597946 -0.048193663 -1.5101001 1.7831148 -0.10589721 -1.0476363 1.6727881 2.3651884 1.7789805 -1.0065308 -1.4491479 -2.6751268 -0.09707138 -1.3886113 1.241856 -2.8699398 -1.0148562 1.6947119 -1.1731066 -1.2316452 -3.547144 -0.7131481 -0.3269284
2 -1.3826545 -0.46656403 0.968769 2.1532936 2.6891918 -0.437407 0.92099625 0.061349425 -0.29374722 0.55165327 -1.0269418 0.7720155 1.7071995 -0.11807379 0.76936805 1.5439336 0.8314848 1.6914701 0.9496009 3.2244332 1.0703893 2.9578028 1.0737139 -2.2065864 -2.628232 -2.2987041 -1.6103692 -0.6196573 -0.8859279 2.5814009 -1.8504894 1.537657 -2.1153686 -0.86110127 -0.22147582 0.78078043 1.3727233 2.0302281 -0.3647433 1.1780752 -2.300215 -0.66175175 -2.0828607 -1.004083 1.859873 -1.1955059 -0.5640027 -0.1722823 0.37761557 0.017352762 -0.11010234 -1.6540705 0.91782385 0.07264653 -0.35048264 -1.6570334 -2.499001 -0.80771214 -0.15015507 -0.6308527 -0.88104075 -1.2728099 -2.962792 -1.5834622
3 -2.6258113 -2.6212244 1.8304212 0.07022498 -1.3467319 3.2358422 0.05971992 3.1411898 -0.5176774 -2.2361753 -0.4241702 0.57417035 1.3313026 -0.1601793 1.8330144 -0.44722608 -2.6918106 -0.13318212 0.5543377 -1.350723 -2.572408 0.89338106 -0.14150369 -2.3600073 -2.754833 -0.38167226 -3.5887694 0.99633664 1.3957247 -0.7430344 -0.85077846 1.4393692 0.9499804 3.011849 -2.1531138 1.3189121 -0.28598353 2.0438952 -0.11527735 -0.29719487 1.0783179 1.5365323 -0.7430041 -1.7614076 1.2851522 1.2328447 -1.0172979 3.5409334 0.23356432 2.523361 1.1432949 -2.2602983 -0.53590876 2.769126 -1.0749117 -1.2530922 -0.2009082 -2.6005225 -0.033476137 -3.0861099 0.91392547 -0.36750042 -0.8116463 -1.2040001
4 2.0725403 -2.1930625 -0.19106852 -1.1210549 -3.3226674 1.9192523 -0.46004337 1.3953701 1.4983503 -1.1108028 -0.7228254 -0.80982727 2.7266462 0.5461488 -0.07757336 -0.017096417 -1.0145516 -0.8823196 -1.7654356 1.5440692 -3.0930505 2.5699434 -0.004722845 -1.6938224 -1.6801912 1.9270484 -1.6310388 2.217765 0.13731652 -0.9253276 -2.948572 3.4577875 -0.9409255 0.16122386 1.1881336 5.0326686 -1.2416086 2.0289512 1.9015019 0.37949276 -1.5812169 0.087365314 -2.3952055 0.5973265 3.7124276 -0.08786609 -0.1066336 2.3177416 2.9446821 1.3697779 -2.2737288 -2.327725 -0.041257277 1.135605 0.22469524 -1.4178337 -0.5297538 -1.0441681 -1.019579 -3.0220869 -0.492858 -1.2719905 -1.3746024 0.15330072
5 -3.127004 -2.1162758 2.2186096 -0.13874091 -1.376786 1.2127583 0.33306432 3.2895498 -1.3390102 -1.8724072 -0.3742466 0.08113712 2.0697193 -0.26488027 2.6890697 -0.124801226 -1.8133109 -0.6594374 -0.58156025 -1.4454005 -3.37327 1.4329914 0.039313883 -1.3497006 -2.8704245 0.19556853 -3.2034392 0.009388675 0.7282083 -0.9498418 -1.5616652 1.0912374 0.5091774 2.3297138 -1.9485574 2.145159 -1.400909 1.9583447 0.9520524 -0.76513386 0.6774118 1.5451126 -0.858921 -2.2641854 1.4809523 0.9017354 -0.9345451 2.959869 1.579441 1.9938167 1.9626734 -1.8985438 1.0529473 2.3104634 -0.7111582 -1.7816144 -0.76552653 -2.5244012 -0.99784666 -3.09963 2.4151945 0.09119214 -1.1207824 -1.3415265
6 1.330735 -1.9708467 -1.5635494 -1.6623535 2.4998643 0.8793911 -2.327548 -1.2640346 1.7452086 -3.0042098 0.12064249 -1.5516157 0.8826938 -0.8476865 0.62897706 1.2832373 0.9717416 1.2435628 -0.9605164 5.039789 -1.7255207 2.4149768 0.9680011 -1.4955688 0.3455898 2.2407882 0.06951873 0.15988731 0.32176906 0.53991026 -0.58456635 1.5220051 -0.33712727 -0.11754623 -0.18653075 -0.18527283 -1.581814 -0.60988677 2.0607295 0.41102722 -0.18082081 0.14600392 0.10882274 2.5608737 2.8176517 -2.9898744 0.32360417 0.9501215 1.8910264 -0.9848331 0.7607827 0.044612102 -2.5838525 2.4083283 -3.7235618 2.0124216 2.5701206 -1.4668897 0.26003006 -0.9938678 -5.027392 -0.6932321 0.34590855 -2.0059326
7 0.33621046 -3.272995 -0.28087792 -0.27157587 1.2369149 3.6998959 0.75462425 -0.06391277 2.0851884 -3.4897604 -1.4017135 -0.32107577 -0.0861381 0.8099863 1.2032961 -2.145271 -1.7299231 1.1857513 1.1926613 1.6120849 1.5193864 2.1044717 2.4027689 -2.7457106 -1.275167 -2.411437 -2.4986885 0.6233421 0.63390404 -2.2564278 0.010717189 0.8080918 1.5419745 4.554671 -2.5308905 -1.0917624 -0.42668113 -0.47398698 1.8435428 0.06556871 1.3201784 -1.108662 -0.51879704 -0.07107379 2.4063363 -0.9025012 0.68243974 0.88933057 0.67588043 0.5617991 -0.51233834 0.9912592 -3.9405103 -0.56676763 -1.6711152 0.98580587 -1.1632581 -1.7755656 2.048273 0.47880468 -1.9905281 -4.0110116 -0.7530242 0.70401603
8 2.3192701 0.1899273 0.9389842 0.30306712 0.7361478 -0.6345262 1.0087429 -1.1566143 -0.0957058 -0.89663416 1.4216291 -0.7508613 0.041235313 -1.1713009 0.62782866 1.5307382 0.36178038 0.5717641 0.024131773 0.23147531 -0.9210351 2.4091668 -1.6289518 -1.7508669 -0.67904514 -0.5622814 -0.33036685 1.3783864 0.6544109 -0.41422153 0.27117392 1.9415761 1.1210458 1.1550415 -0.35844275 -0.29059145 -0.27917546 0.54840374 0.055075917 1.2363068 -2.6940534 -1.2373052 -1.89247 -0.27078158 -0.3962989 0.51044244 0.04035585 1.5099857 0.1842658 0.244037 0.09105669 -1.5680549 0.043819804 0.75075656 -1.0830238 -0.8315044 -1.0412737 -1.7985483 -0.6396843 -1.060439 0.22014566 0.7541683 -1.4581785 -1.2154992
9 0.04324308 -0.9094702 1.1422719 3.2442198 -0.18092236 -1.4166094 -0.71292126 -2.2647693 0.62040055 -1.3671968 1.7106013 0.39562982 2.9470153 -3.9760606 -1.3869662 2.2371914 -0.89441526 -0.43969712 0.42939204 0.7792999 -3.9410257 0.40262374 -1.0218879 -2.5306401 -2.1397512 -0.31866074 -2.4160235 -0.024453454 -2.538169 0.45592773 -2.0680842 2.4924603 -1.1324347 0.21159741 -0.9088423 2.4893064 2.5741725 1.695745 -1.081521 0.7454944 -2.1628156 -1.3496908 -2.2815294 0.7274313 -1.1070887 -1.277453 0.6195321 1.3757968 2.0808668 -0.9880631 -1.9154454 -1.350624 1.7481095 -0.81117857 -0.16715845 -1.901876 -2.063846 -0.7969326 -2.343228 1.2098247 -1.6677994 3.2470345 -0.6516597 0.09144125
10 1.1860883 0.05750089 -0.8474375 1.1871485 -0.8643576 -0.98761433 0.4500157 -1.6612653 2.3042946 -1.3626602 0.93758833 -1.5390462 0.6934594 -4.1274033 0.09286745 0.67117083 -0.41637543 -1.1120906 -1.1028712 2.710021 -1.0237147 2.2185674 0.9539249 -2.3641338 -0.69446176 1.9844767 -2.444925 -0.7846258 1.0534471 -1.5892862 1.0255408 -0.45337814 -1.0888104 0.31887746 -1.398484 -1.2975868 -0.42564526 -1.9942831 1.6319054 -1.4196132 -2.1387947 -3.8705232 -4.197806 -0.40490195 0.3744586 -2.178486 0.7417819 -2.2543871 -0.24214616 -1.486128 2.2245138 -0.7389138 -1.1959674 1.6412289 -2.9340796 -2.326694 1.6412051 -2.7958236 -2.3367474 0.12155393 -3.056872 -2.619005 -1.3507121 -0.31001246
11 1.7908362 -2.2058442 1.4339886 -0.056746762 -1.8611869 1.0800258 0.61945176 -0.8564318 1.1315423 -2.6230984 -0.25549418 1.5516605 0.083043456 -2.9115157 0.71985173 -0.4188427 -1.567471 0.9313915 -0.8600499 0.8751166 -1.0136968 1.33029 -0.59874624 -3.619298 -1.317478 0.58477616 -0.29474384 1.3581765 1.0689203 -1.4715843 0.24740505 1.1471932 -0.14026375 2.195983 -0.38560426 -0.1441522 -0.20323825 -2.292896 1.7563657 0.87695223 -2.188044 -3.4848864 -1.3687398 0.24433973 2.2329297 -0.21565866 1.8477523 -0.6267346 -0.20620309 -0.5286798 -0.3991922 1.4867786 -3.1705384 1.4258317 -2.3391504 -1.110854 -1.2339169 -1.8183106 2.1498218 -1.3041887 0.17737895 -0.23435669 -1.4660435 0.7565649
12 -0.4777861 -1.0268652 1.890201 -0.06822769 0.8444922 2.2520058 -0.69414306 -0.77845174 -0.8917578 -0.6131241 -0.0011724364 -0.70957124 -2.1731648 0.30706573 2.9318833 1.9786702 -2.435663 -2.9980528 2.0449078 0.84558266 -1.6641209 1.558713 -1.9530231 -2.6033301 -2.5864694 1.9535582 -0.13843545 3.124256 0.11510142 0.62920856 -1.5806752 3.882692 -1.4977162 0.29701427 0.40996948 1.8886783 -0.8293015 3.1771085 0.5719285 1.429472 -0.80410177 2.0466619 -2.2426476 0.59651506 1.479783 -0.24819572 1.7048206 1.1935446 -0.123393595 2.0154757 -2.3359783 -0.3127777 -0.71050644 1.0704019 -0.046868116 0.034676433 -0.92059195 -0.9657515 -1.669463 -1.5548136 -2.425265 -0.21620731 1.5955343 -2.87986
13 1.3314211 1.1754643 -0.93062586 0.23584056 -1.6341431 5.0419135 0.9030094 2.08513 -1.3946096 0.3289086 2.6728287 -0.55807096 2.194092 1.441281 1.8889366 0.688177 -0.4056858 -0.45550215 1.7352723 -1.0278908 -0.8195072 3.8839579 -1.5662225 3.8003888 2.6200619 -1.2333305 -1.5761218 3.715328 2.1284966 -1.4728146 -0.8288015 -2.3814116 0.110716805 -2.181965 0.4235413 -2.1470835 -0.6091969 1.4875233 -0.85914385 2.083058 -3.6758952 -1.3897499 -1.1381689 3.5886722 -1.1285076 -2.7390869 -1.5899129 1.9614822 0.69714737 -2.8487937 0.98381823 -0.61077946 0.48973253 0.4641432 -3.4376254 -2.5620892 0.9109587 -5.18149 -1.3381687 -0.95425725 -2.6826773 -3.2252326 -1.4160138 1.0084981
14 1.0006192 -0.049787566 0.8474927 0.20571671 0.7948408 -0.012477064 1.4650502 -0.61733407 -0.4423977 -0.6180298 1.6407379 -1.4378893 0.050406586 -1.1520511 0.69389355 1.1227689 -0.53598344 0.08928796 -0.37070903 0.2617308 -1.751625 1.5184443 -1.0606958 -0.72480476 -0.9747134 -0.8884964 -1.1734532 0.80420655 0.3385729 -0.7343767 -0.6680589 1.3707391 1.6604924 1.2574154 0.50901294 0.57644415 -0.03697993 0.9464088 -0.051808875 1.1477859 -1.7443383 -1.3364578 -2.2350242 -0.30738097 -0.12346513 -0.14217973 0.19664685 1.7526677 -0.032840483 0.013404497 -0.19885534 -0.8056939 0.100284114 0.38948837 -0.5379093 -1.1749343 -0.55057704 -1.5256243 0.007985889 -0.6308075 -0.45358875 1.3203588 -1.483672 0.041291494
15 1.5023651 -2.5557635 0.010815144 -0.9224128 -2.7402947 0.17584503 -0.7220664 1.0290229 1.4434725 -1.0071286 -0.78443086 -1.7957774 2.190402 -1.0039191 -0.041409332 0.21229947 -0.3356497 -0.50334394 -1.6668726 2.8875864 -2.3874831 2.3422136 0.6897258 -0.48200393 -1.9467379 1.9368172 -0.7383068 0.8792838 -0.00050507986 -2.0923953 -2.2112896 2.8876123 -0.34679422 0.5179617 1.0062491 4.42574 -0.6649562 1.4673454 2.426395 0.16826113 -1.6471406 -0.47721967 -2.1784675 0.93846315 3.3651402 -0.23215795 -0.14985994 1.2885841 3.5623505 0.35989687 -2.1338165 -1.3572365 0.5818379 0.9850342 0.7130145 -1.4954724 -0.2579327 -0.4218264 -2.0243177 -3.1928616 -0.56348145 -0.37674922 -1.6675805 0.74821293
16 1.0657783 -1.9167635 1.0069761 -1.3409724 -0.6898195 0.89449704 -1.6512544 -0.7057945 0.3163533 -1.4284307 -0.08949425 -1.0538378 3.3043847 -0.5059838 -0.5518293 2.4263978 1.8649873 -0.026257394 -1.8133227 -0.07384947 -0.6602817 -0.59036833 0.6630477 2.3372629 0.2562251 -2.032718 0.06758539 -1.6616565 -1.207346 -1.9962271 -0.9766057 1.540198 1.2276855 -1.0809798 0.21130368 2.0182347 -2.8523054 3.758031 2.4297912 2.6088226 -1.5993681 2.6542094 1.8652117 1.9166125 -1.0189481 1.0020974 -0.22016114 2.7550058 -0.036327012 -0.020140104 -4.365731 2.559226 -0.5048747 1.1673456 0.9715261 -1.3054719 -0.23369999 -0.08295335 -1.0998285 -0.25894225 -0.44768372 0.9787319 -1.6258123 -1.7230233
17 -0.39014843 -3.4140959 0.9808438 1.302333 -1.1582607 3.6557314 -1.3695002 -0.21355689 0.26913655 -2.0692985 0.014513425 0.3037486 -0.5304064 -0.6470198 0.32582015 1.3990304 -3.4056447 0.4341602 2.8816125 0.65290475 -0.3702524 1.1875149 -1.0932384 -2.4516156 -1.8171786 -0.8466757 -3.615701 2.1263726 2.2963693 -0.9893149 -0.4189286 2.3115113 0.82383114 2.8211446 -1.2175419 -0.6586136 2.0542262 2.6815991 -1.2125926 0.46929505 0.38124302 0.18208845 -1.2157154 0.81990373 1.4078948 1.0702754 0.6060952 2.7415583 -1.3468224 1.7106682 -0.69183195 -2.1916628 -1.4890299 1.70294 -1.464533 -0.92736506 0.95102334 -0.85602206 -0.4978939 -2.7543442 -3.3259234 -0.7193956 -0.49175838 0.07768579
18 0.75098395 -0.8978903 1.7992399 0.9094583 0.56755453 2.0787547 0.5935212 1.2753634 1.7422851 -1.993413 0.16672756 1.1414958 -1.2578492 -1.66189 0.057475794 0.7593879 0.46130002 0.63543254 -0.7054198 1.200665 -0.81174976 1.2747205 -0.15659301 -1.1910403 -2.1080682 -1.2086594 0.38774827 -1.8079424 1.9221877 -2.421152 0.56369036 1.1438323 0.17405723 -0.58372945 -1.5482972 -1.9626254 0.76690257 -1.3288432 0.14643328 -0.1847887 -0.7994757 0.0032782312 -0.74998915 -0.76829016 -1.3616663 1.6369915 -0.32659775 -0.3806711 -0.118723445 0.5713227 -0.54627347 -0.63299537 -0.21589191 0.39563343 -0.92838794 -0.4610614 0.42083412 -0.9808127 -0.7622423 0.32791534 -0.4428833 -0.52679807 0.078053 -0.9443644
19 -1.2782978 -2.7384028 1.2625165 -1.2578679 -1.6892724 -0.6687209 5.0131903 5.0427465 0.82037497 -0.48227698 1.3472981 1.1889484 5.438838 0.51065814 0.42052066 -0.7745473 1.5874057 1.3986355 0.29778773 -0.36324957 0.19759116 1.7813088 0.47031242 0.5022117 -2.1476386 -3.961306 2.2389224 -0.4599443 -0.31467247 -3.938752 0.47165093 5.5625095 2.5465174 0.37139323 -1.1203473 0.471011 0.7575373 -0.1922506 -1.942138 3.4750853 -2.267624 1.9416043 2.5653284 -1.9159299 -2.6142535 4.5904975 -4.909608 1.950925 1.6761794 2.5471745 -3.2502918 3.4836574 -1.0923746 0.7222346 0.02832724 -0.6614076 -3.1536112 -0.95641863 2.7082362 0.5945214 0.81574684 -0.21305056 -0.47881943 0.7460857
20 -2.2275581 -0.94766515 1.8082465 -0.9210424 -4.2954774 -1.3257593 3.922996 3.3581755 2.582705 0.4164413 2.6521375 -2.1269646 0.748514 -3.5934954 1.9255389 0.9899696 2.1371703 -1.7952641 -3.497893 2.9431305 3.3613532 5.72464 0.19281086 -0.104936466 -3.6125875 2.132044 -3.5374925 -2.7020688 -1.8916196 -1.6580027 0.40970966 -1.3942176 2.616768 1.7966579 -4.5437 2.4923213 1.4624853 0.32152742 0.030099133 2.436544 -2.6899283 -0.6721445 -1.1092722 0.9567583 -1.0958607 0.97144544 -2.3062437 3.0779371 2.1903768 -0.26983815 -2.7281015 -1.0056527 -3.345388 -1.9439131 -0.011573921 -4.1757164 -2.164116 -1.46655 -1.1968123 2.2264743 0.26684248 -2.6178503 0.12802269 -1.7433637
21 1.0037287 -0.6192806 1.6330276 2.2484057 -1.4615772 0.87231743 -0.76345557 -0.050138406 2.7626367 -2.4628727 0.37842214 0.46340665 0.7603538 -0.6254388 0.40617257 0.42730868 -0.72492874 1.9762182 -0.9137958 0.015516918 -1.5050093 0.94653475 1.3119191 -0.77684826 -0.97827804 -1.2257249 0.23538613 -1.8973899 2.1435688 -2.7017663 1.3991569 0.6665631 0.9078382 -0.09036389 -0.9546122 -1.0819278 1.3657948 -1.8032519 -0.4214509 -1.8812306 -1.2812332 -0.4957258 -1.8489567 -1.1259253 -0.7394812 0.7923695 -0.48160326 -0.2843935 0.40503028 -0.8302289 -0.5838919 -1.5806156 -0.35785407 1.5827965 -0.9384432 -0.14229737 0.577897 -0.35663667 -0.27291173 -0.30242762 0.66979057 0.057344683 0.08668816 -0.5952839
22 -2.7761695 -0.87428045 1.8923073 -1.3425077 -4.5814548 -1.0705683 3.7490902 3.750433 2.9637687 0.20273486 2.1786807 -2.1804118 0.50157326 -3.2163405 1.8388145 1.51536 2.6313798 -2.4195483 -3.0404298 3.2043161 2.3524032 6.5062037 -0.0018898072 -0.9014502 -2.992713 3.2374873 -3.9989264 -2.118477 -2.5776772 -0.99502957 0.2321143 -1.5900582 2.0833354 2.2093432 -4.721095 2.3042681 0.6251956 0.14352027 0.66364044 2.7986944 -2.162992 -0.13782077 -1.0883352 0.767438 -0.37898776 0.4884674 -1.7342083 3.01415 3.0970998 -1.1793354 -2.869573 -1.5303249 -3.9338474 -2.959995 0.9892876 -4.7458673 -2.486376 -1.6577681 -0.6320475 2.339071 1.2917472 -2.6656427 -0.06105451 -2.1244295
23 0.24992423 -0.07116881 -0.5053972 -1.6851373 0.80241066 -0.26752132 -0.6390339 1.1143378 0.39162675 -0.13239253 0.5719736 -0.5664537 1.5030468 -1.3597807 0.11097783 1.2919893 -0.9882939 0.3540096 -0.29318345 0.51300466 -1.5183406 0.2137309 0.013883458 -0.6741296 -0.9048944 -0.9933654 -0.37341633 0.011487765 -0.88618314 0.0031080376 -0.82079345 1.2603751 -0.6014945 -0.3962938 -0.8225428 0.3938518 -0.88166 -0.100030966 0.37434772 0.76942587 -0.2997914 0.0058959867 0.08715396 -0.20629135 -0.5661785 -0.6189289 -1.3471051 1.1651931 -0.11649715 -0.54851085 -1.2304525 0.92039514 -0.66687715 -0.5139524 0.111201234 -0.01555947 0.5974708 -0.2994964 0.25237802 0.30609268 -2.4954898 0.11668399 0.16972063 -1.6611634
24 0.99893457 -0.54633194 -3.2970982 1.7091998 0.1045998 1.6934054 2.0153303 2.8883135 -2.8814154 2.9548957 2.6887264 -4.0181966 -1.2019556 -3.937275 0.6661718 1.6697464 -0.36931756 1.4242489 -2.001099 2.6083982 -2.8072407 1.9709 -1.0529344 -0.45150104 3.6753395 1.3917751 -1.6525345 0.84532344 -2.9020555 -1.4405943 -0.36163852 2.549429 -3.414944 -0.35199022 -2.3427644 1.4880288 1.4469151 0.4443449 0.9227985 -1.0018651 -1.2168102 -2.764005 -3.27761 0.70023763 -2.4486551 -1.0128702 1.7575078 0.2011026 1.5082164 -1.1581749 -0.9093564 1.547752 0.15313356 1.6209452 -0.38240486 -1.9833742 -2.0945761 -3.650259 -2.1354108 1.6242477 1.370546 -1.3522872 -0.36851516 2.4815447
25 1.0408072 0.99068207 0.32532275 -0.31848735 0.9129424 1.0651184 0.8390448 -0.2872543 0.29725546 -1.9782107 -0.25670272 0.23210688 2.1185532 -1.4916092 0.76745516 2.3731534 -0.26956627 0.72238815 1.7418303 1.449512 -0.86837256 2.091818 -0.013313571 -1.7535563 -1.7775974 -2.5179558 1.0538632 1.5464629 0.22603716 -2.1755736 0.18799597 1.6376129 -2.0884678 -0.87985486 0.5235137 0.9266465 0.86122394 -0.45023915 0.36003315 -0.57771385 -1.1765368 -1.3870527 -0.6071986 0.6920444 -0.43980575 0.9348253 0.81084275 0.37964994 2.514606 -0.038848877 0.39886552 -0.5702047 -0.5062912 0.292723 -0.332213 0.52844554 -2.1261811 -1.7629743 -1.9012452 -0.18112814 -0.8970687 -1.8525672 0.7290468 1.4009619
26 1.3176653 0.8155092 0.56147164 2.7514715 -0.32405263 -2.011368 -0.21268764 -4.4815326 2.2359927 1.3493975 1.926451 -1.4686375 0.32220793 -3.7638793 0.21339466 0.6540087 -0.54966897 0.23635985 0.29860902 2.2947822 -3.333974 -0.9342008 -1.3553882 -2.4673107 -2.275278 0.5999797 -1.1905462 -2.6052632 0.38662982 0.29550523 -0.4571386 1.2442331 -0.7196797 -2.29901 3.2978594 2.2176957 0.7441195 -1.9840268 0.3571724 1.8175738 -1.7953628 -3.708855 -5.3760543 1.285124 0.67582756 -2.913142 0.8599935 -0.9546642 0.17117071 -4.581227 2.866894 -1.1437129 0.9662953 1.4996424 0.7955443 -2.985336 -3.5215855 -0.6594749 -3.8215194 1.2688065 -1.7217855 0.00371424 0.32801288 -0.76274556
27 0.7962199 -2.579678 -0.3694594 -0.0055882037 1.3128288 3.156237 0.79282945 -0.22040634 2.0762174 -2.9945447 -1.5738264 0.22596222 0.36667666 1.1427019 1.0411024 -1.7919042 -1.1726828 1.4076539 1.1689901 1.5875294 1.4786514 1.9149882 2.0171776 -2.2293532 -1.2085286 -1.9960705 -2.1666043 0.8736598 1.070127 -1.3370616 -0.8798216 0.67778003 1.1936151 3.4814086 -2.1246455 -0.7650656 -0.10088774 0.15970038 1.5476787 0.011529175 0.9364412 -0.83751667 -0.35623312 -0.66664153 2.035735 -0.64802045 0.20448789 1.1585368 1.0764965 0.9708033 -0.5428388 0.39189702 -3.233917 -0.31872615 -1.2906792 1.2094215 -1.3516263 -1.4252652 1.6700692 0.073245265 -1.7090745 -3.3396602 -0.47394532 0.50521547
28 -1.7349128 -1.7061801 1.3471597 0.6127992 1.84329 -0.5096859 0.17148314 0.24330105 -0.39678016 -0.086527415 -0.58185214 0.3049137 0.25382736 -0.71996695 1.5148774 0.13459872 -0.5316738 1.9737344 0.7756289 2.5616665 2.2377236 1.7005728 0.685761 -2.1775837 -2.1791363 -2.852801 -1.9779918 -0.51317424 -1.2085624 0.6875051 -1.4958502 1.9298431 -0.8996101 1.7971251 -0.28456202 0.88489276 0.22741318 2.176325 0.4444481 2.33859 -2.280658 -1.7426908 -2.6389718 -0.5763248 1.7317401 -1.7613976 0.17519686 -1.1362978 0.39988518 0.28540838 0.3170502 0.1635483 -0.047964025 -0.05049113 -0.64933664 -1.6049324 -2.7294414 -1.8279922 0.6009696 0.75912946 -1.1702375 -1.3947929 -2.8286598 -0.9271623
29 0.7881465 -1.0329971 1.6925592 0.35060275 -0.48085916 1.0555555 -1.0183963 0.08584605 0.117662966 -2.1949453 0.94759935 -0.53813004 2.035583 -0.42161515 1.1006787 0.5906281 0.53266644 -0.28048152 -1.3074741 0.8453916 -0.6417444 0.01915239 -0.65770745 0.046258625 -1.0171263 -0.9996133 -1.0442038 1.3838179 1.0356085 -2.4500191 0.16633219 0.84078145 0.736347 0.4894722 -0.22207184 -0.5817823 -0.7670613 0.59702027 0.13803992 0.9311394 -1.7336006 0.100180574 -0.6803376 0.86341095 -0.3162801 1.7394572 0.5263737 0.89534694 -0.5298134 -0.043582946 -1.3639326 0.45742968 -0.34558812 1.5239352 -1.0135518 -1.9120896 0.11370029 -0.6216663 -1.5382341 -0.3530419 -0.7344816 0.96944475 0.6661974 -0.6826797
30 0.96117187 -1.534301 0.26839298 -1.2701012 -0.13109973 2.6235406 -1.4500563 1.6476316 0.40758687 -1.1728071 0.1406345 -1.1500577 2.7967265 1.23468 -0.03129388 1.1004169 -0.24354602 -0.6859938 -1.4208018 -0.21210217 -0.98159677 -0.22724427 0.6938819 2.8227003 0.6365295 -2.577748 -0.37899262 -0.15206373 -0.944575 -1.8093952 0.3611816 0.8870691 1.8732965 0.12561603 -0.9872669 0.37593114 -1.2531642 1.7062335 0.7738228 1.1179087 -1.068437 2.7871554 1.563723 0.340317 -0.68628436 1.2348213 -0.019392353 3.0554602 -1.1352334 -0.23274097 -3.1192877 1.6066298 -0.49905628 1.7055516 -0.22825617 -0.09418514 0.7766461 -0.64765215 -0.31832772 0.1773399 -1.1862998 0.16973111 -1.0744154 -0.88109714
31 0.92281973 0.082486555 -2.4415889 1.009813 -0.4804099 2.1443799 -2.134611 -0.41668028 1.4136314 0.7410056 0.81655043 -1.3024203 -0.09332688 -2.516427 0.99954545 0.63251424 -1.2286747 0.038345557 -1.7746127 0.599212 -1.2271177 1.946124 -0.7940618 -1.5296702 0.8577584 0.52707654 -3.8313398 -0.8125668 -0.14712259 -2.2530286 -1.7187145 0.60618424 -1.2605693 -0.34320024 -0.6080179 1.1371402 0.59772706 -0.51729053 1.2146451 -1.1770549 -2.2344065 -3.5764825 -4.3133316 1.4629093 1.2553936 -1.8426706 0.49781382 -0.19635028 -2.1332915 -1.5168222 2.3489404 0.37802574 -1.309905 3.0052433 -0.22641648 -2.5813599 3.0335422 -1.1724236 -1.6631863 0.81080294 -3.6585832 -0.020242866 -3.3506339 -0.59629893
32 -1.22519 -0.73148805 1.3109263 -0.5792578 -3.0285256 -1.0526526 3.1209605 1.0351974 1.4339219 0.3080728 2.2337427 -1.703631 1.6220728 -2.8616514 1.7081423 0.1763252 1.0111758 -0.84115726 -3.7259698 2.1796818 3.4818814 3.6043594 0.16131988 0.85220367 -3.2439654 0.53206223 -3.329837 -2.9654968 -0.533352 -1.5406462 -0.21711022 -1.6860462 2.5582252 0.43155026 -3.6725385 2.192681 1.389197 0.9671087 -0.30765858 1.3696817 -2.6817784 -1.0186659 -1.610307 0.7338025 -1.2587255 0.4648868 -1.9349014 2.27526 0.60865283 0.5768542 -1.858278 -1.1302987 -1.6118366 -0.38667074 -1.717498 -3.221623 -1.0900197 -1.4773005 -1.8325232 1.2200359 -1.0356915 -2.0629435 0.27944183 -1.3662487
33 1.4801979 -2.669123 -0.47762397 -1.0654356 -3.0870943 -1.3658992 -0.9752415 1.0402377 1.4674562 -1.2450919 -0.5774129 -2.7177508 2.2468612 -1.5480227 -0.45042503 0.33157146 0.3631434 -0.75086904 -1.5008667 3.881485 -2.4678116 2.5308652 1.2957516 0.23547962 -1.4348859 2.3941748 -0.8286855 -0.1704947 -0.081572495 -2.3551285 -2.0506043 2.7204664 -0.018647186 0.4860466 1.2229599 4.773624 -0.9930583 0.83045286 2.6044781 0.53345454 -1.6212276 -0.7027252 -2.146999 0.8155123 3.7962158 -0.4307049 0.099653006 0.85839605 4.5691485 -0.3899698 -1.4301342 -1.2108623 1.0631733 1.2766966 0.113688 -1.752524 0.19664906 -0.5270994 -2.2153065 -3.1428063 -0.7972797 -0.14145666 -2.0914254 0.8994175
34 2.375896 1.6138358 1.8066139 0.08122785 0.067973696 -0.28029403 1.401503 -3.0781133 1.4709572 -1.6460342 0.9640741 -0.45837224 -0.00049543154 -0.0031758028 -0.70290446 0.40360546 -0.5737695 1.3512458 -0.8170914 -2.8085065 -2.9603953 -0.16243525 -1.6925423 -0.20508148 0.1012811 -2.5569098 0.17168637 -2.0373147 1.019369 -1.3599101 0.65683645 2.084835 1.5161673 -0.74478596 0.6459961 0.12515947 -1.1306704 0.4637287 -2.1696973 2.3071592 -1.6402051 0.53576016 -0.69250125 -1.8528384 -0.9401165 0.49745542 -1.4896289 2.3319402 -0.93844205 -1.28772 -1.0638918 -2.6680076 3.1477487 1.3284492 -0.33078343 -1.3786777 -1.7464372 -1.4063182 -0.0042841556 0.20336613 0.931983 1.5799916 -0.05379261 -1.4422562
35 0.90610135 -0.6317353 1.5751776 0.9335681 0.4360371 1.7251724 0.8497283 0.8004089 2.0333872 -2.4810624 0.33951718 1.4938836 -1.4007417 -2.353296 0.2882776 0.8328265 0.68949044 0.54376763 -0.7068 1.4028481 -0.54691285 1.0147732 -0.455624 -1.23636 -2.2039824 -1.132193 0.9240205 -1.892416 2.3178039 -2.3641994 1.0359745 1.069979 0.15457201 -0.33927503 -1.215342 -2.2388973 0.9566539 -1.8839056 -0.009552048 -0.19790964 -1.0833685 -0.31717 -0.9248736 -0.66108334 -1.0968542 1.3823621 -0.2876947 -0.5749919 0.34832546 0.064612806 -0.70017135 -0.71677417 -0.21133582 0.6234086 -1.2503113 -0.4721959 0.37280157 -0.77060246 -0.96370625 0.25431368 -0.18926708 -0.5929609 0.006214938 -0.57568735
36 -2.0436192 -1.4794337 2.5832016 -0.2097718 1.7068679 0.6167704 1.7243685 -1.3212819 -0.7637268 -0.79718834 -1.3385532 -2.2594585 3.3826873 -2.8163848 1.8051666 2.0319266 -3.3952835 -0.951948 -0.031818185 -1.9838128 -0.66580373 -1.969067 0.9776703 0.38403475 -3.6720397 -0.62232465 -1.713379 -0.21787432 3.5412147 -0.18332584 2.784871 0.70785934 2.5849288 1.9001985 -0.5572563 0.5263167 -1.1278988 -2.0839934 0.7886285 2.363313 -2.0816422 0.6696759 -0.39729947 -2.234821 -0.1404817 0.6790105 -2.8119512 0.18542735 -0.7489435 0.43981066 -0.35997576 -0.97693956 1.2584729 2.5632584 0.8994293 -2.3349483 -0.67377293 -0.89844453 1.2542477 -1.1889229 -0.99706304 0.92677015 0.54479074 -2.2424686
37 -1.2361938 0.6512128 1.0190383 3.3326857 -1.2628309 -0.37927562 1.8629274 3.220231 -0.21090151 -0.66697365 -0.52763975 -0.17611054 -2.2053227 -1.617864 -1.8204116 2.152762 -4.3466806 -0.7773006 -1.4827138 0.896192 1.2445014 6.1008124 4.419171 0.9993263 0.92326677 0.5293513 -0.6619389 1.2132617 -0.17800468 -0.9616466 1.2884556 2.93201 -1.862649 3.0805976 -2.291208 1.4013135 2.1959965 -1.6234951 1.8728724 2.976508 -1.3943276 -1.1252092 -1.6375626 3.1241794 0.012219759 0.057144567 -1.8893582 0.48003864 2.560163 -2.5795665 0.13805883 -2.4195457 1.5762029 -0.097291596 1.5537006 1.5733626 -2.3098218 -2.0249515 -0.80658555 -0.687298 0.790684 1.217657 -2.4141636 -2.8156228
38 -0.645715 -2.1649687 1.9448304 -0.2986146 -0.77952117 -1.0376105 0.05629943 0.9989862 -1.4585102 -2.197479 0.29001445 -2.2174842 2.1058733 -0.81087047 2.8365583 1.2874677 0.16795509 -0.42192098 -1.0089484 0.49150005 -1.3479832 0.89585894 0.3210246 0.44292885 -1.8670123 -0.46713507 -2.133516 -0.9192034 0.7855716 -2.6966321 -0.7119971 1.4688199 -0.30830875 0.23278126 -0.4378891 0.88767296 -1.7531177 1.5885022 0.89243406 0.9999692 -1.826451 0.46033245 -0.2759355 -0.09147432 0.63204205 0.7741517 0.69726205 0.7790264 1.0583411 0.6704347 -0.18763709 -0.1044893 1.4729328 1.1113143 -1.1770267 -2.240653 1.7272605 -1.4202379 -1.4296463 -0.5980818 0.45563412 0.3548991 -0.5512727 -1.9436911
39 -2.2864497 -3.3793645 1.1853583 -0.7372218 -1.618856 -0.32328543 5.6171956 5.344981 0.35284302 -0.5118484 1.2632132 0.99808675 5.3926425 -0.034901123 0.6236258 -0.40874568 1.0340221 0.56434953 1.4452823 0.17841487 0.5335994 2.4300146 0.9206741 -0.2226798 -2.3389316 -3.0602627 1.2094399 0.46430477 -0.27814987 -3.153117 0.43970424 5.6288185 2.0384784 0.8345357 -1.8469675 0.2989956 0.18422207 -0.22189845 -1.2391301 4.218191 -1.9948775 2.189801 2.5119035 -2.2974818 -2.7544055 4.478398 -4.815685 1.8988323 2.012805 2.6005998 -3.103546 3.3718386 -2.0435374 0.89122415 0.22833824 -0.7646623 -3.151243 -1.4549022 3.325136 0.5571352 0.8317649 -0.4802092 -1.0494875 0.65846556
40 -1.3158517 -1.6347607 -0.3443727 0.7890726 0.42742866 0.7305738 -0.86700004 0.45751655 -0.847108 2.3150263 0.5082298 0.09098312 1.0961374 -1.6384526 0.13317016 1.9662426 -0.39782372 1.6510366 0.06445094 2.4381816 -1.6415619 -0.63058317 0.43141082 -2.5407429 -0.48368186 -0.42452583 -0.83085644 2.6770844 2.308256 -0.8853462 -0.30526537 0.9394717 1.5890757 0.05028132 1.8625442 0.9025607 0.4772104 -1.834191 2.1143472 -0.11154197 -0.872814 0.8881048 -0.8444685 -1.0986948 0.6209616 0.6611305 0.43888843 2.0740125 -0.4595375 3.123947 0.28036904 1.06136 -1.5094345 0.13531111 -0.4222946 0.048989914 -1.342994 -0.39011526 -0.7457894 -0.96159965 -1.3643707 0.08459686 0.40928274 0.40463158
41 -1.1181302 0.27133244 1.9247279 2.9281704 0.0443154 -1.6105349 -0.06659767 1.8469346 2.2593672 0.8799872 2.6214108 0.37496343 2.8941932 -4.4126525 -0.51894265 1.814421 -0.1296759 -2.6888266 0.43903017 3.2510066 -1.7279994 2.9843237 -0.13407846 0.7192603 -2.3078203 -3.494995 -1.7705818 0.6925117 0.996257 -0.47342753 -2.230466 5.096073 -0.8162038 -0.017302668 0.21890207 1.7140665 3.4498053 2.4534748 -1.903803 0.4111821 -2.3362842 -2.267377 -3.263515 -0.01940848 -1.2939057 0.2915844 -1.3926667 -1.5829892 0.6394266 -1.8902237 -0.84865886 -0.19436349 3.3267415 2.8563395 -1.4134518 -4.1396327 0.347139 1.7014681 -3.0175335 0.9325095 -4.3428435 1.5197059 -2.0440974 -0.13550612
42 0.6355998 -0.92224586 -4.104424 2.9980922 -1.008447 2.2891135 2.4743106 4.7044353 -2.8824856 2.589275 2.988894 -3.9850464 -1.9885231 -4.361986 -0.4303421 0.8896216 -1.7212296 0.5653626 -1.3343085 3.6340654 -2.5348973 3.524272 0.08922917 -0.7339241 3.9046981 2.0485277 -2.2089624 2.075233 -2.678416 -1.6925607 0.26338258 3.500443 -4.049971 0.5759804 -2.9582143 1.5113795 2.5524468 -0.27143604 1.6490909 -0.85153323 -1.160227 -4.0838294 -4.250763 1.4497433 -1.9292552 -1.143145 2.12194 0.781061 3.2744813 -2.2958276 -1.5774726 0.9424188 0.5499695 0.7049191 -0.6190952 -1.3954141 -3.4985933 -3.5065124 -2.7379014 2.1821923 1.7973393 -2.790384 -1.4473965 3.0362296
43 0.8162259 0.5684307 1.1357483 1.7595751 -0.59602123 -0.91702455 -0.041780196 -0.54332227 1.55682 -1.7952144 2.3783863 0.70970863 1.4764258 -2.313436 0.066247225 2.284731 1.0307271 -2.3616965 -0.91745925 0.6245769 -2.1271515 3.281993 -3.5335896 2.2996247 -0.020909857 -3.5653303 -0.24974452 -3.8963814 2.008286 -1.2004354 -1.0923123 4.3813214 -2.3913 -2.4764113 1.490223 2.5974 0.83743954 0.6649694 1.1692615 -0.06247186 -1.3067765 -1.1679083 -2.540212 0.1575996 -0.36634415 1.2512667 -2.1654935 -1.549904 -2.933497 -1.3129455 -1.2539119 0.083949104 5.687205 0.207673 -0.29068178 -2.6242528 -1.2906276 2.1347945 -2.0589142 -0.928936 -2.617922 2.7586467 0.071039364 -1.5447824
44 -1.3965389 -0.22389242 1.3697999 0.90188766 0.21081935 -0.6173896 1.964125 -2.4904656 1.6874678 -2.4051294 -0.34134167 -0.3799786 1.1177899 -0.91063637 0.35003635 -1.6163553 -3.0518198 1.3024511 -0.21099004 0.047946744 0.48562065 2.3194752 1.0271959 -2.2168782 -1.524435 -0.60387045 -0.8856526 -1.6210651 0.78806865 -1.395493 0.241498 1.1324717 1.314126 1.797495 0.08240318 1.231805 1.4087219 -0.25293687 2.610256 2.1099908 -0.07274848 -1.6204998 -2.4288366 -0.71269107 0.77285516 1.3807081 1.6136613 -1.1181529 1.4100537 -0.5942261 -1.1944757 0.7342083 -3.5190482 0.7921111 -0.8414868 -0.024397913 -3.0609546 -0.21615426 0.07752203 -1.0853411 -1.1885835 0.36855543 -0.48651806 -0.0047874413
45 1.3708735 -0.98543566 -0.579158 -0.15013893 0.5970865 0.7093222 1.035 -1.0818349 3.31895 -2.453373 -0.6132622 -0.707661 0.8306524 -0.3530718 0.067353174 -1.2342359 -2.543978 0.7185486 0.4430601 0.92523503 -0.19206162 1.8061985 1.4570694 -1.7981082 0.09413521 -2.1518896 -2.3946972 -1.5312898 0.56375384 -0.78802854 1.411612 -0.20194884 1.9313899 2.4370697 -0.88763845 -1.3221312 1.591009 -0.938548 2.3250394 3.4683375 1.1226776 -0.63863516 -1.6592814 -0.26582506 2.1124792 0.08843408 1.5251381 -0.60496503 0.89781064 -2.048023 1.1993662 1.7785372 -3.0347455 0.68709826 -0.0901669 -0.023688074 -2.2401364 -1.3683766 2.1732504 0.39907217 -2.4995904 -0.85946417 -0.08074271 0.7302122
46 2.6493545 -1.5423588 2.8921144 0.41154876 -0.087548465 1.5307202 0.4710108 -4.154526 4.218853 -4.9988976 -0.47487676 2.1052325 0.16628373 -1.6151538 0.26329964 0.6130364 -1.1595042 3.5786998 -1.5505586 2.3382266 -1.1082962 0.22808565 0.61326176 -3.7134755 -1.3396702 -0.3917518 3.231007 -1.5637823 3.4455044 -2.9868557 3.221084 0.467118 -0.6323732 1.1822542 -0.1307475 -4.1963725 0.13868944 -5.425343 -0.5579623 -1.7121037 -0.65169924 -1.6725702 -0.04446529 -0.085753694 1.0616403 -0.45900175 -0.13594112 -1.2867419 0.7062168 -1.5220804 -0.36190578 -1.8181866 -2.627221 2.595618 -3.6325238 -0.07490945 -0.19568165 -0.10807866 0.510232 -1.8774384 0.9559672 0.022131747 1.1022862 0.216165
47 -0.732668 -1.8064241 -1.8193936 1.9436295 -3.8387132 0.66127324 0.3487762 -3.036971 -2.4682004 -2.3420064 2.0437202 5.0275292 1.6825981 3.8057964 0.4942655 3.5633452 1.0553722 3.226375 -0.9152653 0.9422092 -4.3905544 1.1271218 -2.934513 -2.6084206 -0.41889855 -2.5786407 0.33301705 1.7251518 3.3160899 -3.8557136 -0.93165714 5.0462594 -0.27125478 -0.23709743 2.0588963 -0.5030868 1.5012879 -1.3808649 1.4576663 0.17439233 -3.258855 -1.4898571 -2.1928706 1.0996544 1.146243 0.4819023 -0.8216401 -0.43889767 -2.023672 1.2326221 -1.4576117 0.4197961 0.2382508 -2.6774077 -3.9906173 -0.27480537 -4.4577913 2.4887567 -1.1426677 -3.8572478 0.22161767 2.7808857 1.5798535 -0.19777179
48 0.09573467 -2.3482032 2.822174 -0.46446037 -1.0954028 -0.2820755 -0.7153943 0.8856839 -1.5942408 -3.396939 0.7858417 -2.0078 2.7601166 -1.0172108 3.241342 2.0323188 1.0380586 -0.88565296 -1.2680949 0.57720965 -0.55896384 0.21276416 -0.3361591 0.77693576 -2.2573392 -1.0131047 -1.7234101 -0.025968544 0.85909826 -4.4468775 -0.20254149 1.6627662 0.012326183 0.018302744 0.070549816 0.51305217 -1.8603804 2.3930585 0.8853467 1.6995558 -2.872588 0.00016317258 -0.40925497 1.5898939 -0.011780491 1.6399175 1.6069031 1.0774186 0.62198097 0.3780516 -1.4123719 1.0354111 0.5750042 1.1097064 -1.0168341 -2.836916 2.0513809 -1.0809383 -2.3936067 -0.52536637 0.41625383 1.414126 0.2783505 -2.1797996
49 2.1490993 -1.8231368 0.075231366 0.40069747 1.041228 1.4220268 0.99164224 -0.0247405 -1.5018647 -1.1353405 0.5559007 -0.25165215 2.9780073 0.2726041 0.28870365 2.4948268 0.53896266 2.1426837 -0.031547025 2.5048056 -1.3512334 1.9181566 1.5532594 -0.3481795 -0.22118524 -3.165173 0.76984614 1.084051 -1.5316535 -0.44644055 0.3264189 2.0673268 -1.27878 -1.045835 0.21344426 -2.1825457 0.6091583 0.75794536 0.018660592 -0.17210943 -1.9279091 -0.040926047 0.22721188 0.26436734 0.17513092 -0.13466004 -0.26374328 0.9807591 1.1276898 -1.2509717 -2.6708152 -0.99979556 -0.37528354 -0.15905683 -1.5642459 -1.2874777 -1.8382045 -0.17980883 -0.8382794 -0.68031704 -0.10165354 -1.9320985 -1.2908939 1.3101517
50 0.9290151 -0.3787536 1.2931365 1.8186259 -1.3960638 0.63363314 -0.7066567 -0.4571979 2.576886 -2.3232372 0.40607852 0.61688805 0.83318716 -0.45880097 0.42545483 0.6491243 -0.77399147 1.822233 -0.94506395 0.078786574 -1.3258379 0.58702815 0.9854506 -0.7037579 -0.68062013 -0.89676154 0.49701205 -1.5084087 1.8824095 -2.3561382 1.2551209 0.5596795 1.0542359 -0.1943831 -0.5540782 -0.6773309 1.106645 -1.7059529 -0.4587973 -1.5066267 -1.0043304 -0.32488203 -1.5499431 -0.8549783 -0.36984393 0.4076888 -0.62028193 0.050746873 0.6439738 -1.1249737 -0.57917523 -1.3355998 -0.24499945 1.6980804 -0.7438164 -0.16297096 0.39170286 -0.23424952 -0.28148928 -0.47116414 0.6025928 0.06097141 -0.04552504 -0.35238466
51 0.6345185 -0.85563934 -1.6198099 0.42495397 1.1144216 2.3188705 2.2930474 1.2493498 1.3239728 1.848135 1.1643643 -1.6115043 -1.0927254 0.39478678 0.6834893 0.48078656 -0.29634413 2.005512 -1.5028268 2.296961 -1.3838788 3.0322614 0.0025562374 -0.4445844 2.863647 -0.73294693 -0.5040706 0.7449621 -0.1747273 -0.72219616 0.13299888 -0.14362377 -1.199713 -1.1993917 1.2279099 -2.6050947 0.5255749 0.5279146 0.57225853 -1.1351118 0.15525177 -1.1741434 -0.4597656 2.6232638 0.8688668 -1.7361923 1.0273151 -0.03434655 0.97168505 -0.07555634 1.9661088 0.54156566 -1.1475375 2.0675747 -1.9924191 -0.06791672 0.44453564 -3.657123 0.1096485 0.15365446 -3.3045747 -1.6867082 -0.8891521 0.640102
52 -1.1969135 -2.0410316 -1.21447 0.9184217 -2.7537053 1.2851717 0.8172384 -1.9046459 -2.438145 -1.1911908 1.3830154 3.632379 1.47823 3.0414765 0.06472941 2.504224 -0.6863493 3.5789108 -0.5801652 0.77624285 -3.268134 -0.37333703 -0.64874244 -2.2827559 -0.65469396 -2.0254774 0.25233126 2.564901 2.8135564 -3.0561454 -0.7630731 3.1481361 2.037572 0.3613565 1.4444333 -0.7060093 2.148742 -0.83348703 0.9269991 -0.5250372 -2.1313832 -0.61746293 -1.8206745 0.64944595 1.1909738 0.47872674 -0.41157374 1.3704321 -0.43648726 2.3770764 -0.774812 0.45256647 -1.9919462 -0.7477138 -4.3116484 0.053524174 -2.4161267 1.0541333 -0.6773548 -3.1978009 -0.62370694 1.3419846 1.7445933 0.58789265
53 -0.18602066 -1.0447829 -0.4692773 1.8070292 -3.0174665 0.57034576 4.414598 0.37341958 -0.28515148 -0.26181728 2.443456 -0.8803501 3.0197856 -2.1981618 2.776556 -2.471573 -2.0974648 0.3734994 0.4544673 3.2242458 -1.7112311 1.7346531 -3.2504518 0.114587665 -0.9434977 -0.61113447 -1.8024248 2.2809577 -0.058968928 -5.5361943 -0.471047 0.1742465 -0.64472884 -0.9416415 1.8767333 0.3010989 2.3208919 4.490875 2.2007425 2.6631122 -2.213516 -1.8854812 -4.3990517 1.9372847 -0.34994534 -1.1851261 1.4909887 1.968042 0.36439416 1.1098857 -0.9888657 -0.32122836 0.63054097 -0.17429236 -0.33349848 -1.3858072 -0.7822418 -2.998205 -3.6022964 0.15596783 -1.3886102 -1.1590616 -0.10971028 4.141865
54 -0.044661254 -0.012567586 -0.9239581 3.0710466 -1.6495725 1.1829427 1.8137248 3.6909213 -0.7473861 0.022347547 0.3841699 -1.2312411 -2.00017 -2.4637327 -2.1761737 1.3280753 -3.826723 -0.47157913 -0.727815 1.9603189 0.11823512 6.247341 3.510036 -0.18238793 1.7446709 0.61360824 -0.8371494 2.2416346 -0.43872195 -1.448587 1.266656 3.1774461 -2.5726435 2.6920757 -2.5286584 1.261266 2.2502975 -2.2352526 1.9798118 1.2793827 -1.3899443 -2.400856 -2.55766 2.7721722 -0.13238072 -0.36194175 -0.84436643 1.2648005 3.577282 -2.8038177 -0.29780984 -2.2953227 0.8142875 -0.15405749 0.20688015 0.92981184 -3.1326895 -2.0946262 -1.5898589 -0.07953681 1.0160694 -1.1108311 -2.8249252 -1.0134311
55 1.7730961 -2.3308342 1.4279184 -0.4713483 -0.065522745 1.9716756 0.744589 -2.341633 2.3080854 -3.8628986 -0.81254655 0.6346739 -0.39039874 -0.89185673 0.2771494 -0.62476826 -1.8045697 2.073141 -0.41389123 1.4056891 -0.64334697 0.88411224 1.1112204 -3.1525347 -0.6600357 -0.65741444 0.788146 -0.77982044 1.4389424 -2.632779 1.7951639 0.8541376 0.31046095 2.7259052 -1.1042722 -2.9452026 -0.87137973 -3.6198883 1.3844987 -0.7882485 0.66847616 -1.5405113 0.21395588 0.88513017 1.3049457 -0.26340154 0.48368287 -0.49814785 0.10469087 -0.9324055 -0.40878043 -0.15365882 -3.3616707 0.9146972 -2.5927262 0.46291837 -0.37510425 -0.8955132 1.5867783 -0.96947 0.059983682 -1.4127913 0.47992155 0.8227171
56 1.6214101 1.3147138 0.52656996 -0.4895793 1.3768358 1.8397732 0.12137381 0.40231767 -0.108901404 -2.0059783 -0.19581743 -0.13932468 3.1348598 -1.4944158 0.6190237 1.9370348 0.80089533 0.27948064 0.9759841 2.076174 -0.7520455 1.2278394 0.5680589 -0.83091277 -1.2794852 -1.8699517 -0.08232373 0.68492377 -1.0299512 -2.178763 -0.17991944 1.8939474 -1.3617417 -0.8868811 0.07196307 1.1112363 0.26089436 0.54307497 0.57311654 -0.22762439 -2.1692533 -0.6418458 -0.30237958 1.0068506 -0.09054262 1.2033749 1.2297437 1.5113349 0.49997872 0.1390312 -1.3880222 0.9470731 -0.39885622 0.5243822 -0.17399861 -0.35314468 -0.26585075 -0.9163006 -1.6747546 -0.4987736 -0.61981237 -0.8244987 0.38168985 0.19345564
57 -3.2057884 -4.603259 1.3878367 0.042258397 -0.7786787 0.22196609 5.4848566 5.1630383 -0.9538875 -1.2809741 1.5950474 1.0335269 5.2240615 -1.5430548 1.3338361 1.1145974 0.4991963 -0.13251358 3.7301295 1.259236 1.9534163 2.153288 0.65976375 -2.0371826 -2.6671278 -2.5905843 -0.30412507 1.407512 -0.27927357 -2.396966 0.9996167 5.866656 1.3149736 1.1418422 -2.423728 -0.5533466 -0.49937636 0.35606328 -1.531174 4.1930013 -1.0519007 2.4949698 3.9023805 -2.4457712 -2.8015182 4.81262 -4.2229686 1.1544597 2.4952726 3.6585693 -2.3809564 3.506338 -3.8455513 1.4686221 -0.60465944 -0.53389096 -2.302111 -1.9383739 4.136785 -0.12487597 0.2612267 -1.8384796 -1.0659602 0.8822672
58 1.0737307 0.47756895 -1.3002647 0.47162336 -1.6876824 4.773404 1.1775857 2.0601742 -1.1710304 0.62181795 2.8350017 -0.66870415 2.2713852 1.1669414 1.9493321 0.78412163 -0.4325964 -0.48594615 1.477904 -0.5060505 -0.9149521 3.9075933 -1.7764125 3.092728 2.4683635 -1.2521409 -2.2489824 3.5675585 1.923963 -1.9577336 -1.2075182 -2.2918153 0.11023586 -2.0613756 0.29790354 -2.0904877 -0.402154 1.7700851 -0.5928751 1.8141867 -3.5223696 -1.5232347 -1.7138505 3.4240708 -0.9770037 -2.5877006 -1.4587761 2.0544298 0.67114234 -2.0793157 1.0969471 -0.407875 0.36894205 0.77141035 -3.2531035 -2.58075 1.1983535 -4.943764 -1.7531146 -0.7597469 -3.0018876 -3.015599 -1.5895561 1.2433105
59 3.035224 0.62940425 1.0916854 0.29015478 1.0248365 -0.6128178 1.234523 -1.4102407 -0.1466093 -1.3504686 1.4556084 -0.613915 -0.31036177 -1.1054412 0.56151694 1.6309428 0.48760116 1.0829816 0.16283463 0.00514665 -1.0758954 2.871648 -2.0138986 -1.7383962 -0.7432976 -0.28535578 0.027145568 1.7875193 0.75199306 -0.20718394 0.6574847 2.2924414 0.8302116 1.0747764 -0.8814044 -0.61958504 -0.15331344 0.21461941 -0.13387085 1.1704552 -2.8785405 -1.0977341 -1.7219608 -0.29932007 -0.4733671 0.5927354 -0.046420455 1.3827572 -0.024218176 0.02114666 -0.047393054 -2.0065763 0.31208205 0.66216844 -1.0443963 -0.68164176 -1.034374 -2.0453851 -0.7457287 -0.95749426 0.56519216 0.53680533 -1.3703935 -1.4635626
60 0.3480945 -0.61396533 -1.1543875 1.7233222 -3.1420128 -0.1283952 0.5997277 -2.371076 -0.7514636 -3.4632838 2.385987 3.9154265 1.252601 2.9025457 0.6579106 2.8656843 1.6811522 1.0723112 -1.2265911 -0.314496 -2.528262 3.2345076 -3.3028955 -0.17255366 -0.24514042 -2.9111013 1.2421272 -1.8562503 2.1890256 -3.1144483 -0.5906437 5.3687086 -2.378889 -1.7423106 1.2921582 -0.07098978 0.119042024 -1.0877513 0.8969264 0.8548299 -2.4659488 -0.99315244 -1.6420071 0.86396223 0.19607934 0.85979605 -2.1460822 -2.0025406 -2.9861867 -0.5746283 -1.507715 0.62508816 3.6496048 -2.6993163 -1.6543453 -0.40189376 -3.4924135 3.1678307 -1.4668562 -2.5275598 0.05401519 3.1347644 1.4060595 -1.4584404
61 -1.6851531 -0.92471874 1.2946521 0.5798592 -0.4203215 -2.4515522 2.8838427 -0.2568152 3.07936 0.1311406 -0.26841158 -3.3090887 1.5425565 -3.2951505 0.9761308 1.4552649 0.9540496 -2.0142663 -1.2313552 2.797765 -1.9250023 -0.5467639 0.18633604 -1.2282566 -2.2179625 1.5210778 -2.4757535 0.03902142 1.0898033 -1.242517 1.3949031 -0.40459386 0.4621467 -0.60773534 -0.5165051 -1.0711583 1.0931511 0.8802344 3.609744 -0.2638519 -0.86783046 -2.696476 -1.0438454 -0.9125809 -0.16178659 0.67345095 0.829412 -0.7240738 1.6302917 0.3103817 1.5179412 1.1167667 -0.33612502 -0.076242104 -1.5779835 -0.11812131 -1.1680229 -1.5454484 -2.7667434 0.4004876 -1.7184515 -1.0031615 1.0566115 -0.9192296
62 0.6985986 0.03348314 -0.47535864 0.33552334 -1.144026 1.4511673 1.1674635 -0.34738058 -0.28147316 -0.2776886 1.8133391 -0.57168114 1.5390131 -0.46867934 1.7538239 -0.45269912 -0.64550495 0.12967393 0.37503046 0.70656276 -1.2019731 1.0871707 -2.130431 1.1788657 0.6998364 -0.5931405 -1.6359115 1.444586 0.6519327 -2.9835215 -0.54319894 -0.6046781 -0.20582795 -0.9046833 0.32167718 -0.6247952 0.16023852 1.6152438 0.5453299 1.587234 -1.6587036 -0.85225976 -1.6802005 1.5509706 -0.4956962 -1.1744798 0.17040871 1.312072 -0.30990726 -0.2014583 -0.5733119 -0.29228038 0.6231581 -0.36904815 -1.0118334 -0.9636418 0.43391958 -2.0067163 -2.0086153 0.074931815 -1.2216213 -0.96546143 -0.27634326 1.8360933
63 0.70404744 4.1907606 -0.556281 0.90066195 2.0691154 2.744491 -2.8186932 -3.0204382 -2.140537 -1.4176804 1.3892716 0.37437895 -0.72158206 2.0215662 2.7638426 2.068301 -0.08343912 3.4288378 -1.8796622 -2.450116 -1.2381682 2.887444 -4.4749074 -3.4342668 -1.2626975 -2.7616413 -1.2630453 -2.879684 -2.7328427 -0.42522967 -2.947234 2.44374 -0.6278011 0.37163717 2.4332426 0.30664372 0.32620764 0.14024018 -0.6765217 0.19802554 -1.0589391 -2.4313076 -4.938382 -2.2337534 3.322465 0.9752656 3.6276948 0.16226812 -1.9291898 -1.298521 1.119468 1.8585827 1.9618154 -0.1382289 2.6427279 -2.379168 -2.4894218 2.0744402 -3.0679028 -0.28060138 0.7272805 3.9081373 -1.461694 -1.9193258
64 1.687123 -1.2150457 1.6862353 0.4536331 -0.6680902 1.8651919 -1.4863522 0.50638264 0.46753028 -2.6910982 1.3097161 -0.4683548 3.4602864 -0.6019085 0.5731591 0.48276007 0.75776875 -0.5404529 -1.9112357 0.96006984 -1.1338687 0.023263386 -0.5161364 0.6796928 -1.0368431 -1.7107732 -1.303709 2.7290695 1.0502824 -2.6805153 0.25814542 0.952631 1.6034973 1.0589756 -0.8889939 -1.3271023 -0.5757712 0.54234946 0.27105996 0.70357263 -2.2237325 0.63641864 -0.7363908 1.0040712 -0.5540833 2.7700472 0.15821216 1.5968641 -1.4358789 -0.33616686 -2.688556 0.92792004 -1.019141 2.3081489 -1.20366 -2.2880054 -0.16158347 -0.44087604 -1.7908891 -0.23844881 -1.4296848 1.0115602 0.5175129 -0.050977476
65 0.9659725 -1.2477667 0.17751221 -1.4144186 -0.20881893 3.2128828 -1.2645158 2.175444 0.36846817 -1.0467939 0.06633244 -1.6210397 3.1098325 1.2361685 -0.01902732 0.6652409 -1.5440857 -0.60410523 -1.6319351 -0.3633203 -1.3599347 0.095034935 0.83244956 2.672351 0.50041586 -3.0128424 -0.30903947 0.31934145 -1.0283059 -1.8199302 0.59953034 0.80491036 2.1364896 0.26345754 -1.7190582 -0.2189124 -0.6597898 1.2964431 0.55684596 0.35540655 -1.0288414 2.759691 1.0564134 -0.30170262 -0.4616732 1.2820113 -0.5186258 3.438309 -1.7221568 -0.25315464 -2.951922 1.2636319 -0.6744166 1.8847721 -0.6343419 -0.01429433 0.7449706 -0.62824166 -0.71138036 0.5623532 -1.7113572 -0.23416765 -1.2269156 -0.16024652
66 1.9405024 -1.5017006 0.9429727 0.659865 -1.8840694 1.3465326 0.6097679 -1.200233 1.9147432 -3.168004 0.78402436 1.7578484 -0.49995008 -3.150695 0.6246851 1.2511046 -0.2341566 0.17977259 -1.0317734 0.6664646 -1.8647171 1.8094318 -0.7391675 -3.9816985 -1.9142158 0.7899514 0.9547842 0.66036594 2.4893913 -1.6950765 0.8825557 0.7305159 -0.22428653 0.5832753 -0.39485827 -0.82123834 1.3172255 -3.2481444 0.8033652 0.44851607 -2.2761576 -2.6355798 -1.4956884 -0.14925899 2.1328216 0.48637772 1.2221482 -0.36648774 0.6704298 -0.87127036 -0.81390077 0.55095905 -1.8330922 1.8716223 -2.8954618 -1.1658871 -0.48894313 -1.2657863 0.5462687 -1.1191713 -0.14131746 -0.22701566 -1.0013974 0.01631268
67 -2.0848203 -1.659463 2.3599987 -0.26215604 2.0892844 0.7966607 2.0296078 -1.7060353 -1.0490419 -0.24867576 -1.1859939 -2.3872104 3.3522654 -3.1595993 1.9963934 1.4813066 -3.0711968 -0.7650122 0.25123033 -1.866423 -0.85651404 -2.4535394 0.5568029 -0.13453387 -3.859348 -0.6600962 -1.83041 0.12567928 3.966529 -0.34692279 2.7815833 0.35487005 2.9129496 1.9496428 -0.3907878 0.55714405 -1.0133944 -2.2492595 0.7396921 1.8186334 -2.0613763 0.39334852 -0.24573462 -2.4037788 0.14189045 0.8035403 -3.1198294 0.18436916 -1.1207765 1.287255 -0.15659368 -0.6880234 1.3187017 2.859082 0.5386691 -2.2187004 -0.43792686 -0.6816648 1.8185468 -1.275867 -0.8337219 0.7292844 0.89015114 -1.8832041
68 -1.9821473 -2.0836153 1.0920522 -0.925636 -0.97694635 1.1175153 0.76606375 2.7002304 2.3727136 0.39359608 0.22857222 -2.2418141 0.088028215 -2.9762573 0.025430184 3.328174 3.3809488 -0.9185487 -1.2937988 3.9898486 -1.520491 5.8937197 -0.16036552 -4.0721173 -1.3197204 3.7915866 -3.7812054 1.6099799 -1.7717248 0.32555774 -0.6102913 -0.37947342 -0.58676004 2.8076322 -1.614009 0.96431875 -1.0041249 -2.676389 3.0435119 3.884336 -0.51096064 1.2775798 -0.8205145 -0.7021732 1.3847277 -0.63798213 -0.2917809 1.9993672 2.832018 -2.215587 -2.7106717 -1.250006 -3.725235 -4.1405454 3.5972674 -3.5153325 -2.9599864 -1.1817627 0.7737866 1.338442 2.6433766 -0.9393486 -1.4824326 -1.2744695
69 -1.9910188 -0.53832185 -1.597607 0.861427 0.5203219 -0.23308559 -1.8719218 -2.8353374 -1.534959 0.5495441 -0.8913683 0.32223535 -0.99640757 1.5427136 1.9547229 2.7833712 0.3414702 2.9946666 -2.9112513 4.278602 -2.6981695 0.9273975 -2.828434 -2.5426428 1.4893515 -0.31683674 -2.1712723 -0.28119263 -1.8451449 -0.4616385 -3.8896434 1.6884598 -0.37108865 -0.7788801 3.1084769 2.0726092 1.4049401 0.43730453 3.8207626 -0.86282474 0.49264762 -3.4102883 -3.4422016 2.4889886 2.4579432 -1.0628563 4.084791 -1.3078165 1.4794198 -1.1435417 1.323926 1.9139655 -0.33795092 -0.21349587 -0.81377137 -0.29997241 -4.617168 -0.44257036 -3.2698278 1.0650556 -1.5278337 2.2769213 -0.35449383 -0.8957674
70 -2.0069666 -2.955446 -0.31888655 1.1948751 0.79703176 0.59773225 -1.662157 0.71319824 -0.19678709 3.1731775 0.4038031 -1.4533536 1.1301169 -3.5667663 -0.023822535 3.3762057 1.4477885 1.1615446 1.4900699 3.1346111 -2.3292773 0.5366609 0.8764913 -4.6964326 -0.42153403 0.97442347 -1.5571389 3.8978631 3.0927827 -0.94511664 0.7643892 0.22497684 0.15802412 1.107477 1.5316228 1.2661407 -0.8856087 -3.6469655 3.787064 0.11289033 -0.6408221 1.8593867 -0.9313375 -3.4892356 0.82835275 -0.021277122 1.5272608 1.3570424 -0.4503866 3.4678166 1.1214924 0.86651987 -1.2086031 -1.029299 1.714308 -1.0010791 -1.5365077 -1.2817019 -0.3052107 -0.9895549 -0.9757948 -0.22877006 0.3252345 -0.015314923
71 -0.96023506 -2.0110636 0.21680294 1.5678924 0.80118245 -1.0384915 3.0130017 -0.9888297 1.8372722 -1.6303138 0.7314521 -1.7027225 0.5872838 -5.212148 0.58799946 1.1185955 -1.3733 -1.8816614 0.14935435 5.758152 1.2011385 1.4495052 1.9960048 -5.1019692 -1.2762722 2.6069374 -2.1455376 0.82284385 0.92284226 -0.16298413 2.9898672 -1.6739686 -1.4755294 0.25944963 -1.7245704 -2.3126593 -1.3537264 -1.6299642 2.6436539 -1.3407841 0.5962608 -2.0957158 -2.0613577 -2.8005745 -0.41655526 -1.4573046 1.4023716 -2.4188776 1.7691679 1.0976495 1.7945211 0.0646886 -3.2297032 0.43866867 -3.6124494 -0.70184344 -0.19211209 -3.5665824 -2.10841 -0.726129 -1.7751013 -4.634947 0.91952324 0.50622016
72 -2.0186317 -2.1256275 0.52418154 0.5714897 -0.8012462 -4.6021447 1.6845742 0.041527122 2.0762002 1.7353026 -1.246038 -2.4958527 1.1339802 -4.1017284 1.5952362 2.641837 0.6205119 -1.1505653 -3.1621215 7.5599723 -2.2210574 -0.32386023 -0.06508744 -2.1640575 -0.44697592 2.6546097 -3.1735945 0.6504903 0.5801294 -0.74721116 1.0050216 -0.49743605 0.87045425 -1.0836533 1.6187668 -0.33030853 0.8413879 0.47179773 6.6654544 -1.3578049 0.5591005 -3.3188992 -1.8575935 0.30761418 1.3507698 -0.07107382 2.9584527 -1.2943922 2.0071256 1.0973622 1.9267726 2.4180632 -0.7932626 -0.9104914 -2.6791868 0.16741684 -3.0097477 -2.1488152 -3.731961 1.1666917 -1.7291774 -1.2321912 1.7836416 -0.5734722
73 -1.1152396 -2.1854408 -1.1605163 1.1688304 -1.1917819 1.4342053 0.12860689 -1.6455681 -2.3082728 1.8017653 1.246722 2.1282358 1.4446437 0.24999295 0.09632393 2.067453 -1.5348169 3.253372 0.2429417 2.333546 -3.546617 -1.582748 -0.16649765 -3.7041907 -1.2372217 -1.4842827 0.014962254 4.1609373 4.339171 -2.8512492 -0.30868945 2.444656 2.7971623 -0.11356704 2.2293372 0.30593026 1.9493517 -1.8677125 1.4898255 -1.9502566 -2.1054246 -0.6469724 -1.4627177 0.4268957 1.7587055 0.44164434 -0.44730958 1.809871 -1.4713874 4.485698 0.7696599 1.0163342 -1.6143949 0.48246863 -4.380405 0.42513233 -1.6552807 0.84809756 -0.7024752 -2.9824834 -1.6728115 0.57265615 1.5783175 1.4474086
74 -2.8944528 -3.8910787 1.2133225 0.45019847 0.12597518 1.0852426 4.653003 3.52102 -0.3816474 -1.5877469 1.1815308 0.7048173 4.080293 -1.6408628 1.2058952 1.1827841 -0.1706343 -0.29244837 3.6328976 1.5206766 1.7921885 1.4864093 0.5868059 -2.7191463 -1.9530107 -2.4282682 -0.613097 1.6213335 0.1831129 -1.4349854 1.2875729 4.421075 0.33578017 0.8953183 -2.3770165 -1.0814745 -1.0079379 0.37871024 -1.2817136 3.5810761 -0.19551134 2.5263188 3.9729307 -2.417842 -2.2794201 3.7616372 -3.2288704 0.8976048 2.403551 3.0266082 -1.8628918 2.7502952 -3.7283516 1.395651 -0.74852794 -0.18008415 -1.6317359 -2.2146742 3.8866868 -0.4756388 -0.2020915 -2.5092957 -0.91647416 0.43222603
75 0.6050569 3.2258277 -0.5487088 0.68347096 2.0970016 2.2417386 -2.8426132 -3.7312565 -1.8725297 -1.0203193 0.46282873 0.57957643 -1.5907959 2.1176612 2.4293594 2.0394137 0.36348823 3.711342 -2.1837125 -0.5194643 -1.9011148 2.3398201 -4.059252 -3.2222543 -0.113445304 -1.9605153 -1.3461053 -2.05593 -2.341457 -0.07490324 -3.4735446 1.8675836 -0.7846973 0.07929243 2.8409646 0.4120946 0.65007025 0.25797504 0.19830285 -0.38427278 -0.26614904 -2.7281396 -3.9026766 -0.31626672 3.4307153 0.07051456 3.9587662 0.14979737 -0.9687353 -1.7330644 1.2118042 1.3095531 1.3589046 -0.11549238 1.4490376 -1.5577929 -3.0061667 0.88219965 -3.2795904 0.1735158 0.097325556 3.2433956 -1.1798064 -1.5776416
76 0.18127906 -0.6998414 -0.5764318 1.5092332 -2.9107475 -0.63860506 0.6626769 -1.8089615 0.10470434 -3.3147738 2.210518 2.4492977 1.571421 2.3089635 0.6214667 2.320496 1.1701686 0.16244891 -1.5908889 -0.3406813 -2.00015 3.1745908 -3.3804092 1.6459383 0.13039696 -3.2217147 1.1035025 -3.3100584 2.165977 -2.638863 -0.15493321 4.94388 -2.7642572 -2.6874678 0.8341389 0.80088586 -1.0544869 -0.96404576 1.3631175 0.86169696 -2.1258206 -0.33009285 -1.36352 0.4981255 -0.3882746 1.3060468 -2.4142132 -2.2401595 -2.907283 -1.0366025 -1.2340654 0.8435144 4.743061 -1.8928815 -0.8359269 -0.6716819 -3.1636813 2.84818 -1.4831532 -1.7601221 -0.40581027 2.4846108 1.210935 -2.210886
77 -0.7981792 0.0040514846 1.7219044 2.0136032 0.19224827 0.047983997 0.7346615 -0.7246966 0.19145429 -0.5422477 1.7356244 -1.2589089 2.7549968 -3.9688973 -0.7734934 1.5816433 -1.1862595 -1.3881778 -0.36031905 -1.2005416 -4.163265 0.94104016 -1.7876964 0.3013336 -2.1331234 -1.9132161 -2.3432236 -0.88660544 0.32542875 -0.66341627 -1.541725 1.9935973 0.34555295 0.2227968 0.8310862 2.028997 1.8134214 1.7347724 0.32540312 0.19283454 -1.0432419 -1.4628258 -2.9339797 -0.5315717 0.1747268 0.5180123 -0.40776578 1.3940946 0.2448569 -0.99148667 -2.2652376 -0.884843 3.5500913 -0.21820089 0.23787804 -2.6608377 -0.7075674 0.43938836 -0.62127596 0.105657935 -1.9190787 3.7516787 -1.5050399 0.29953936
78 -0.78135 -0.064294584 0.61368865 2.1221054 2.649163 -0.04373019 0.8205789 0.09267704 -0.014047866 0.54291785 -0.8684453 0.73747605 2.189716 0.048642464 0.37855145 1.798127 0.7892407 1.7002019 0.5436963 3.0312834 0.1618221 2.7417433 1.1773291 -2.0401416 -2.0666099 -2.103227 -1.1106689 -0.81577045 -0.8457929 2.172248 -1.5243465 1.4431735 -2.2549157 -1.3751298 -0.11528116 0.6505307 1.2783111 1.695281 -0.373701 0.77864313 -1.8781841 -0.25637296 -1.6803992 -0.8859758 1.4556273 -0.6931913 -0.54071635 0.5016871 0.44257396 0.04779259 -0.2749111 -1.751464 0.9106803 0.29917544 -0.29591405 -1.2477864 -2.0780292 -0.67322725 -0.40065262 -0.90528643 -0.8829928 -1.0328286 -2.548132 -1.3549072
79 -1.2619703 -0.6854904 0.8535159 1.2291473 1.3251373 -0.14053187 0.64337426 0.058384985 -0.15205331 0.19949071 -0.57983947 0.10403198 0.81484807 -0.34275478 0.8734881 0.6763512 -0.026211506 1.2214917 0.5137932 1.824981 1.0058324 1.6221472 0.6149906 -1.4969556 -1.8717546 -1.8121085 -1.4856131 -0.6425113 -0.59338385 1.0581015 -1.0122808 1.2857627 -0.92815393 0.16701818 -0.27963486 0.88275903 0.727284 1.6646183 0.07294834 1.1257019 -1.7938379 -0.71067566 -2.0192683 -0.5208244 1.0867784 -0.96692437 -0.21476 -0.23794767 0.11478253 0.21435596 -0.11014892 -0.75547755 0.39099395 0.2585872 -0.2945591 -1.3381314 -1.9233574 -1.0963544 -0.15538862 -0.16332623 -0.6347932 -0.9013124 -1.8335565 -1.1076946
80 0.015523121 -3.49567 -0.31094974 1.9358541 -0.20939304 3.5809624 -1.9642826 -1.7071838 -0.073078126 -1.491107 0.62162113 -0.14995055 -1.3533773 -0.8391125 -0.054630056 2.424593 -3.33872 0.5134954 3.5599573 1.8840265 0.5623355 1.5913177 -0.9627053 -1.749168 -1.2806904 -1.0086606 -3.6223643 2.863807 1.8765215 -0.5466406 -0.2480116 2.1208456 0.7844338 2.7408826 -0.66861796 -1.7270756 2.8792853 3.2075338 -1.724029 0.89192873 0.08150968 -0.1441717 -1.0761281 2.0991986 1.6180724 0.5834392 1.7496877 2.3633418 -2.5458474 1.8142161 -1.5119252 -1.5393875 -2.2274573 0.77637595 -1.5729976 -0.3877883 2.2739873 -0.38342687 -0.13533981 -2.2888114 -5.1093845 -1.1404566 -0.20699218 0.35521266
81 1.2123811 4.9614162 -0.12306848 1.0685455 1.6546019 2.3610847 -2.0816221 -1.675319 -1.3899498 -0.5816521 2.2504954 -0.60191363 0.20203342 0.32146046 2.9136434 1.7949045 -0.28622139 1.5812614 -0.7367399 -3.682981 -0.5194255 2.773322 -4.127796 -2.4892457 -1.9143991 -4.0016026 -1.6676798 -4.0627046 -2.0229616 -0.72515684 -1.3251989 3.3080764 0.033088654 0.10742132 2.4390059 0.19374287 0.14052808 0.014611129 -1.399162 1.3087236 -2.1797335 -1.4628849 -5.5579324 -3.9169598 2.5585008 2.017389 2.202826 0.72576517 -2.5159268 -0.9453002 0.7919536 2.1150231 3.8644629 0.94457483 3.9226692 -3.917412 -0.60101336 2.5205932 -2.2105951 -0.23795165 0.5394352 4.3122888 -0.91959846 -2.7352653
82 1.1808399 0.9106283 0.45122954 1.6926382 -2.291837 -1.4903114 0.08136106 -1.0415328 0.83834654 -2.8244772 2.930314 1.9301704 1.4135114 -0.33334884 0.5991409 2.656241 1.4530091 -1.8883846 -1.3788227 -0.5164104 -1.3328365 4.533663 -4.5094447 2.6411865 0.19236332 -3.8341148 0.8219022 -5.022944 2.0292075 -1.8532388 -1.0484464 5.7300406 -3.77918 -3.3376687 2.066497 2.3163936 -0.4513383 -0.29645947 1.5842495 0.4400206 -2.314257 -1.4686501 -2.7020962 -0.3529807 -0.6609274 1.6435825 -2.4046676 -2.475674 -4.0380287 -1.0924442 -0.79071826 0.8073298 6.924317 -1.7098813 0.4602815 -1.9393344 -2.6588607 3.280963 -2.9796176 -1.5281358 -1.3310952 3.1536112 0.94336957 -2.411233
83 -0.6668325 -0.98256177 0.97243655 1.4671435 -1.4726307 1.5213745 0.21185493 -1.7926304 -0.5824275 1.1612592 1.6371433 0.33058885 1.4707618 -0.45198485 1.7140924 0.16191573 0.011899955 0.48538664 0.83971685 0.61813235 -0.63605326 1.4033297 0.66346353 -2.9751496 0.12908563 0.5543231 -2.2380407 0.6572841 -0.17196181 -0.93396187 -0.13874348 1.3185116 -2.4274626 -0.32428408 0.20443374 3.349334 1.5345939 1.3810273 1.3992677 -0.7410975 -3.7461085 -3.2799692 -2.9765875 0.053697 0.05581937 -1.7958219 0.6098893 1.2578021 0.95313364 1.0377065 2.3764272 0.48631912 -1.3424479 2.7740743 -1.2248921 -2.227902 0.8518142 -1.6619992 -1.5894032 -0.17853169 -1.1495166 2.159812 0.15757039 -2.0550432
84 -0.27778742 -0.21530198 1.121291 0.78451276 0.40466502 0.5078452 0.8959968 -0.37657353 0.098555565 -0.3157845 1.2972596 -1.5423859 1.3546407 -2.3318064 -0.14246918 1.0023811 -1.0343249 -0.6943171 -0.7482837 -0.48268476 -2.90885 0.9889102 -0.9600098 0.05788467 -1.3935858 -1.2895918 -1.6366817 -0.4894445 0.3488961 -0.73860794 -1.1016488 1.2770228 0.83760875 0.36491972 0.7430753 1.3431041 0.7623871 1.2652335 0.37530744 0.4122119 -0.59624916 -1.1956066 -2.24468 -0.18869275 0.36853194 0.015092732 -0.30384788 1.275662 -0.11273827 -0.45105186 -1.0663342 -0.6068621 1.5846171 0.321407 -0.12250589 -1.8460627 -0.27444193 -0.332736 -0.11254023 -0.16479623 -1.5280887 2.2876928 -1.08521 0.32829532
85 -1.8624551 -2.3558137 1.8092853 0.079481065 1.1100854 -0.6039741 0.25324818 0.26929203 -0.73574114 -0.61914647 -0.65774214 0.2202601 -0.12575261 -1.3659872 1.8622869 -0.5542693 -1.1610885 2.2383394 0.92218727 2.2128258 2.9949756 1.409493 0.7860827 -2.2750838 -2.4733257 -3.1105134 -2.0890367 -0.50215906 -1.4473784 -0.24990256 -1.1459521 2.2571545 -0.4645304 3.3586988 -0.4837209 1.2374785 -0.21928819 2.307939 1.2607754 2.7561023 -2.465647 -2.551182 -3.3429713 -0.15773855 1.5896301 -1.9738301 0.85376024 -1.7563539 0.038692202 0.36223486 0.2881188 1.167221 -1.1480764 0.042691793 -0.56538373 -1.8667488 -3.077806 -2.3891077 1.1146843 0.8057383 -0.65836793 -1.5248593 -2.576214 -0.5723891
86 0.44605848 -0.023354141 1.0129455 -0.42705885 -0.6285529 -1.5689821 -1.5633849 2.8373694 -2.1272244 -0.6395591 1.8137385 -0.93076277 0.0902654 -0.56433827 0.9597273 4.4939876 -4.961338 2.1725357 2.871839 1.7956921 -1.3622618 2.712852 1.0630143 -4.512922 0.28247228 -0.4997277 1.8022097 2.9592018 0.61793894 -1.9931153 0.13516942 3.5171158 -2.7194848 -0.93824714 0.87134135 -1.3362103 1.060181 1.5622153 -0.44417357 -0.8611155 -1.6262909 -1.7021481 -3.4044816 1.4097942 1.1545641 -1.3864584 -2.058444 -1.2005324 0.21669212 -0.564155 -0.45052043 -2.5096745 1.8545918 2.6839054 -3.7851012 -1.4279696 1.9483534 1.5673473 -1.1981293 -1.5083948 -1.0075254 2.2419474 -0.6749067 0.42891234
87 -2.2865393 -1.805782 1.2654063 1.2073399 1.5700148 2.0928512 1.5286313 2.1530824 -1.7903256 0.061723776 0.3102007 -0.72152305 2.109123 -1.5340124 2.8973007 2.4346728 -1.4924897 1.5235641 1.5753185 2.1693974 -0.4248624 2.1155171 3.1591125 -4.773367 -2.7556334 -0.664589 -1.7322103 3.5940833 0.7211924 -0.33567408 -0.3171346 1.6772496 0.1672351 0.16619354 0.47618353 -2.0267873 2.6004336 1.223773 -0.09108909 1.1995339 -0.56302977 -2.0408995 -2.2775998 0.11566086 0.34336486 0.13542351 -2.7222762 -0.61279136 3.200083 -0.83327806 0.65831506 -0.18739274 0.5603348 2.6222851 -0.41099256 -1.571354 2.3283587 1.1314945 -2.4757369 0.10191136 -1.9085705 2.3271523 -2.0302925 -0.2628851
88 0.037113152 0.06655124 1.716713 0.8268376 0.52118033 0.40030774 2.001187 -0.8303922 -0.15092875 -0.3398866 2.3084679 -2.4108708 1.279817 -2.5246408 0.07550802 0.7631608 -1.4491372 -0.7470396 -0.9820027 -1.4419886 -4.122016 1.1999168 -1.4486201 0.011192936 -1.9594982 -1.5625926 -2.1950855 0.07748263 0.7024097 -1.2581978 -1.7058214 1.4821488 2.2532852 1.3736959 1.4728458 1.5668935 0.705794 2.0509188 -0.3652525 1.1694994 -1.1381412 -1.9691684 -3.274783 -0.5841782 0.539943 -0.18059075 -0.09567985 2.4862545 -0.47734186 -0.67810935 -1.0874403 -0.95922595 1.495826 0.023537137 0.012052006 -2.39183 -0.36042747 -0.678822 0.4053597 -0.28554624 -1.339152 3.2732153 -1.9003307 1.020584
89 1.6870761 2.337894 1.678692 0.5517196 -0.009541199 -0.6302254 1.5367789 -2.7417524 1.3877578 -0.9484185 1.4710369 -1.0918386 -0.058311377 -0.3633064 -0.4701777 -0.022116676 -0.59733385 0.18812867 -0.8187005 -3.9548821 -3.315429 -0.80083704 -2.232971 0.3307263 -0.2822455 -3.15703 -0.6563519 -2.506437 1.0373576 -1.3654624 0.042964198 1.7827395 2.4042509 -0.5388837 1.4050303 1.0960915 -0.6328734 1.6181468 -2.3196578 2.9225612 -1.4530859 0.3437334 -1.582599 -2.249036 -0.991692 0.81458807 -1.1280931 2.7081838 -1.6374792 -1.6417463 -1.054842 -2.1411757 3.3157108 1.2789875 0.561847 -2.0815399 -1.6926633 -1.1057289 0.38905957 0.55025816 0.38715947 2.6271293 -0.25507128 -1.4661325
90 -0.14220196 -0.8576007 0.32086185 -0.1925522 0.31277266 1.8238945 0.4795605 -1.0514972 0.36445275 -0.7746903 -0.45870292 -0.03468027 -0.04359676 -0.10930663 0.69515216 0.33218485 -0.6263988 -0.6715881 -0.79958946 1.271702 -0.5494495 0.6930059 -0.46510085 -1.6372552 0.9921854 0.44677037 -1.3873211 0.034251086 -0.98086524 -0.746925 -0.8125808 -0.3598574 -1.4499625 0.2341709 -0.6408304 1.6523197 0.9795641 0.7042546 1.5130724 -0.23216067 -1.7185156 -1.0317596 -1.3745224 0.7220439 1.058373 -0.7258646 0.14844689 1.8093121 0.60103166 -0.5418105 0.54727805 -0.04896458 -0.9384527 1.0532616 -0.052521646 -0.89604396 0.14840159 -0.24670891 -1.2036548 -0.16420649 -0.07895284 1.1703721 -0.6877225 -1.5586749
91 -3.6086287 0.011572704 -1.2566539 0.4864552 0.16018733 -0.1632226 1.2090678 1.795863 -1.5009296 -0.20289835 1.3297818 -1.0167298 2.8620453 0.48660806 3.2314234 1.4010612 -0.5143153 0.5555833 -2.4437814 -0.66231996 -3.93095 2.9413977 2.0987678 -0.5692123 0.44866192 -0.5470902 -2.4405186 -1.4439629 -2.8613365 -0.9162328 -2.3975897 0.09381647 0.21636477 0.42423528 -1.8224036 0.03734393 -2.2221346 1.2111609 1.8380973 0.36162278 -0.40716973 1.8713055 -1.5784146 -1.0088911 0.5800355 -1.2047242 -0.013052711 0.8871281 0.073823884 0.8415733 2.8838458 0.5682532 -0.23783799 2.5804212 -0.539477 -1.9017571 1.1049346 -1.7020122 -0.05914763 0.19228126 1.2517895 0.17871606 -1.465777 -0.9490334
92 1.5328511 -1.3652099 1.8942444 -0.07794341 0.052721467 1.2724359 0.7359151 -2.8635075 2.264813 -3.4704473 -0.55246156 0.82310176 -0.31758982 -0.9383485 0.049832743 -0.017142978 -1.3310488 2.39376 -0.7036096 1.2890315 -0.7878115 0.760239 0.7394857 -2.650783 -0.6046046 -0.65313184 1.4405812 -1.3330688 1.7924201 -2.3642557 1.9849114 0.6717979 -0.1403257 1.5169712 -0.41174883 -2.8054743 -0.37491995 -3.591919 0.5103604 -0.8453948 0.083993606 -1.3223879 -0.3326231 0.51507163 0.6234377 -0.31784716 0.1669929 -0.74681795 0.37741378 -1.222595 -0.21416232 -1.0229696 -1.9354069 0.93270046 -2.2844791 0.06445269 -0.70586795 -0.44615787 0.44843957 -1.0297874 0.56901467 -0.6828373 0.7076568 0.47084746
93 1.4459385 -2.4916213 -0.555975 -1.2841707 0.985212 -0.6703251 -1.9909332 -1.0784371 1.5886921 -2.1681087 -0.09301039 -2.1575956 0.36513713 -1.5470834 0.07425859 0.96957016 1.3690364 0.16391413 -1.0619384 5.8390937 -0.6965377 2.057549 1.7540761 0.49988323 -0.10661558 2.4360628 -0.09616877 -0.34743902 0.5268441 -0.9872453 -0.1451081 1.4932064 0.056886613 0.18721437 0.2999881 1.1488707 -1.1655784 -0.31623957 2.3842597 0.43955275 -0.99277866 0.38180426 -0.19673288 2.2839055 3.4153373 -1.5862242 1.07601 0.1201775 3.0574117 -0.8292172 -0.5386915 0.2989274 -0.55790657 1.6938833 -2.6713 1.0397152 1.895387 -1.211527 -0.9693024 -1.560341 -3.1347048 -0.4106734 -0.30726656 -0.6631216
94 0.6444701 0.2168511 1.4248415 -1.6120363 -1.1701494 -0.8667193 3.9544523 2.8963437 0.6160531 0.49593157 0.79876214 -0.41040686 4.669067 0.988566 -0.45182994 -2.0120795 1.589377 2.1936042 -4.026518 -1.8309315 -0.51446223 0.31451586 -0.07785383 1.6458062 -1.2879009 -4.151837 3.003005 -1.6140387 -0.3084821 -4.47063 -0.0035768205 2.2661686 1.8218012 -1.1218503 0.11384019 1.2781552 1.8998414 -1.4048008 -0.8946138 1.1932878 -2.7841568 0.2620201 -0.023858637 -2.030116 -2.5042195 3.114927 -4.2319727 1.0037783 1.5157893 0.8342491 -2.049011 1.9528444 1.4517239 1.1735585 -0.59171623 -1.0746186 -3.0991411 -0.22529516 -0.8976143 0.78169537 1.6045077 0.40658662 0.40748522 1.2489588
95 0.3590662 -0.29390806 -0.67026484 0.86078507 -0.72422165 0.92279947 1.3492982 0.29933107 0.7111085 -1.2271618 0.8026091 0.5780272 1.0925039 -2.0664186 -0.15269403 1.5622184 -1.3418376 -0.033931524 0.84384876 1.083084 -0.58398134 3.4498234 0.23775999 -1.7736324 -1.401788 -2.1449857 1.3544935 2.9983344 1.3678077 -2.2353678 0.47696555 1.3144915 -1.9346007 0.11147281 0.15378104 0.35606858 1.2193224 -0.99273974 1.6868703 0.049138166 -1.1104997 -1.9306822 -0.9886548 1.917489 -0.37890598 0.41539973 -0.47997454 0.53822315 3.370111 -1.1487806 0.87766606 -1.1793517 -1.4627244 0.5043609 -0.17201224 0.58423615 -2.6920638 -1.526077 -1.810411 -0.15145573 -1.52838 -1.6307727 -0.36595592 0.23393014
96 -0.21887441 0.6408567 0.37088603 -0.3718635 0.1926706 0.7184854 2.1709716 -2.1884634 -3.117491 1.5199124 0.6852007 -2.118998 1.753025 -3.7046044 -0.15160684 0.04179214 0.011445523 0.1498874 -4.5775476 0.11156748 3.7808604 0.2735766 0.9953189 1.5445195 -3.6051362 -1.7787219 -2.4337623 -1.805796 0.24213631 -1.6569929 -0.9691356 -1.1009504 1.6888496 -0.6887852 -2.8802717 3.8855872 3.4252884 0.8905906 0.28132024 1.1476018 -3.323484 -1.8873799 -2.6070795 1.2098514 -2.6191838 0.73179686 -1.348393 0.41508213 0.32940868 2.810447 0.054714665 -0.922581 0.35079804 2.5903382 -2.4066346 -2.038575 -0.98102164 -1.4076314 -3.1593034 -1.1438072 -1.5916384 -0.021979237 0.9524236 -0.63041896
97 1.0058068 1.4826415 1.6584773 -2.148428 -1.1567734 0.10626179 2.5384955 1.8840306 -1.266621 0.9116161 0.026485294 -1.2040805 3.9229705 0.8852487 -0.8722373 -1.3358827 0.1576986 1.3758718 -5.551875 -2.4367208 -1.3408597 0.20742887 0.5218953 2.0191407 -1.53729 -3.3352668 2.3166575 -2.4304664 -2.2206745 -3.8982708 -1.2933047 1.0936961 1.3227316 -1.534039 -0.075440384 3.7405488 2.669042 -0.86719316 0.031316064 1.1182114 -3.3569152 -0.69303226 -3.1414535 -1.0697926 -2.7306154 1.7521204 -2.0563762 0.80895513 1.8804417 -0.8866256 -0.80206627 0.19768958 2.3695662 2.426951 1.0384291 -2.3558114 -3.5788617 -0.20910531 -2.9269712 1.1765047 2.195551 1.6450589 0.12761818 0.5582668
98 -2.3600674 -1.7759115 1.6104169 -1.1000074 -2.2252514 0.5666646 1.9934487 3.3424783 2.6646113 0.2642075 0.95212245 -2.4648373 0.09279854 -3.0541527 1.2139206 2.6889365 2.856456 -1.7902216 -2.227045 3.5264509 0.40291876 5.704986 0.21794948 -2.4206026 -2.1957526 3.1181688 -3.927152 -0.42504537 -2.797735 -0.84959596 0.36646417 -0.83026224 0.47097734 2.5021534 -3.609989 1.4632066 0.057852414 -1.232683 1.872569 3.1350346 -1.0367565 1.0216378 -0.7648282 0.39510542 0.233663 0.0599389 -0.9732435 2.6195173 2.9190671 -1.3203285 -2.4179916 -1.233279 -3.8987517 -2.641095 2.4988832 -3.5496156 -2.403778 -1.8870801 0.20668635 1.895789 1.7862996 -1.838756 -0.6222285 -1.6034818
99 -0.46002206 -1.0245092 -2.276508 0.48927128 1.0343955 2.9261394 -1.3356798 0.094597414 1.1350659 1.1448874 0.25091857 -1.2493317 -0.47865793 -0.21587107 0.58392996 0.76430947 -2.0209281 -0.18073486 -2.4787948 0.5412007 -1.3070849 0.28585935 -0.63896674 -1.4604889 0.95702463 -0.52776915 -2.3588283 -1.3260124 -0.8095872 -1.6459734 -2.075742 -0.014331556 -0.68603706 0.060460094 -1.5272548 1.6631471 1.150892 0.30225015 1.230308 -1.6425266 -0.29256862 -0.67237246 -2.4626753 1.273938 2.3382895 -0.7643597 0.45560366 1.7941155 -1.485069 0.04485093 1.4793707 -0.022702293 -0.941913 1.5726846 0.80794334 -0.79539293 1.34265 0.30062342 -1.8693215 -0.1586878 -2.3702216 0.7497076 -2.4185321 -0.17572019
100 -2.4238293 -1.3843288 1.758357 1.755753 1.5961852 1.1884874 1.1319683 2.0733125 -0.34885222 0.38890508 0.9474079 -0.020200882 2.1358864 -1.9102143 2.2063198 2.0944836 -0.80109173 0.6473223 1.8218544 2.5765712 -0.26347843 2.1399415 1.9370617 -3.1199405 -2.4844434 -1.3424475 -2.2753754 2.7086346 0.78211373 -0.46161017 -0.9260791 2.572731 0.19575371 0.5626622 0.44096607 -0.97995925 2.6141555 1.4562941 -0.6981752 1.1097164 -1.4506614 -1.8696923 -2.4291139 -0.23508686 -0.38840678 0.5059464 -2.072238 -0.72890484 2.5512035 -0.55308485 0.4392373 -0.06327036 0.46700796 2.9355834 -1.0582645 -1.9509162 1.5078787 1.3912754 -2.5081794 0.26016572 -2.3922682 1.5338992 -2.1410184 -0.26224902
101 3.3412664 -2.2264585 1.3701273 -0.077817805 -0.4046181 0.9953135 -1.3843235 0.1876592 -0.98606396 -3.0514505 0.4549234 0.25001118 5.063442 -0.10758085 -0.6978885 2.4664788 1.0905612 1.8462224 -0.6859488 2.3036246 -0.6109209 1.1440346 2.1606243 -1.3182343 -0.98128426 -3.716392 -1.3859711 1.720158 -1.3855784 -0.09950905 -1.2102983 1.8340844 0.05777374 0.20941086 -1.9458131 -2.1445134 0.14921637 1.8532306 0.93178153 0.42970532 -2.3984203 1.693601 0.19142619 0.03903445 0.40089047 1.1384368 -1.3900336 1.3944228 -1.2739649 -0.060895663 -5.28804 -0.084992684 -1.4016885 0.21700585 -0.40645373 -2.059796 -0.2024213 1.7533786 -0.48297647 -0.30151704 -0.675991 -0.09705178 -2.272039 -0.1383306
102 -1.7270725 -3.5674152 -0.7881741 1.3937812 2.1441026 0.79603565 -1.7520838 1.2712723 0.6856061 3.1635375 0.4732397 -1.8920656 0.5324548 -4.9303694 -0.6042186 4.243877 2.7564263 0.6061874 1.105903 4.1808314 -2.20689 1.368096 0.49567056 -5.486919 -0.7417895 2.2666948 -2.563678 4.435713 2.4505358 -0.34516466 0.9489028 -0.28616077 -0.33115914 1.0799352 1.5393478 1.1225598 -1.4713473 -4.740235 4.613116 0.9768046 -0.027656358 2.1761093 -0.6289071 -2.930521 0.9832781 -0.43498275 1.4284049 1.2668844 -0.10652008 2.0860262 0.25135282 1.0186055 -2.2971683 -2.0203485 3.1258743 -0.433289 -2.1826622 -1.1809491 0.2805062 -0.14444585 0.15205602 -0.42774573 -0.63825756 0.11171429
103 -1.289125 -2.7652454 0.2247034 0.16089414 0.7849209 1.1181569 -0.9573354 1.806742 1.8466283 1.4455723 0.3091044 -1.6901028 0.95340216 -3.2201383 -0.23831704 3.8361635 2.6893666 1.0387682 -0.6868877 3.9045243 -2.1470852 3.4152465 -0.03518454 -4.313059 -0.57005423 1.6676809 -2.7177331 2.0277357 0.26239276 -0.4344667 -0.31806326 0.44125485 -0.40727884 1.0657578 0.40654078 0.86464584 -1.5054417 -3.4013317 3.3725808 2.6515243 -0.4591702 1.9884781 -0.41210383 -1.8982685 1.0315349 -0.18977368 0.046489615 2.0478272 0.8287999 -0.11163712 -1.7466798 0.12990129 -2.2648313 -2.5075834 2.9528499 -1.7366754 -2.643015 -1.0169445 0.36437026 0.57377386 0.84732175 -0.32098043 -1.3019041 -0.7401387
104 1.2456561 2.1725903 0.81692314 0.6339927 0.20102505 -0.45326528 0.5519447 -1.8893054 1.3150014 -0.06821836 1.1903008 -1.3266298 -0.49484032 -0.6058954 0.02480808 0.5280775 -0.64992595 0.17107914 -0.61792034 -2.6349664 -2.4896176 -0.5434782 -1.6158684 -0.518134 -0.07910608 -2.8941624 -0.78972775 -2.4019125 0.4885668 -1.1414765 -0.11926705 1.4536543 1.514979 -0.73078465 1.6235461 1.196177 -0.0982112 1.2766881 -1.5504838 2.1564 -1.2134502 -0.24605122 -2.2290661 -1.628003 -0.67436594 0.31280142 -0.6393618 1.5627556 -1.5021483 -1.4360616 -0.35392702 -1.3743299 2.8893828 1.3621764 0.6807308 -2.066725 -1.0717987 -1.0485911 -0.12930444 0.6588875 -0.79516983 2.2582803 -0.20431438 -1.6219964
105 1.1387585 -1.3033521 1.0516827 0.2749142 -1.543012 1.0045179 0.5469882 -0.8441596 1.105662 -2.2122076 0.37159008 0.8798513 -0.23470108 -2.279521 0.48959142 0.44994473 -0.763433 0.4140758 -0.819145 0.46213347 -1.2276585 1.4578856 -0.36140984 -2.7569168 -1.0034915 0.34157565 0.08461079 0.4021167 1.2874985 -1.3816168 0.7743462 0.6721868 -0.07765021 0.96086913 -0.33872676 -0.1371854 0.46113005 -2.0496476 1.017184 0.55266845 -1.7864068 -2.0194092 -1.4970642 -0.022556935 1.5860523 0.0674719 1.1221899 -0.06028507 0.18802673 -0.6754907 -0.5708596 0.5919162 -1.4484401 1.10383 -1.8527465 -0.92763376 -0.9825839 -1.3942559 0.7133371 -0.7769796 0.015694398 -0.5335779 -0.9961019 0.28703082
106 0.77580535 -2.065459 1.4055772 -0.3483801 -0.79677045 1.083984 0.23806186 -0.43505886 0.679963 -1.4846772 -0.4685488 0.8598373 0.11554835 -1.827652 0.6376202 -0.14332251 -1.5473242 1.275056 -0.9320368 0.8828423 -0.120801896 0.8708562 -0.3071878 -2.4038262 -0.83081454 -0.23690045 -0.66045725 0.70771897 0.3001186 -1.2315348 -0.058521207 1.3008231 -0.24230745 1.9153523 -0.60582316 0.013812466 -0.72605735 -1.1220858 1.3835341 0.8391955 -1.9128771 -2.5054128 -1.0763422 0.15843605 1.5101789 -0.5637916 0.94780517 -0.57000476 -0.37590745 0.0044633043 -0.09308671 1.2569888 -2.151521 1.0089612 -1.6051998 -0.888787 -1.4590722 -1.7140062 1.4392577 -0.89157236 -0.13292769 -0.30976367 -1.3602045 0.15423617
107 1.1204065 -3.057492 1.0313414 -0.7633483 0.6370964 2.8727126 0.49764797 -1.8714788 2.3868604 -4.171456 -1.3979462 -0.011565274 -0.72392887 -0.5925783 0.3933005 -1.5695988 -2.6705432 2.1193116 -0.108664684 1.9830467 -0.032171413 1.8073332 1.9778324 -3.3597918 -0.4540487 -1.3260742 -0.5554493 -0.5913338 0.6921278 -3.145037 1.6720746 0.9064669 0.6683638 4.131265 -1.5857487 -2.543407 -1.175418 -2.9687586 2.5805817 -0.58627975 1.5572377 -1.7404994 -0.5384196 1.173235 1.9953117 -0.6888564 1.4772537 -0.3289791 -0.02654101 -0.5956589 -0.329175 0.6561961 -4.2551365 0.050148137 -2.5013032 1.2004503 -0.6633031 -1.5686984 1.9155391 -0.6509486 -0.81896365 -2.697954 -0.13624267 1.1781942
108 -0.03118016 -2.3062246 1.7395704 -0.71167856 -0.218497 0.8147885 0.20007569 -0.4188683 -0.20780362 -1.2383815 -0.74451214 0.6480966 -0.22800049 -1.9512897 0.67139536 -0.43070626 -1.8375008 1.8886479 -0.57987213 1.311825 0.9872928 1.1521099 0.05663381 -2.2523181 -0.8767411 -0.8867243 -1.1209675 0.6832835 -0.3710651 -1.4167854 -0.23554951 1.7567031 -0.52729845 2.8022034 -0.47238722 0.45399517 -1.2133617 -0.2512732 1.821603 1.2297653 -1.9567318 -2.824197 -1.9435292 0.47849134 1.253737 -1.0687635 1.1438698 -1.2347775 -0.61883855 0.16612017 0.21545571 1.5563836 -2.0566814 0.40916935 -1.2917798 -0.96767086 -2.007857 -2.3074021 1.2093965 -0.7384528 0.052116632 -0.8191487 -1.4702718 0.18856242
109 1.6754993 -1.0790778 -2.0191817 0.18794444 1.6413524 3.2587864 2.1445265 0.79307693 -0.1476869 1.3534245 1.931731 -1.2074999 -0.27401617 -0.59914875 0.6720688 1.4715077 -0.23099963 1.8303683 -0.5778265 2.5005946 -1.9365314 2.7982032 -0.5460603 -0.2749571 2.6998625 -0.6570024 -0.5282149 2.9423707 0.19834186 -1.723444 0.7932938 0.55676484 -2.307175 -1.4882028 0.9052638 -3.6604888 0.56244975 0.005022157 0.87460756 -1.2298336 -0.87943053 -2.377102 0.29761785 3.1064472 0.13681452 -1.9682741 0.80230516 -0.005282406 1.4490918 -0.27607256 0.45714238 0.9155275 -1.2728833 0.766419 -3.1258724 -0.2949907 -0.6349519 -3.671053 -1.2613012 -0.030430174 -2.345077 -2.9234293 -0.3030916 2.2797935
110 -0.18051946 -0.28201956 1.7743411 0.20637812 -1.1695504 -0.68966585 3.3601592 -1.052551 -0.22558472 -1.8659083 0.43458614 -0.5001017 1.3951212 -2.3048646 0.95220023 -2.2443154 -2.3195872 1.9955434 -0.19624506 2.36536 -2.1564703 0.06444951 -0.14976402 -0.8881004 -1.0333203 -0.38414055 -0.25586742 -0.4401074 -0.24698615 -2.8272047 0.8324598 2.4798787 -0.34745422 1.0988736 0.28084046 0.95153147 0.9957559 0.6984849 1.8982197 2.165853 -0.7357146 -1.4664278 -1.5121815 -0.12023913 -0.28997293 -0.2909156 2.1037798 0.49798775 0.6914349 0.48589694 -2.3387501 -0.7041552 -0.97869843 0.79012084 -0.38957518 -0.783224 -1.1754652 -1.7250003 0.17518927 0.12035358 1.1740725 0.91181916 0.25888124 1.7138307
111 0.56579936 -0.92810833 -3.0282156 2.5282924 -1.7811303 2.2107205 1.3692483 4.3680506 -2.05038 1.3780504 1.6738336 -2.8586178 -2.3944178 -2.8836732 -1.2808481 0.16469298 -3.039561 0.30283988 -1.4221117 3.0394886 -1.1822082 4.32562 1.8354089 -1.0343772 3.8237138 1.4310085 -1.6710869 1.9966232 -1.4790709 -1.5755827 0.9605412 3.1473382 -3.1776443 1.7129847 -3.5043292 1.3113543 2.2271347 -0.93689615 1.7851777 -0.39013353 -0.65875393 -2.739467 -3.3650122 1.8699524 -0.5515557 -0.6540689 0.89995515 1.2096795 3.5545316 -2.3919845 -1.6755 -0.64626193 0.82039326 0.06947866 -0.48456886 0.103267856 -3.1634939 -2.6020002 -1.5994259 1.2490783 2.144885 -2.6724095 -2.34905 1.5251625
112 -0.26204568 -0.6498928 -1.3907111 1.4138895 0.448274 1.8111194 3.0506647 1.9505168 1.8489218 2.653486 1.5007157 -2.4969077 -0.61129236 0.6996841 0.8219552 0.42343816 -0.081462026 1.7371916 -2.2225034 3.0267222 -1.0209925 3.6162336 -0.07618891 -0.1925215 2.499634 -0.87470233 -0.79837 -0.11816804 -0.797939 0.1321383 -0.5385358 -0.7202126 -1.1063513 -1.4093271 1.576354 -1.2232909 1.5112958 1.5656165 0.40116093 -0.93753606 0.5850171 -1.4759427 -1.8021281 2.330216 1.3169606 -1.3697093 1.3950903 0.27597073 1.8755766 -0.04453457 2.8539822 0.5938789 -0.8425034 2.3498437 -1.039803 -0.64905304 0.38933405 -3.6861763 -0.106663994 0.23149036 -3.5272293 -1.3120763 -1.5233943 0.5232686
113 -1.0370919 -1.6925708 -0.6399289 0.63711804 -0.51407886 -2.896008 -0.39018068 -1.7751187 0.8269681 1.5240244 -1.4746556 -1.2587123 -0.057335008 -1.2771956 1.4438652 2.328543 0.39681074 0.53971255 -2.8918693 6.034876 -3.013345 0.35549477 -1.4178114 -2.1664524 0.6565804 0.781011 -1.7878186 0.37964454 -0.41153955 -1.4129645 -1.1721466 1.1907208 0.1651513 -2.2257519 2.303182 0.7783678 0.83190227 -0.13329874 4.82926 -0.90183693 0.39080644 -2.7261755 -2.0763493 2.124239 1.6561053 -1.3269478 3.017686 -1.6772048 1.4266125 -0.55929136 1.3052822 2.347455 0.48056105 -1.3591653 -1.8795478 0.62108326 -3.998156 -1.3818873 -3.725724 1.9259248 -1.4432493 0.333943 0.60312027 0.1381825
114 1.0513985 1.4662699 -0.49115175 -0.23681664 -1.091978 5.1222095 0.27786845 1.7454519 -1.3891554 -0.16554411 2.1404657 -0.7259212 2.3382406 1.4920189 1.6713017 1.2049671 -0.61739707 -0.7839265 1.9633929 -1.672671 -0.8870762 3.3441722 -1.0099959 3.7261934 2.1073396 -1.2579744 -1.7857572 3.4011586 2.1093354 -0.84469926 -0.62775296 -2.2011514 0.31081966 -1.9511989 -0.09037886 -1.9686067 -1.059012 1.1281279 -0.5809234 2.4666154 -3.9167743 -1.1863487 -0.61586654 3.0540688 -1.2935575 -2.476533 -1.901033 1.7241112 0.6890668 -3.482724 0.7484967 -0.5646247 0.49639148 0.36849993 -3.6238353 -2.3678117 0.48229253 -5.215222 -0.9552588 -1.1429206 -2.4408562 -3.2298741 -1.5247236 0.044648834
115 -1.2353721 -1.0207001 2.5264325 0.6811145 0.12688167 -0.37245715 1.4732453 -0.12873344 -0.6172139 -1.3460248 -1.8190494 -1.2787445 1.9861242 -2.3486543 0.87157536 2.7901814 -3.9377482 -1.3438281 -0.24281698 -2.7402916 0.75443685 0.19898684 2.36904 1.2410531 -2.378753 0.36394802 -1.1280692 -0.0075437035 3.258949 0.57483816 2.1977718 1.74876 1.2520521 3.0482125 -0.73976123 0.7949423 -1.1578102 -2.9142268 1.4043192 3.6911106 -2.282166 0.6404625 -1.1213976 -1.1882677 -0.7394272 -0.18703014 -3.401677 0.17006363 0.8957343 -1.1415793 -0.8482919 -2.1471527 0.54684836 1.8618264 1.8854145 -2.0373187 -1.3853296 -0.9053419 0.7517824 -1.2670336 0.11376738 1.9143474 -0.11598906 -3.1804125
116 -0.9008701 1.9970908 2.974902 0.4106878 -0.38397565 2.4768186 3.7387488 1.0466744 0.45812348 -1.507421 1.3809379 -3.4003773 3.6297097 -0.46885064 0.59537333 1.7571592 0.73996806 -2.1700244 1.9099433 -2.665452 -1.7846501 -0.5162433 0.08927229 2.1805034 -2.3048458 -2.1016428 -0.58180577 0.6322461 1.8639467 -0.26086605 1.7769448 -0.16681631 0.5652168 -1.8016903 -0.77619946 -1.2733651 0.37094986 1.7891818 0.2245759 2.7136688 -4.187573 -0.70817125 0.22495885 -1.7179247 -2.1736176 1.0056466 -2.4964507 1.7177975 2.5235953 -3.404868 0.7626028 -1.3590757 1.6181933 0.16380984 -2.1993883 -2.454772 -2.3398845 -2.7255213 -0.9217341 -1.9577702 0.103018135 -2.3849945 -0.7953646 -2.3697417
117 -1.4138982 -0.25545457 2.3537943 1.0646713 0.14704044 -2.2859936 4.7916155 -1.0049512 4.1940117 -0.6774711 -0.029615793 -4.7592597 2.7277284 -3.8275414 1.0092915 1.6971015 1.286386 -2.9763107 -0.7312015 0.9606535 -2.5044951 -1.805848 -0.23794615 -0.2590837 -5.156384 1.2014555 -2.3475885 0.06770702 2.800063 -1.094468 2.3465815 -0.7218553 1.1387537 -2.0551019 -0.9863392 -2.2379806 1.5120379 1.8000209 3.3144724 0.29285625 -2.4857883 -3.3134718 -0.4555795 -1.5887997 -0.14614898 0.92535913 -0.21135013 -0.57788706 2.1788425 -1.3885432 1.6831543 0.78679633 0.9298489 -0.3606494 -2.1656814 -0.0529022 -1.9412383 -1.3309281 -3.7927837 -0.01459299 -1.5924108 -1.6579056 0.81103456 -1.1987416
118 -0.7151117 -2.3837729 1.2738912 -0.25097826 1.0544926 1.5533596 2.0992382 -1.2017652 -0.5830552 0.7195871 -0.2862818 -2.4305344 3.7075074 -3.302543 1.6979178 1.0268803 -2.806167 -0.12095807 0.7592218 -0.9937886 -1.9102924 -2.94672 0.49198923 -1.4233502 -3.7287488 -0.04299764 -1.9141974 1.3677669 5.1924148 -0.6445012 2.0171268 0.66109604 3.289 1.5166856 0.8100385 0.8135161 -0.48716494 -3.0722725 0.76710284 0.17116797 -1.8597349 -0.50151646 -1.6338395 -2.9572477 0.4272312 0.8127955 -2.3599868 1.1620395 -0.97584087 2.2663379 1.1561043 -0.29812384 -0.25710386 3.253124 -0.6890861 -2.6672747 -0.20296773 0.12053939 1.2488679 -1.220228 -1.4110274 0.317872 1.3913422 -1.0748261
119 -2.7848392 -4.0701084 1.045395 1.2160602 0.72285354 1.0790769 4.4322977 2.5526855 0.0810249 -1.6922731 1.9802245 1.0402483 3.4825356 -3.4632404 1.0120019 1.296872 -0.6529865 -0.688508 4.36379 4.2504025 2.5136762 1.7763089 1.4523891 -5.9541793 -2.8297749 -0.19816071 -1.2503378 3.1790226 0.66690356 -0.3686171 1.067075 3.7545328 -1.5494161 0.76163423 -2.2481475 -1.3258125 -2.0420296 -0.5451658 -0.7210348 2.2781596 0.21589606 0.92609936 3.264248 -2.8016138 -1.9659469 2.772369 -2.3053818 -0.73868775 3.2873724 3.4394197 -0.16263363 2.4013245 -5.203231 1.4134699 -2.2133162 0.48392725 -1.6641179 -3.0606933 3.2809637 -1.3371199 -0.52586037 -4.048226 -0.1354749 0.6986627
120 0.7687497 0.65653527 0.20582503 -0.12166424 0.53933746 1.0987533 0.93922085 -0.19906579 0.5671683 -1.7079852 -0.07283039 0.32464236 1.7978833 -1.531975 0.5549349 2.2983859 -0.6226785 0.5771016 1.4720799 1.2097863 -0.9404846 2.3146915 0.11589869 -1.7869627 -1.6416557 -2.397608 1.1222327 1.6212128 0.59400797 -2.1896775 0.2600738 1.5520384 -1.8748912 -0.7601248 0.48004705 0.69661707 0.849478 -0.6159246 0.5632006 -0.32257774 -1.1232728 -1.3664395 -0.5909687 0.8845615 -0.4564639 0.71534306 0.38007984 0.479004 2.6209643 -0.25276476 0.68567896 -0.7679708 -0.71487266 0.5203341 -0.38751644 0.50010717 -2.192985 -1.7712348 -1.7379193 -0.18450686 -1.2441219 -1.6871518 0.48171565 0.91689837
121 0.33028534 0.002414147 1.0244415 1.2329053 -1.2615337 0.9743727 -0.8406754 -1.0732192 2.2920601 -1.704954 0.83552796 0.8864745 0.7133152 -0.6297089 0.57336736 1.1565809 -0.7861199 1.2078723 -0.9780114 0.9600665 -0.6682159 0.43167174 0.27597755 -0.93547356 -1.408847 -0.31899086 1.0095229 -0.69249976 1.1988655 -2.2132666 1.0963806 1.0106839 0.85928816 -0.13047802 0.2592637 0.5152791 1.2062383 -1.4053079 -0.6922972 -0.7022504 -0.5049675 0.12933597 -1.1550081 0.16274484 0.3790441 0.24185054 -0.6720171 0.44645438 0.7239413 -1.6222467 -0.21720128 -0.38771078 -0.30001357 1.8102634 0.21913484 -0.64583033 -0.2753868 0.057177007 -0.48773092 -1.4473122 -0.13867727 -0.046079297 0.18068 -0.06231448
122 -0.49629036 -1.0325549 0.7347091 1.7599443 -2.4595273 0.54289925 0.4263175 -2.1299067 -0.28908774 1.5191778 1.998959 -0.14293398 2.5187624 -1.7269326 1.158149 0.62281495 -0.59061617 1.113196 1.9615892 -0.11624076 -1.1937455 0.5928889 1.715546 -3.3359203 -0.6926488 0.4276374 -1.9226099 0.62748027 2.2420743 -1.3249886 0.55400306 1.15976 -1.6002864 -0.31047958 -0.3538073 2.542344 0.4332331 -0.4365257 0.83005685 -1.3571887 -3.8444157 -2.7903593 -2.9776776 -1.2408442 -0.75665635 -1.1262403 0.31520072 0.1437216 -0.2816801 2.4481308 2.5885022 0.56435174 -0.13533366 2.9536254 -1.7186888 -2.4271748 1.6380417 -2.0475817 -1.7615411 -0.9662252 -2.1605232 0.7658683 0.92143947 -1.2445427
123 1.4651127 -1.7434397 0.4720357 0.55417734 1.567959 2.677994 1.2352425 -0.7418518 1.3439934 -2.901888 -1.6071059 2.0782526 2.473578 1.9302611 0.024011118 0.18778768 0.20870681 3.037816 1.0410881 2.7628162 0.9203198 2.8979223 2.326107 -2.6827197 -1.8566712 -2.409934 -0.9136904 1.615841 1.323898 -0.021982498 -2.4291441 2.0117443 -0.71884483 1.2063224 -1.4720469 -0.6326508 0.8827288 0.78934604 -0.039859354 -0.16406338 -0.9029707 -0.29033202 0.14550798 -0.8155373 1.2613208 0.29940033 -1.03585 1.5262067 2.0542052 1.5462543 -1.2374158 -1.6547915 -1.5927806 0.22070688 -1.3387694 1.0470655 -2.6458516 -0.7853598 0.9030701 -1.5065047 -1.0567036 -2.7997139 -0.5771058 -0.68516934
124 2.1377387 0.24410304 -0.2262416 -2.1026173 0.065683275 1.369039 -2.4435518 1.3202198 -0.3882825 0.17191865 -0.356425 -1.1908048 2.2570841 -0.5795066 0.20247187 2.5502224 -2.7563503 1.0756476 -1.0091649 -0.7064038 -2.4672701 -0.631061 -0.30940685 -1.0404866 0.61639667 -3.6118035 -2.1836772 0.84339416 -1.2598903 -1.3931947 -0.5723017 0.6462734 -0.27410078 -0.41528082 -2.4228816 -1.9871383 -1.1640521 0.5332069 0.13221343 2.020865 -0.74774325 1.8264196 0.7629663 0.3224542 -1.0680604 0.6396879 -2.2802453 1.6340207 -2.0262346 1.1332369 -3.1640484 2.17967 -0.52255917 0.6679229 0.5678976 -0.041625198 0.98929465 -0.30916706 0.5441438 1.871613 -2.8336039 0.051633947 -0.7665849 -0.54160535
125 0.044312395 -1.2636704 -1.3719058 1.6322778 -2.0016239 0.9662679 1.5077105 1.1062894 -0.013269019 -0.24494968 1.7724048 0.47440177 0.19086511 -1.8941314 -0.78888303 0.68119854 -2.1145537 -0.46242812 -0.7463956 1.2651005 -0.3368506 4.161906 1.2248603 -1.5980823 0.22375427 -1.8144428 1.0690379 2.733746 1.1907042 -2.009397 0.6132468 1.9017776 -1.6265434 0.7244527 -0.89255816 0.17915389 1.014159 -0.12532869 2.7601786 0.44334736 -1.1097533 -1.1470779 -0.8662768 2.8644478 0.2912492 0.37250417 -1.0453789 1.1198406 4.2904463 -2.1926706 -0.030023586 -1.4222559 -1.8470562 0.50334466 0.26550576 0.2859491 -2.984743 -1.5682873 -1.073519 -0.24830978 -0.8090935 -2.0929296 -1.570598 -0.84684926
126 0.37594095 0.61907333 1.5150564 1.0993898 0.636231 0.7314541 1.8327643 -2.1142714 2.1696486 -1.5318322 -0.21593471 0.14252715 -0.63270706 -3.26216 -0.3365822 1.7894093 -0.57093865 0.96804047 -1.6316079 2.6545064 0.9140033 0.17145792 -0.5708536 -1.2881578 -1.257172 -1.1187773 2.0802424 -2.2100556 1.749328 -2.2914271 -0.055145044 0.6651038 -1.0053191 1.0415156 -0.9335734 -2.0531888 -1.0295885 -3.241552 -0.3307574 0.08847397 -0.5872634 -1.8897188 -0.80226743 -0.88813055 -0.859027 0.04480753 -0.40819925 -1.0410447 1.9141686 -0.8790176 0.44663256 -1.6018678 -0.44787237 1.3375658 -0.56511414 -1.8587866 -1.3744856 0.7413506 -0.84340316 -0.30251393 -0.10890829 0.4012353 -0.21977703 -1.011755
127 -0.2503995 0.9758678 0.06791786 -0.007771732 1.8416432 2.050802 0.6435549 -2.9175289 -3.8301013 0.061784092 -1.7293605 -2.0776258 -0.6614612 -1.7773942 -2.3014898 1.1567816 -1.2272003 1.5894622 -0.5097061 0.123421066 0.9661644 0.6075931 1.7872066 -1.0715363 0.09629439 -0.7242438 -0.27277207 0.89434505 1.5753914 -0.06060664 -1.3287153 0.7990093 0.26095966 -1.0257396 -0.50732493 1.5736231 1.336013 -0.4263167 1.1743431 1.8549806 -1.0172046 -1.4920682 -2.2925603 -0.36630702 -0.81969833 -0.114813685 -0.01765005 -1.0892315 1.0098656 1.6440418 0.9012203 -0.5190642 1.5415046 2.080165 -1.7724454 -1.0878451 -1.2657067 -0.60496503 -2.0037267 -2.218843 -1.1532239 2.5345314 -0.42006534 -0.8136739
128 1.7547559 1.9558553 2.924122 -2.0597854 -1.0665958 0.49593553 -0.63082725 -1.8699336 -3.2223706 -0.46746054 -0.99008656 -1.1237805 2.0719135 0.8375611 -0.94568694 1.5266012 -1.4530442 2.213995 -4.385025 -0.85861933 -1.4753411 0.35574797 0.74616534 -0.8937523 -0.82947576 -1.379958 2.4132204 -0.84482414 -2.326813 -3.0750575 -1.3737532 0.48784298 -0.40184516 -2.0373318 0.08639028 2.4570644 2.7243352 -1.0780178 0.1277289 -0.43954986 -2.0860338 -2.7981873 -3.9026253 -0.041591514 -1.1588273 -0.5141699 0.52911365 -1.552802 3.3271253 -1.6651876 1.3360376 -2.0818138 2.3700023 1.4695708 -0.787845 -1.8775288 -3.0997908 -0.10669562 -4.988539 -0.5833586 1.3313366 2.318518 0.4879297 1.6076837
129 2.4291556 -1.1613915 -0.5492534 0.23968205 1.5509776 1.3082815 1.4539582 0.15428595 -1.5385925 -0.29185507 0.335896 -0.0796059 2.681409 0.1391545 0.35398954 2.610324 0.62055856 2.150903 0.6050809 2.2589812 -1.8268682 2.1270673 1.0580367 -0.52442026 0.08899602 -3.2982278 0.9180525 1.0148513 -1.5229098 -0.8916125 0.86753535 2.0839152 -2.2152433 -1.0689704 0.8900061 -2.3187256 0.7342907 0.74326676 -0.24494997 -0.650795 -1.7879177 -0.80200934 0.661539 0.5227317 0.042328432 -0.19396843 0.3332304 0.65583557 1.8150226 -0.9704331 -1.98928 -0.5926114 -0.32108375 -0.5329241 -1.6318733 -0.7290682 -2.1055546 -1.132089 -0.8909368 -0.57325506 -0.20660499 -2.433774 -1.107109 2.1426532
130 -0.31434667 0.28017327 1.2728226 1.5819232 0.12380423 -0.67728823 -0.06442951 1.3329378 2.0123687 -0.16500412 1.4179611 0.18664679 1.6658852 -2.357973 0.07456433 1.5417598 0.7219523 -2.2603567 -0.35389498 2.249852 -0.5963012 2.635533 -1.3055631 1.8766367 -0.48889133 -2.860195 -0.81336904 -1.1948895 1.5570519 -0.801213 -0.8852571 3.5105834 -1.0876245 -0.9658191 0.40487462 1.4542015 1.2656361 1.2700777 0.16579416 -0.034821495 -1.0156533 -0.77131146 -1.6176674 0.2727491 -0.5199651 1.1607702 -1.8892585 -1.3298286 -0.98830813 -1.1475704 -0.76988155 0.5772004 3.2951412 2.1811755 -1.1959298 -2.5226169 0.27563608 1.6222372 -1.927851 -0.16001117 -2.8120656 1.1179506 -0.8984544 -1.1262046
131 1.3541999 2.6260118 0.23902656 0.6552541 1.007696 1.9322243 -0.81786084 0.51750004 -0.87639314 0.78534424 1.1662356 -2.3399043 0.65145296 -1.8829097 1.4663852 1.4827068 -1.4518279 -0.33863482 0.89515054 -2.5364466 -2.1204865 1.1788244 -1.0900797 -0.97837514 -0.9384697 -3.6624486 -0.85453105 -3.072615 -0.09159844 -1.3675752 0.8612343 2.3631337 0.46984094 -0.63566554 0.3668815 -0.20027556 0.80807436 0.5614607 -1.1360636 1.3496658 -0.71337366 0.62739193 -3.511515 -2.6819844 1.099688 1.3318393 -1.0505581 1.4931527 -1.7702624 -1.1126164 -0.9855026 -0.21032053 3.998884 2.801691 2.634114 -4.4021654 2.7312229 1.119 0.62896925 -0.29027012 -1.175658 2.670217 -0.607246 -1.4139977
132 -1.0061162 -2.4874434 1.8093777 -0.43150082 0.3496182 -0.21667865 0.4657391 -0.37828103 -0.5683348 -1.0929337 -0.81900346 0.3153459 -1.744243e-05 -1.8934679 1.3467517 -0.5435574 -1.706542 2.336532 0.32842544 1.5845561 2.3643892 1.3627707 0.6173662 -2.2129676 -1.6906753 -2.206905 -1.7595522 -0.3535272 -1.0135716 -0.9773598 -0.6904286 2.10521 -0.31120327 3.4949727 -0.5227846 1.1239398 -0.6345938 1.3536524 1.9542602 2.442577 -2.2975895 -2.7615752 -3.113396 0.11341415 1.2953794 -1.4716672 1.0545149 -1.8253675 -0.45480898 0.18042105 0.23991473 1.7742773 -1.8969514 0.43548936 -0.692624 -1.5734895 -2.7560103 -2.520963 1.0860739 -0.025726538 0.016338946 -0.9697411 -1.8015217 -0.14293444
133 2.7262247 -2.13615 1.0108176 0.22702461 -0.037392005 0.9189158 -0.41893697 -0.14110947 -0.87913847 -2.744396 0.2418433 0.42221695 4.2666006 0.3334239 -0.46549058 2.236835 1.1218648 1.8851042 -0.32492718 2.4229345 -0.65046537 1.5018386 2.0559788 -1.1824553 -1.1071887 -3.204771 -0.61205333 1.3361986 -1.0778366 0.060656242 -1.1874385 2.0048404 -0.34562737 -0.07410598 -1.178917 -1.6600803 0.28952658 1.5607734 0.56499326 0.29417512 -2.180053 1.1250004 0.0051624724 -0.06270108 0.51969427 0.7173244 -1.0945036 1.3139704 -0.005135636 -0.33872756 -4.049245 -0.9586722 -0.9742961 0.17818922 -0.8469887 -1.6297454 -0.8886378 1.179853 -0.5174934 -0.7031918 -0.28219438 -0.72281975 -1.8326842 -0.051733013
134 2.3059156 -1.4795837 1.1236589 -0.5963124 -0.0033147004 1.1055756 -1.5535728 0.920238 -0.56554335 -2.0573962 0.20294552 -0.27101487 3.7734687 -0.5842334 -0.5611875 1.8959748 -0.28613967 1.93068 -1.0586197 1.9256039 -0.8859691 0.9437034 1.6853932 -1.191821 -0.4420163 -3.0467489 -1.830324 1.3505324 -1.2012309 -0.34786823 -0.79390156 1.287219 0.06938208 0.23762405 -2.1410847 -1.8526614 -0.020861054 1.304498 1.0048115 0.28104612 -1.486057 1.4729245 0.23365107 -0.18366669 0.36624202 1.0600585 -1.2783306 1.0706328 -1.5987605 0.6292812 -3.963853 0.6359404 -0.9050915 0.31818864 -0.07435451 -1.6436033 0.38147944 0.7449426 -0.024855034 0.13360046 -1.601646 0.19629681 -1.7323767 -0.2812396
135 1.4467158 -1.5300287 0.5359902 0.69317216 1.355801 2.3258474 0.9820058 -1.0328646 -0.09218579 -3.16233 -1.1915445 2.8124626 3.5317352 1.708739 -0.69773006 1.3176411 1.269395 2.7764852 0.46701854 3.335539 0.4290193 2.8817477 2.8140876 -2.695107 -1.99315 -2.6050308 -0.4700238 1.8193858 0.62818193 0.93161976 -2.4177277 2.6869953 -1.4849994 0.040679332 -1.0528272 -0.688804 1.1589963 0.71764153 -0.5228878 -0.37247807 -1.5039626 0.18964751 0.28945416 -0.0474494 0.84696543 1.0330793 -0.672747 1.3523662 1.4479809 1.0748751 -2.3091984 -2.3259199 -1.3222963 0.60472 -1.998623 0.042285964 -2.020046 -0.036767196 0.48390198 -2.405031 -0.18989377 -2.1787448 -0.98173326 -1.221025
136 -3.6803048 -0.42538613 0.25842896 0.0722593 -0.77549326 0.6620449 0.93979037 2.7452822 -1.7927655 -1.2482039 0.69791925 0.08634915 2.5975485 0.29219317 2.5603647 0.7171567 -0.8699768 -0.33110952 -1.3376732 -1.41252 -3.927656 1.7298717 1.0552361 -0.83757323 -0.7832353 -0.3332628 -2.8706193 -0.73027426 -1.2312654 -0.69545263 -1.947669 0.72419775 0.41355893 0.9566759 -1.9266138 1.612665 -2.2794974 1.5645931 1.0464935 -0.18456502 0.14897247 2.1026676 -0.9410929 -2.2043958 0.8060573 0.082918786 -0.6812269 2.3469384 1.3498876 1.8854125 2.4354289 -0.7166339 0.6615719 2.5647259 -0.78199846 -1.8982856 -0.056587584 -2.3797607 -0.14556316 -1.4545094 2.4093633 0.03771983 -1.1080362 -1.4510691
137 -0.99042577 1.3191124 -2.2125676 1.284398 0.9683149 1.0644455 -2.959837 -3.6334262 -2.476617 -0.13691804 -0.3082431 1.2278138 -1.4773015 2.6734626 2.7192857 2.9781785 0.9530682 4.02654 -2.826801 2.2365336 -2.9088755 2.0149133 -4.750114 -3.7318523 0.60723263 -0.8490877 -2.123925 -0.54407007 -2.0972607 -0.19363055 -5.03021 1.8486828 -0.98422307 -0.20356973 3.885361 1.8578519 1.4065013 0.5812771 2.7178478 -1.2345692 -0.00527323 -4.654904 -4.6612034 1.4777033 3.617065 -0.71123177 5.119144 -1.3451703 0.2987581 -1.7150538 1.6429108 1.7397603 0.35973752 -0.504766 0.05298264 -0.9923701 -4.9007125 0.7705495 -3.613826 0.6579546 -0.38950455 3.291058 -1.6437037 -1.1231179
138 0.58619493 -1.8791049 1.1842104 -1.5609424 -0.41018355 -0.530988 -1.5489979 -1.3740184 0.39454553 -1.2262439 -0.6934825 -2.0130012 2.994382 -1.9899553 -0.9100585 2.3951156 2.2843673 0.30764204 -2.458537 1.0389416 -0.5540876 -0.40653363 0.9227576 3.011062 -0.56782156 -1.0392585 0.0049759736 -2.548849 -0.9171975 -2.0815156 -1.6145049 1.8406801 0.8602654 -1.5652329 0.6477822 3.0934215 -3.300722 4.1679907 3.814253 2.7155526 -1.9669598 1.9128592 1.0870743 1.9721339 -0.4756657 0.5901519 -0.25345492 2.4408374 1.0238266 -0.10761372 -4.734124 2.6122139 0.7131078 0.4074149 2.095887 -1.8153235 -0.14360118 -0.046674635 -1.809513 -0.4840437 -0.9102929 1.017301 -1.8569559 -2.3842204
139 1.6447544 1.5599546 0.32170182 -0.62147814 1.706651 1.5358123 0.5184518 0.21979748 -0.10646448 -2.0120025 -0.5435623 0.25561646 3.1759956 -1.1056616 0.8635684 2.5683582 0.4038036 1.0157015 1.881829 2.1763673 -1.0898827 1.8345944 0.44267747 -1.8631258 -1.7588129 -2.9256856 0.45405897 0.6584764 -0.74447244 -1.991057 -0.017299915 2.153969 -2.2971725 -1.1756614 0.6585818 1.2438247 0.6863966 0.2964419 -0.41628662 -0.5910758 -1.6095072 -0.9787843 -0.56384325 0.4136471 -0.1352074 1.4722204 1.4123924 0.93828183 1.7822163 0.4918168 -0.49776074 -0.047140222 -0.15860866 0.38339582 -0.5410601 0.39921293 -1.4585392 -1.7954458 -1.6169355 -0.5691414 -0.63085526 -1.9264588 0.46797195 1.4463798
140 -1.870277 0.7392075 3.0804458 0.39533994 0.66072106 -0.40047154 3.8628774 -0.7694407 2.322442 -1.4872949 -0.28565404 -4.3009996 2.8476324 -2.0382974 0.93265736 2.386562 0.86892503 -2.4143043 0.21926117 -0.74436474 -2.1699684 -1.8139638 0.18324295 0.7140834 -4.8341675 -0.26824984 -1.271954 -0.17836565 2.367774 -0.41749144 2.6709194 -0.8872756 1.1274966 -2.032658 -1.7473719 -2.046514 1.2657804 2.4090686 2.3480098 1.0985755 -3.461345 -2.0484369 0.79750246 -1.4529637 -0.15841244 1.1948911 -1.1212999 0.15809247 1.708206 -2.3206363 0.6653253 -0.113437064 2.2632236 -0.32711834 -2.4515848 -0.26149794 -2.3190434 -2.1146615 -2.742945 -1.0690968 -0.8541414 -2.1595502 0.1604555 -1.8234537
141 -2.321014 -0.780296 -1.0004256 0.9172777 -0.5866156 -2.9081461 -1.423201 -2.1219966 -1.7992928 1.8140633 -1.1803719 -0.17980433 -0.1307148 -0.21075477 2.0975664 3.5573623 0.6404132 1.4620492 -3.1294124 6.9642735 -3.6465833 0.26856047 -2.9584389 -2.599387 1.4023561 0.6583496 -2.6246753 1.532911 -1.0692263 -0.7116002 -3.0668511 2.374296 -0.21978325 -1.0187138 4.5098124 1.7997752 1.7477602 0.16223197 5.6877313 -1.3173815 0.2655667 -4.567193 -3.425792 2.7164993 2.7277074 -0.92333543 4.600088 -1.8255492 1.7970296 -0.75661755 1.5431132 2.5280137 -0.04863894 -2.0416095 -1.8524809 -0.518058 -5.4416566 -0.07299338 -4.392184 0.97357 -1.5209528 1.2869941 0.7628488 -0.37933064
142 -0.640759 0.31997094 -0.011191591 3.1807406 -1.4197674 0.6034846 1.715816 3.5365605 -0.47319052 -0.40067732 -0.35050103 -0.65267384 -2.083288 -1.7787318 -2.0893557 1.8728518 -4.307519 -0.5646849 -1.0502676 1.2348313 0.81115955 6.243925 4.1191106 0.3640789 1.4223032 0.35636434 -0.84615636 1.776056 -0.3248374 -1.1975335 1.219013 2.9282963 -2.171584 2.8681145 -2.5550294 1.1767893 2.237336 -1.5782453 2.1017427 2.170502 -1.3429213 -1.7268665 -2.1557896 2.9632635 0.067613766 -0.2914892 -1.3497678 0.9271091 3.0938163 -2.7430449 -0.16103366 -2.386072 1.1715232 -0.020822858 0.9305165 1.3727 -2.7608554 -2.1409535 -1.1737788 -0.3636215 0.8388491 -0.06597497 -2.8223836 -1.9029188
143 0.34352848 2.7333465 1.6163455 -0.3585248 -0.80594033 4.383894 1.1156253 1.6308105 -1.4697274 -1.5263299 1.702411 -1.6289773 3.0856578 1.1267354 1.3320079 1.6809299 -0.34005085 -1.7385296 2.9141867 -3.1023448 -1.1773766 1.2043856 -0.32755098 3.6074705 0.46715084 -1.6875589 -0.28054917 2.6755552 1.8071524 0.01109637 1.0764619 -1.2850746 0.37906438 -2.328571 -0.3925839 -2.0206027 -0.5600676 1.007935 -0.56152225 2.9993074 -4.250062 -0.7119844 0.5317707 0.9338102 -2.4638522 -1.0704691 -2.116864 1.3623904 1.4592338 -4.7736535 0.3474084 -0.8888762 0.68608403 -0.23635489 -3.6854746 -2.7164474 -1.0860194 -4.652004 -0.5393956 -1.852193 -0.8857444 -3.011202 -1.0213284 -1.0927706
144 0.6183871 -1.5971669 -0.7603115 -0.6516149 -0.91377825 -0.904437 -0.7901173 0.4113209 0.93454134 -1.0985749 0.07496598 -1.7032108 0.81500643 -1.3087839 -0.33428422 0.3613993 1.0111896 -0.24183881 -0.83128697 3.7649224 -1.0742862 1.6418864 1.5673119 0.52253014 -0.3787193 1.764024 -0.35030955 -0.10354043 -0.031820785 -1.5407723 -0.5943243 1.4594098 0.3070975 0.61990184 0.5638646 2.2516313 -0.35555342 -0.20035824 1.566075 0.22145462 -0.9806305 -0.29891723 -0.89677906 1.0481452 2.6213775 -0.5234394 0.5354079 -0.04172659 3.2464042 -0.32687485 -0.33362463 -0.121575706 0.14516336 1.1225286 -1.1281626 -0.41817465 0.7658973 -0.70987535 -1.1347244 -1.9459196 -1.0000329 0.088452704 -0.88617015 0.58243585
